svm_type c_svc
kernel_type rbf
gamma 0.03125
nr_class 8
total_sv 326
rho -0.206153 0.0705767 0.507733 1.43717 -0.00901483 0.00125509 -1.20895 0.00142433 0.0876085 0.367609 1.27829 -0.262781 -0.0249692 0.35262 0.253297 -0.0050579 -1.59952 0.101477 0.820247 -0.0224777 -0.108665 -0.10136 -0.365147 -0.793123 -0.814782 -0.159115 0.0232968 -0.143095
label 3 2 6 4 8 1 7 5
probA -2.16878 -3.26921 -2.39774 -3.70187 -3.56992 -3.29759 -2.25071 -3.87909 -3.78542 -3.97555 -2.84067 -3.50868 -3.10671 -3.63527 -3.39203 -4.13574 -1.94699 -3.32503 -3.93807 -3.66786 -3.12809 -2.92092 -4.38951 -3.50307 -3.83407 -2.91953 -3.14132 -3.70932
probB 0.108559 -0.0261582 0.336092 -0.380619 0.0221402 0.00706351 -0.016048 -0.0724876 0.32739 0.257083 0.00351982 0.0944771 0.088153 0.0855944 -0.369761 0.428211 0.0514621 0.152505 0.171481 0.0102015 -0.289389 -0.0840083 0.0619459 -0.23527 0.220441 -0.222336 -0.295468 0.0148954
nr_sv 44 32 28 46 46 61 44 25
SV
0.2730714183030733 0 0 4.926076318292032 0.1954117708428482 0 0 1:-0.3046309 2:-0.092942026 3:0.095177967 4:0.047001959 5:-0.90050169 6:-0.68245137 7:-0.7280882 8:0.19315202 9:-0.37328734 10:0.6254721 11:-0.23853646 12:0.080281561 13:0.12425274 14:0.78063751 15:0.10201992 16:0.042119128 17:-0.042316618 18:0.10778645 19:-0.042316618 20:-0.98268389 21:-0.0037467886 22:-0.99065589 23:0.20473797 24:0.4054812 25:0.88285183 26:-0.60846552 27:0.034115372 28:0.44635492 29:0.94510019 30:0.10750376 31:0.23873293 32:0.16624393 33:0.42157146 34:0.16624393 35:-0.94295854 36:-0.22482652 37:-0.74020361 38:0.19304867 39:0.14343969 40:0.711801 41:-0.5026788 42:0.084775317 43:0.13303536 44:0.82455891 45:0.18450039 46:0.066047602 47:-0.087812492 48:0.068700264 49:-0.087812492 50:-0.98772987 51:-0.068721146 52:-0.98917363 53:0.20356592 54:0.34622496 55:0.89066393 56:-0.70770897 57:0.037045605 58:0.43477255 59:0.94121406 60:0.18662658 61:0.24098835 62:0.12230028 63:0.39666014 64:0.12230028 65:-0.9658069 66:-0.27994742 67:-0.78897168 68:0.14356603 69:0.046132702 70:0.82407467 71:-0.54361493 72:0.055983379 73:0.15763017 74:0.81141668 75:0.15366904 76:0.11428012 77:-0.1911446 78:0.016631454 79:-0.1911446 80:-0.99497641 81:-0.10584215 82:-0.98350984 83:0.16703548 84:0.26491676 85:0.9323589 86:-0.81965609 87:0.011131449 88:0.41072452 89:0.94430732 90:0.13777988 91:0.24968369 92:0.015321445 93:0.37271882 94:0.015321445 95:-0.95438707 96:-0.038250155 97:-0.8698121 98:-0.11774726 99:0.19297166 100:0.87660217 101:-0.63602407 102:-0.13642369 103:0.22214737 104:0.71965873 105:0.0092729748 106:-0.066993621 107:-0.32948452 108:-0.07722053 109:-0.32948452 110:-0.99787357 111:0.074257722 112:-0.97360923 113:0.004909951 114:0.41474334 115:0.96380396 116:-0.86769642 117:-0.14085101 118:0.42280931 119:0.89870047 120:0.029196835 121:0.1540101 122:-0.18035007 123:0.38251412 124:-0.18035007 125:-0.26644493 126:-0.051099284 127:-0.51582129 128:-0.11523179 129:-0.20567625 130:0.24405672 131:-0.32287907 132:0.060003509 133:-0.46382118 134:-0.31942872 135:-0.83610889 136:-0.48768857 137:0.074783951 138:0.52183525 139:-0.04278219 140:-0.23807062 141:0.021875563 142:0.40857676 143:-0.83637854 144:-0.77989459 145:-0.4595771 146:-0.013425217 147:-0.082883404 148:0.55669448 149:-0.27037952 150:0.45174494 151:-0.35258943 152:-0.026991003 153:-0.44439448 154:0.15703222 155:-0.00082577424 156:0.21962982 157:-0.10873928 158:0.41012822 159:-0.52573097 160:-0.65356121 161:0.42570487 162:0.53456725 163:-0.42693092 164:-0.64730986 165:0.01849968 166:0.54356922 167:-0.90706835 168:-0.94892138 169:0.034476128 170:0.22366028 171:0.11163302 172:0.91673809 173:0.22835899 174:0.38434875 175:0.45411061 176:0.54289007 177:0.26941236 178:-0.30626523 179:-0.47661229 180:0.10645132 181:0.2111064 182:-0.32696657 183:-0.30626523 184:-0.55189512 185:-0.16171617 186:-0.11666072 
0 0 0 0 0 0 2.762126944707482 1:-0.88192855 2:-0.40268548 3:0.41666667 4:0.65919589 5:-0.85727454 6:-0.82556488 7:-0.20720957 8:-0.33534713 9:-0.55339792 10:0.34285727 11:-0.070316987 12:-0.66855735 13:-0.22520726 14:0.40700428 15:-0.54799 16:-0.54497969 17:-0.61111819 18:-0.23877164 19:-0.61111819 20:-0.95666343 21:-0.4128404 22:-0.966635 23:-0.28934656 24:0.035607094 25:0.6769562 26:-0.39887907 27:-0.71201216 28:0.080511223 29:0.76502409 30:-0.59694384 31:-0.40455483 32:-0.45191969 33:0.063470109 34:-0.45191969 35:-0.90077742 36:-0.62378083 37:-0.25728095 38:-0.36301181 39:-0.22770161 40:0.40325362 41:-0.33122351 42:-0.68001113 43:-0.22173116 44:0.34866434 45:-0.54904439 46:-0.55203161 47:-0.65128632 48:-0.25958228 49:-0.65128632 50:-0.96890233 51:-0.47953233 52:-0.96278267 53:-0.31417039 54:-0.023735108 55:0.69157914 56:-0.54301724 57:-0.72266529 58:0.07009898 59:0.73494959 60:-0.57524908 61:-0.41820096 62:-0.48856148 63:0.046314485 64:-0.48856148 65:-0.90727706 66:-0.69086865 67:-0.48455837 68:-0.41293697 69:-0.35710745 70:0.52308149 71:-0.28518469 72:-0.70648247 73:-0.21015151 74:0.231876 75:-0.59882206 76:-0.55427172 77:-0.70510794 78:-0.26655267 79:-0.70510794 80:-0.97856039 81:-0.52088799 82:-0.95317372 83:-0.35405897 84:-0.10937279 85:0.74061274 86:-0.64673676 87:-0.74570987 88:0.049757802 89:0.70387562 90:-0.60996572 91:-0.43852249 92:-0.54602781 93:0.036792411 94:-0.54602781 95:-0.84228309 96:-0.61023521 97:-0.74328706 98:-0.53944462 99:-0.37712671 100:0.60516064 101:-0.31420711 102:-0.77643444 103:-0.17802223 104:0.077612096 105:-0.66917588 106:-0.62055251 107:-0.69701142 108:-0.26396991 109:-0.69701142 110:-0.98443482 111:-0.48789446 112:-0.94141992 113:-0.41906244 114:-0.070180346 115:0.77964151 116:-0.71393629 117:-0.79417641 118:0.053788597 119:0.64262107 120:-0.65781503 121:-0.44760493 122:-0.60427365 123:0.080751348 124:-0.60427365 125:-0.89980861 126:-0.35539606 127:-0.27021155 128:0.010596026 129:-0.077442047 130:0.18223045 131:-0.5490234 132:-0.33037586 133:-0.45858613 134:-0.081580694 135:-0.64375749 136:-0.38801134 137:0.52337312 138:0.11037244 139:-0.52113282 140:-0.0021660277 141:-0.81518288 142:-0.19735491 143:-0.86691479 144:-0.84943296 145:-0.49232327 146:-0.18381286 147:0.24478601 148:0.98569904 149:-0.28743319 150:0.39869351 151:-0.47550714 152:0.018327224 153:-0.71838876 154:-0.30193292 155:-0.22330867 156:0.24999662 157:-0.01376767 158:0.037177438 159:-0.71825409 160:-0.57050305 161:0.081465564 162:0.16169561 163:-0.38985844 164:-0.51392388 165:0.24354554 166:-0.33654068 167:-0.86180413 168:-0.8448731 169:0.011146087 170:-0.0055099366 171:-0.22662414 172:0.98593332 173:-0.32851019 174:-0.38876018 175:0.088650107 176:0.0560721 177:-0.13056658 178:-0.36555631 179:-0.61647212 180:-0.23383081 181:-0.40555803 182:-0.52628193 183:-0.36555631 184:-0.67217491 185:-0.39933993 186:-0.06956832 
0.5032594762128694 1.834337005001401 11.0376239558529 7.068206404157 0.6483319966396646 0.1519893610497942 7.063793662615026 1:-0.8221885 2:-0.33909751 3:0.29103521 4:0.4469041 5:-0.92736359 6:-0.77523676 7:-0.75364463 8:0.28298505 9:-0.48692653 10:0.63381658 11:-0.13002675 12:-0.03237528 13:0.10040941 14:0.88761119 15:-0.13838448 16:0.11519605 17:0.027019307 18:0.099427777 19:0.027019307 20:-0.98143408 21:-0.22742704 22:-0.99155722 23:0.28118557 24:0.19867715 25:0.85607993 26:-0.47211692 27:-0.06705523 28:0.42706733 29:0.98354727 30:-0.13332031 31:0.32291951 32:0.23417783 33:0.4155186 34:0.23417783 35:-0.96681437 36:-0.43723696 37:-0.76580957 38:0.26930436 39:-0.032834553 40:0.73693509 41:-0.44580891 42:-0.067499387 43:0.12081124 44:0.92636989 45:-0.054329621 46:0.13278258 47:-0.017623673 48:0.083422295 49:-0.017623673 50:-0.98954114 51:-0.25603569 52:-0.99020991 53:0.26856105 54:0.19626692 55:0.8782577 56:-0.65193004 57:-0.10144146 58:0.42456198 59:0.98091174 60:-0.040454935 61:0.31362575 62:0.18904385 63:0.40705025 64:0.18904385 65:-0.99046145 66:-0.37013206 67:-0.83606879 68:0.26035815 69:-0.013080959 70:0.91594224 71:-0.53824797 72:-0.11149727 73:0.17504405 74:0.86751478 75:-0.012197538 76:0.14555859 77:-0.081072033 78:0.052552282 79:-0.081072033 80:-0.99683188 81:-0.18522299 82:-0.98713906 83:0.26615264 84:0.2163139 85:0.95231382 86:-0.80457704 87:-0.14370653 88:0.4221909 89:0.96618159 90:-0.014062628 91:0.28336909 92:0.11857321 93:0.40086289 94:0.11857321 95:-1 96:-0.035791009 97:-0.92209086 98:0.16111447 99:0.23124739 100:1 101:-0.72628833 102:-0.18617673 103:0.26653972 104:0.75269461 105:-0.01121543 106:-0.0071198984 107:-0.1076514 108:-0.047155893 109:-0.1076514 110:-1 111:0.076717402 112:-0.98431781 113:0.26990724 114:0.44269458 115:1 116:-0.8964086 117:-0.18800285 118:0.45122517 119:0.90934038 120:0.0096752724 121:0.21542094 122:0.04691237 123:0.41019941 124:0.04691237 125:-0.45354956 126:-0.19245144 127:-0.58347293 128:-0.25033113 129:-0.55887414 130:0.92409951 131:-0.56064398 132:-0.058910285 133:-0.080244765 134:0.69044523 135:-0.50627061 136:-0.27873873 137:0.36634088 138:0.61855239 139:-0.05817005 140:0.20676303 141:-0.45193463 142:0.37712643 143:-0.91798683 144:-0.80945337 145:-0.1634404 146:0.5592572 147:-0.054512722 148:0.72807496 149:-0.35314695 150:0.67169787 151:-0.41413235 152:-0.21826058 153:-0.10648377 154:0.085720222 155:-0.7582745 156:0.087728148 157:0.62686532 158:-0.13965093 159:-0.54661107 160:-0.34602446 161:0.2218975 162:0.11265331 163:-0.34931251 164:-0.49326028 165:0.24514162 166:0.27801259 167:-0.91030348 168:-0.91711621 169:0.32066963 170:0.40944852 171:0.081840954 172:0.57177868 173:0.280103 174:0.32058629 175:0.43161018 176:0.60262275 177:-0.16667502 178:-0.50162394 179:-0.19086191 180:0.07586587 181:0.29551784 182:-0.59564553 183:-0.50162394 184:-0.23765712 185:-0.5049505 186:-0.31573314 
0 0 0 4.817387824898066 0 0 1.296375881048213 1:-0.66292928 2:-0.5184692 3:-0.029240783 4:0.24613353 5:-0.7969167 6:-0.85631715 7:-0.15019766 8:-0.24846302 9:-0.62033623 10:0.18599268 11:0.073862671 12:-0.54399329 13:-0.42630398 14:0.1893897 15:-0.39862971 16:-0.56479916 17:-0.63564183 18:-0.44357884 19:-0.63564183 20:-0.93231913 21:-0.49154182 22:-0.962356 23:-0.3107414 24:-0.083836235 25:0.57805097 26:-0.25877802 27:-0.6432835 28:0.01098878 29:0.67994783 30:-0.49852154 31:-0.44371634 32:-0.49420242 33:-0.0012149193 34:-0.49420242 35:-0.85292886 36:-0.66520764 37:-0.1743644 38:-0.28665215 39:-0.3203542 40:0.26194699 41:-0.19281491 42:-0.55304334 43:-0.41711256 44:0.14932108 45:-0.41545755 46:-0.5617507 47:-0.6790409 48:-0.45803907 49:-0.6790409 50:-0.95112988 51:-0.52785351 52:-0.95661258 53:-0.34247993 54:-0.11139342 55:0.60696127 56:-0.43998633 57:-0.65232449 58:0.0031742504 59:0.6563561 60:-0.49538922 61:-0.44858097 62:-0.53225767 63:-0.015121104 64:-0.53225767 65:-0.85526971 66:-0.69648392 67:-0.37004336 68:-0.36797359 69:-0.41242875 70:0.38619084 71:-0.21358755 72:-0.59764059 73:-0.40478412 74:0.043637058 75:-0.50005279 76:-0.5523737 77:-0.74878525 78:-0.46166144 79:-0.74878525 80:-0.96428526 81:-0.54290412 82:-0.94005005 83:-0.40591743 84:-0.16813685 85:0.65803018 86:-0.60055638 87:-0.68667599 88:-0.016244899 89:0.6251216 90:-0.55823277 91:-0.45814881 92:-0.60197154 93:-0.027426196 94:-0.60197154 95:-0.71843957 96:-0.65666441 97:-0.62345622 98:-0.54578527 99:-0.48977591 100:0.42705474 101:-0.12508751 102:-0.72144908 103:-0.42207265 104:-0.047936856 105:-0.63187521 106:-0.615901 107:-0.76884684 108:-0.46567869 109:-0.76884684 110:-0.97034831 111:-0.54380546 112:-0.9124033 113:-0.50385081 114:-0.17113315 115:0.6815356 116:-0.62486717 117:-0.76880897 118:-0.039174731 119:0.58865845 120:-0.64862404 121:-0.46324409 122:-0.681097 123:-0.0053165609 124:-0.681097 125:-0.7104234 126:-0.37030129 127:-0.27466885 128:-0.28675497 129:-0.42043685 130:0.2991782 131:-0.441796 132:-0.34206497 133:-0.35950245 134:-0.089274195 135:-0.41579934 136:-0.024941995 137:0.24823779 138:-0.12773561 139:-0.51371574 140:0.0073151643 141:-0.48001759 142:0.26897417 143:-0.82500216 144:-0.63928067 145:-0.68552485 146:-0.20516193 147:0.44780251 148:0.9855979 149:-0.4648905 150:0.49930118 151:-0.60606937 152:-0.28357214 153:-0.51135051 154:0.023172369 155:-0.14782642 156:0.12186573 157:-0.14424862 158:0.20096134 159:-0.6372958 160:-0.63213884 161:0.27957187 162:0.15796875 163:0.13216114 164:-0.16110678 165:0.3780579 166:0.048354012 167:-0.91204603 168:-0.90767704 169:-0.20238337 170:0.13605176 171:-0.43295287 172:0.84319306 173:-0.46269122 174:-0.36767586 175:0.016343725 176:0.0089287428 177:-0.400202 178:-0.57402441 179:-0.59443418 180:-0.44082434 181:-0.44662889 182:-0.7353612 183:-0.57402441 184:-0.69221595 185:-0.48514851 186:-0.39065287 
5.559370917974258 0 0 0 0 0 0 1:-0.36018408 2:0.072955617 3:0.050122542 4:-0.089068623 5:-0.86518467 6:-0.55931146 7:0.39346442 8:-0.60502511 9:-0.2239305 10:0.46574355 11:-0.39995456 12:-0.83615893 13:-0.30063739 14:0.053136106 15:-0.69146384 16:-0.76727988 17:-0.83001778 18:-0.36822801 19:-0.83001778 20:-0.80662405 21:-0.69968154 22:-0.78246452 23:-0.78515818 24:-0.3596336 25:0.15946914 26:0.015075457 27:-0.98651441 28:-0.47639824 29:0.19716905 30:-0.95634473 31:-0.88676148 32:-0.89918489 33:-0.49314472 34:-0.89918489 35:-0.89290522 36:-0.21556272 37:0.3221135 38:-0.64620149 39:0.13693669 40:0.42983023 41:-0.52504175 42:-0.85599341 43:-0.31592661 44:-0.059976128 45:-0.72789578 46:-0.7979115 47:-0.87782509 48:-0.41999846 49:-0.87782509 50:-0.85444724 51:-0.76394395 52:-0.7598451 53:-0.80450871 54:-0.41243997 55:0.18355332 56:-0.18733212 57:-0.98783916 58:-0.48819758 59:0.1573357 60:-0.95642692 61:-0.89534307 62:-0.91213536 63:-0.51575711 64:-0.91213536 65:-0.86281392 66:-0.61121036 67:-0.1596938 68:-0.69644902 69:-0.30620258 70:0.38433831 71:-0.29149872 72:-0.882127 73:-0.33901888 74:-0.24236269 75:-0.80113721 76:-0.81898309 77:-0.91709655 78:-0.42080498 79:-0.91709655 80:-0.87130955 81:-0.84602243 82:-0.73425719 83:-0.82419476 84:-0.55160907 85:0.18779284 86:-0.26418272 87:-0.98968553 88:-0.50953277 89:0.099785089 90:-0.96357929 91:-0.90444662 92:-0.92506429 93:-0.52347357 94:-0.92506429 95:-0.67912372 96:-0.80590758 97:-0.61632059 98:-0.73899169 99:-0.63703544 100:0.32602918 101:-0.063485793 102:-0.90147173 103:-0.34082337 104:-0.34514327 105:-0.84232154 106:-0.82258584 107:-0.8380263 108:-0.32949274 109:-0.8380263 110:-0.87323255 111:-0.89970182 112:-0.70636541 113:-0.8276533 114:-0.63986474 115:0.17074795 116:-0.26879379 117:-0.99069874 118:-0.51641586 119:0.055770919 120:-0.96785762 121:-0.89409072 122:-0.92498479 123:-0.47062258 124:-0.92498479 125:-0.29727932 126:-0.12619955 127:-0.25188173 128:0.20993377 129:0.16751191 130:-0.095106528 131:-0.082378023 132:-0.32905036 133:-0.32094757 134:-0.2389602 135:-0.83478186 136:-0.45169975 137:0.052868373 138:-0.15460731 139:-0.23045133 140:-0.69233107 141:-0.16279102 142:0.48482079 143:-0.58664627 144:-0.62468414 145:-0.48370208 146:-0.65552494 147:0.29569742 148:0.99879583 149:-0.23281447 150:0.24124398 151:-0.60683523 152:0.2155948 153:-0.90288297 154:-0.76943683 155:-0.11876586 156:0.12040135 157:-0.36921655 158:-0.2794602 159:-0.90848569 160:-0.90919151 161:-0.030878787 162:-0.36272223 163:-0.23457646 164:-0.35695945 165:-0.21360167 166:-0.078337071 167:-0.65087651 168:-0.70916695 169:-0.022513801 170:-0.28704439 171:-0.29528092 172:0.93468986 173:-0.54020609 174:-0.72556093 175:-0.46517307 176:-0.58899423 177:-0.21188061 178:-0.044964537 179:-0.84916775 180:-0.29925927 181:-0.68311039 182:-0.20032955 183:-0.044964537 184:-0.78674422 185:-0.03630363 186:0.14306101 
0 0 0 0.8514796228496715 0 0 0 1:-0.66456584 2:-0.26088795 3:0.050122542 4:0.11729899 5:-0.78690051 6:-0.85167702 7:0.06869348 8:-0.44451746 9:-0.6189957 10:0.14989805 11:0.082910364 12:-0.68302097 13:-0.36338365 14:0.12380737 15:-0.55185215 16:-0.66545969 17:-0.73135245 18:-0.37663884 19:-0.73135245 20:-0.91740598 21:-0.55113084 22:-0.94339671 23:-0.43596976 24:-0.15284318 25:0.50150974 26:-0.20478683 27:-0.81835306 28:-0.15280534 29:0.59865657 30:-0.71027656 31:-0.60364704 32:-0.63915421 33:-0.16815725 34:-0.63915421 35:-0.8468912 36:-0.67599157 37:0.036506882 38:-0.48289085 39:-0.33672289 40:0.22036279 41:-0.16544253 42:-0.69774256 43:-0.36060031 44:0.064823517 45:-0.57751281 46:-0.67066415 47:-0.77254236 48:-0.39381481 49:-0.77254236 50:-0.94146571 51:-0.60373892 52:-0.93534056 53:-0.46691608 54:-0.19920316 55:0.5283506 56:-0.37026173 57:-0.82753393 58:-0.16034217 59:0.57379959 60:-0.70923555 61:-0.6115434 62:-0.67002885 63:-0.18351047 64:-0.67002885 65:-0.85053523 66:-0.73411075 67:-0.21380444 68:-0.56332391 69:-0.44831676 70:0.33978016 71:-0.17173759 72:-0.7461662 73:-0.35556181 74:-0.07018667 75:-0.65586846 76:-0.67481552 77:-0.83633546 78:-0.39804764 79:-0.83633546 80:-0.95697845 81:-0.63709069 82:-0.91344361 83:-0.52403948 84:-0.26106379 85:0.57929707 86:-0.53809098 87:-0.8526727 88:-0.17766678 89:0.52945968 90:-0.74789959 91:-0.62725383 92:-0.72324867 93:-0.19915575 94:-0.72324867 95:-0.71419543 96:-0.7075352 97:-0.5951158 98:-0.69522173 99:-0.52209235 100:0.37532758 101:-0.23253693 102:-0.81739666 103:-0.36739218 104:-0.24821461 105:-0.74707419 106:-0.75594686 107:-0.8301649 108:-0.39898035 109:-0.8301649 110:-0.96415311 111:-0.64695498 112:-0.89264762 113:-0.59278012 114:-0.26115476 115:0.59747062 116:-0.64036176 117:-0.88534798 118:-0.19418439 119:0.46064388 120:-0.79498515 121:-0.64848642 122:-0.7731537 123:-0.18592985 124:-0.7731537 125:-0.34857522 126:-0.24425934 127:-0.27821319 128:-0.18807947 129:-0.15335106 130:0.067371344 131:-0.49222573 132:-0.17251538 133:-0.40515881 134:-0.29028017 135:-0.74743091 136:-0.4954008 137:0.25517705 138:-0.17048286 139:-0.35457503 140:-0.38442875 141:-0.23773026 142:0.49779023 143:-0.80066739 144:-0.65470292 145:-0.55477844 146:-0.36917555 147:0.37826871 148:0.96731608 149:-0.35311204 150:0.3662472 151:-0.57071037 152:-0.1796068 153:-0.71619277 154:-0.3385929 155:-0.1355593 156:0.40043402 157:0.17530807 158:0.0990262 159:-0.6940592 160:-0.25154038 161:-0.094877195 162:0.30936174 163:-0.10734948 164:-0.17270621 165:0.096141432 166:0.27332541 167:-0.86489802 168:-0.84934631 169:-0.24167661 170:-0.12694289 171:-0.36654424 172:0.97933191 173:-0.51112459 174:-0.52875433 175:-0.14725555 176:-0.15942885 177:-0.33280591 178:-0.457581 179:-0.71164891 180:-0.36834513 181:-0.56851345 182:-0.58053136 183:-0.457581 184:-0.74464734 185:-0.41914191 186:-0.28148412 
0 0 0.3321337008616255 0 0 0 0 1:-0.40965619 2:-0.15587778 3:-0.22536416 4:-0.23022175 5:-0.9209251 6:-0.58502657 7:-0.47233921 8:-0.16485748 9:-0.24614221 10:0.65026338 11:-0.41138649 12:-0.51597488 13:4.8129332e-05 14:0.62115066 15:-0.36860867 16:-0.32043619 17:-0.40728864 18:-0.043839477 19:-0.40728864 20:-0.78974231 21:-0.80380747 22:-0.86222493 23:-0.61290266 24:-0.53166757 25:0.13360165 26:0.2283267 27:-0.98071642 28:-0.55575363 29:0.28060217 30:-0.94320732 31:-0.82735422 32:-0.8417625 33:-0.56453397 34:-0.8417625 35:-0.94237579 36:-0.25901747 37:-0.51114619 38:-0.191627 39:0.11127454 40:0.63666551 41:-0.52249099 42:-0.53415945 43:0.007962534 44:0.58471217 45:-0.35769473 46:-0.3245129 47:-0.45234762 48:-0.062677074 49:-0.45234762 50:-0.84944181 51:-0.83382253 52:-0.8540652 53:-0.6245989 54:-0.53347107 55:0.17506777 56:-0.0198107 57:-0.98145115 58:-0.55597019 59:0.26620492 60:-0.94055361 61:-0.83046519 62:-0.85110867 63:-0.57330282 64:-0.85110867 65:-0.95085074 66:-0.38861119 67:-0.67850456 68:-0.22560806 69:-0.059144896 70:0.71998499 71:-0.46723159 72:-0.56032813 73:0.030715084 74:0.46569814 75:-0.39272551 76:-0.3357189 77:-0.51272896 78:-0.090800911 79:-0.51272896 80:-0.89719935 81:-0.84560338 82:-0.83878776 83:-0.63539197 84:-0.54260773 85:0.25074807 86:-0.27889741 87:-0.98238414 88:-0.55825525 89:0.24256656 90:-0.94329968 91:-0.83792648 92:-0.86459083 93:-0.586009 94:-0.86459083 95:-0.91989316 96:-0.34642942 97:-0.8514887 98:-0.32049899 99:-0.074339463 100:0.7531627 101:-0.53004857 102:-0.59490651 103:0.040961238 104:0.34760319 105:-0.44234845 106:-0.43872336 107:-0.51211895 108:-0.15834358 109:-0.51211895 110:-0.91917059 111:-0.84323051 112:-0.82746723 113:-0.64824824 114:-0.50968256 115:0.27813295 116:-0.45891691 117:-0.98303533 118:-0.56346907 119:0.18546494 120:-0.94564314 121:-0.84634704 122:-0.8779523 123:-0.60007115 124:-0.8779523 125:-0.16642791 126:-0.32315437 127:-0.69726257 128:-0.17350993 129:0.096028231 130:0.47374989 131:-0.3597669 132:-0.29569692 133:-0.0018423484 134:0.1506304 135:-0.86231757 136:-0.3891885 137:-0.11317759 138:-0.27142218 139:-0.019653894 140:-0.23418198 141:0.074326991 142:0.25501767 143:-0.6101118 144:-0.6162842 145:-0.27509026 146:0.012585892 147:0.019867896 148:0.95313372 149:-0.19209587 150:0.385647 151:-0.81149041 152:-0.16361213 153:-0.65092204 154:-0.10745904 155:-0.45875341 156:0.024426684 157:-0.0058060778 158:0.53686573 159:-0.89583368 160:-0.85019383 161:0.42703824 162:-0.087597354 163:-0.16304643 164:-0.62716133 165:0.074902554 166:0.41279824 167:-0.6868391 168:-0.82428324 169:0.16422444 170:0.24336069 171:-0.017807042 172:0.94134815 173:-0.04981195 174:-0.063831693 175:-0.55638134 176:-0.47850309 177:-0.63901896 178:-0.42025724 179:-0.84694229 180:-0.018433714 181:-0.12959828 182:-0.43955717 183:-0.42025724 184:-0.6876161 185:-0.30033003 186:-0.26364609 
7.565755713551759 0.4614130292356664 2.520674220431014 1.517727854382399 5.219263715858629 0.5250968091887749 0 1:0.66568763 2:-0.099317383 3:0 4:-0.040545786 5:-0.831472 6:0.0098527629 7:0.27972937 8:-0.7578894 9:0.33246984 10:0.36706273 11:-0.80289432 12:-0.88721924 13:0.16365131 14:0.059143655 15:-0.7556812 16:-0.80767588 17:-0.84478746 18:0.04495974 19:-0.84478746 20:-0.17927907 21:-0.93775419 22:0.083726582 23:-0.94810464 24:-0.80097905 25:-0.5061544 26:0.62128562 27:-0.99966037 28:-0.86398842 29:-0.44890934 30:-0.99768533 31:-0.98585737 32:-0.98743427 33:-0.8691436 34:-0.98743427 35:-0.83080498 36:0.29323033 37:0.095822635 38:-0.78300343 39:0.56081737 40:0.2028459 41:-0.70270349 42:-0.90645652 43:0.11943272 44:-0.068178808 45:-0.79826195 46:-0.84186584 47:-0.88309202 48:-0.012249288 49:-0.88309202 50:-0.28463264 51:-0.95545701 52:0.060582095 53:-0.95280495 54:-0.81923956 55:-0.48490434 56:0.49783045 57:-0.99971655 58:-0.86973228 59:-0.48214364 60:-0.99780823 61:-0.98721598 62:-0.98908669 63:-0.87944599 64:-0.98908669 65:-0.75895096 66:-0.50196099 67:-0.43072446 68:-0.78131905 69:-0.1706675 70:0.083196025 71:-0.38118299 72:-0.91799589 73:0.040632819 74:-0.30975928 75:-0.84405925 76:-0.86105004 77:-0.89364046 78:-0.048092169 79:-0.89364046 80:-0.30606846 81:-0.97587713 82:-0.049452443 83:-0.95153126 84:-0.87044503 85:-0.48545626 86:0.42405105 87:-0.99975858 88:-0.88215431 89:-0.5374897 90:-0.99802277 91:-0.9885288 92:-0.98993087 93:-0.88975468 94:-0.98993087 95:-0.34040104 96:-0.8407825 97:-0.74791147 98:-0.75430667 99:-0.67032841 100:-0.0053107384 101:0.044884641 102:-0.9125268 103:0.0098171589 104:-0.31491766 105:-0.86078729 106:-0.81561036 107:-0.76289772 108:0.033224419 109:-0.76289772 110:-0.25442351 111:-0.98774078 112:-0.016161879 113:-0.94377823 114:-0.91507211 115:-0.51092072 116:0.4955056 117:-0.99974493 118:-0.88834945 119:-0.56051091 120:-0.99811243 121:-0.98592882 122:-0.98852702 123:-0.87593904 124:-0.98852702 125:0.15622277 126:-0.043181125 127:-0.6295662 128:-0.27417219 129:0.41615351 130:-0.49925217 131:0.12268528 132:-0.18999022 133:0.26867624 134:-0.22765067 135:-0.91171219 136:-0.54543698 137:0.28666902 138:-0.20998279 139:-0.12062549 140:-0.63401363 141:0.59126475 142:0.15868089 143:0.12746509 144:-0.029802402 145:0.18258675 146:-0.8369065 147:-0.20332323 148:0.99133595 149:0.2694231 150:-0.24297708 151:-0.52000049 152:-0.26957681 153:-0.85634664 154:-0.84896063 155:-0.45018885 156:-0.28221022 157:0.010508548 158:-0.34529611 159:-0.98078464 160:-0.97344154 161:0.45403684 162:-0.41906298 163:0.14772198 164:-0.31952762 165:-0.060702638 166:0.32030969 167:-0.13630943 168:-0.19952724 169:0.1824958 170:-0.60291871 171:0.16559301 172:0.97536103 173:-0.24029658 174:-0.5809972 175:-0.8561649 176:-0.88319396 177:-0.82775079 178:-0.44408987 179:-0.92697093 180:0.19746594 181:-0.75437686 182:-0.21487897 183:-0.44408987 184:-0.62632675 185:0.056105611 186:-0.37780949 
0 0.8074120273177127 0 0 0 2.062461679998581 0 1:-0.48763953 2:-0.5280673 3:-0.15163834 4:0.10016496 5:-0.91738886 6:-0.44314037 7:-0.23666587 8:-0.39345615 9:-0.076654483 10:0.6582245 11:-0.55437649 12:-0.68519851 13:-0.061979935 14:0.41417146 15:-0.51597094 16:-0.55906122 17:-0.61473183 18:-0.13526705 19:-0.61473183 20:-0.6861437 21:-0.84735314 22:-0.71180184 23:-0.80913177 24:-0.60580087 25:-0.058196967 26:0.32381539 27:-0.9943701 28:-0.62097303 29:0.039514255 30:-0.97634183 31:-0.91956136 32:-0.92650887 33:-0.62781191 34:-0.92650887 35:-0.92779293 36:-0.10444555 37:-0.30772377 38:-0.41917032 39:0.23892917 40:0.58886644 41:-0.55807231 42:-0.69819043 43:-0.066410582 44:0.35207413 45:-0.52812935 46:-0.57318686 47:-0.65605941 48:-0.16402314 49:-0.65605941 50:-0.75820157 51:-0.88063859 52:-0.69905423 53:-0.81739578 54:-0.62725955 55:-0.023616206 56:0.12374275 57:-0.99453468 58:-0.62560516 59:0.023655199 60:-0.97574496 61:-0.9220414 62:-0.93177397 63:-0.63685299 64:-0.93177397 65:-0.920229 66:-0.40476549 67:-0.52264387 68:-0.47505238 69:-0.088407512 70:0.5958995 71:-0.46226697 72:-0.73299957 73:-0.083925911 74:0.19350082 75:-0.59168775 76:-0.59012555 77:-0.72463638 78:-0.20668471 79:-0.72463638 80:-0.80770653 81:-0.90464936 82:-0.64629685 83:-0.83500043 84:-0.66465752 85:0.02139371 86:-0.086248851 87:-0.99510797 88:-0.63863526 89:-0.0129205 90:-0.97833988 91:-0.92671102 92:-0.94216417 93:-0.64963375 94:-0.94216417 95:-0.79172909 96:-0.54988537 97:-0.77698676 98:-0.55787159 99:-0.30385051 100:0.51294261 101:-0.38602686 102:-0.77133125 103:-0.14383427 104:-0.034208426 105:-0.65944662 106:-0.67053513 107:-0.70634373 108:-0.25719556 109:-0.70634373 110:-0.81228213 111:-0.92337838 112:-0.59254065 113:-0.85529742 114:-0.68708657 115:0.0063904996 116:-0.20584865 117:-0.99563774 118:-0.65945103 119:-0.096129959 120:-0.98099157 121:-0.93100763 122:-0.9515562 123:-0.65426622 124:-0.9515562 125:-0.48710217 126:-0.12912424 127:-0.79975461 128:-0.41589404 129:0.31991159 130:0.1138529 131:-0.36296654 132:0.0015513063 133:-0.14250837 134:-0.11015723 135:-0.93935211 136:-0.85151335 137:-0.11012051 138:-0.27538776 139:-0.3486705 140:-0.58019504 141:-0.15382038 142:0.23566258 143:-0.26997538 144:-0.2421156 145:-0.33011171 146:-0.29625893 147:0.062271476 148:0.98268724 149:-0.10756764 150:0.20885496 151:-0.85967097 152:-0.41152949 153:-0.81787462 154:-0.35535454 155:-0.48963201 156:0.11301138 157:-0.14745104 158:-0.11324596 159:-0.93438206 160:-0.8935767 161:0.50001454 162:-0.55148502 163:-0.24463879 164:-0.46517065 165:0.0020450079 166:0.16068974 167:-0.54052848 168:-0.77286214 169:0.084903236 170:0.10527573 171:-0.080176427 172:0.96715434 173:-0.24896373 174:-0.36273989 175:-0.61673931 176:-0.66785126 177:-0.76176783 178:-0.63293337 179:-0.80548393 180:-0.073659559 181:-0.39313886 182:-0.55253263 183:-0.63293337 184:-0.56877225 185:-0.51155116 186:-0.52978951 
0 0 0 4.297630724883114 0 0 0 1:-0.32973845 2:-0.21437001 3:-0.29716824 4:-0.27399356 5:-0.71224656 6:-0.82625854 7:-0.2478989 8:-0.1094293 9:-0.58558164 10:0.13483315 11:0.043375962 12:-0.60063784 13:-0.4588114 14:0.11819376 15:-0.40347094 16:-0.4848103 17:-0.57085615 18:-0.48347013 19:-0.57085615 20:-0.71356815 21:-0.8197955 22:-0.89355261 23:-0.46881323 24:-0.57519186 25:0.11583464 26:0.30726429 27:-0.95657839 28:-0.57802508 29:0.29621892 30:-0.8877237 31:-0.76808076 32:-0.79186757 33:-0.5848955 34:-0.79186757 35:-0.75745992 36:-0.69878265 37:-0.27372534 38:-0.1396408 39:-0.38600912 40:0.13911219 41:-0.062746886 42:-0.6102163 43:-0.45203744 44:0.12680638 45:-0.42783629 46:-0.46096472 47:-0.60661266 48:-0.4857611 49:-0.60661266 50:-0.77817676 51:-0.84212461 52:-0.88200509 53:-0.48426719 54:-0.56756465 55:0.15412464 56:0.070136808 57:-0.95775569 58:-0.57788498 59:0.29415452 60:-0.88800101 61:-0.76399924 62:-0.80370435 63:-0.59264033 64:-0.80370435 65:-0.75765151 66:-0.74786835 67:-0.46470218 68:-0.18572136 69:-0.49330078 70:0.27356462 71:0.040474294 72:-0.62761469 73:-0.43866624 74:0.12868474 75:-0.48977578 76:-0.40904815 77:-0.65632417 78:-0.4752451 79:-0.65632417 80:-0.83200444 81:-0.84788345 82:-0.85117982 83:-0.50525717 84:-0.57537844 85:0.23568454 86:-0.13828286 87:-0.959657 88:-0.58004861 89:0.30826015 90:-0.89813945 91:-0.75553964 92:-0.82298697 93:-0.60335211 94:-0.82298697 95:-0.65489507 96:-0.63790701 97:-0.70154182 98:-0.31497747 99:-0.44967772 100:0.41366795 101:-0.093976526 102:-0.67543517 103:-0.42803367 104:0.11433537 105:-0.55392142 106:-0.45333621 107:-0.65662995 108:-0.48661547 109:-0.65662995 110:-0.89259902 111:-0.82592002 112:-0.80494543 113:-0.53719532 114:-0.50951599 115:0.30944213 116:-0.36430706 117:-0.96317845 118:-0.57864576 119:0.2909641 120:-0.90635602 121:-0.75067372 122:-0.84610092 123:-0.62200934 124:-0.84610092 125:-0.28108619 126:-0.23730758 127:-0.42134732 128:-0.16887417 129:-0.22317413 130:0.55846878 131:-0.45390449 132:-0.26544056 133:-0.407447 134:-0.069508949 135:-0.69837294 136:0.1200205 137:-0.18430365 138:-0.37432199 139:-0.34821745 140:-0.6049535 141:-0.18204156 142:0.73984205 143:-0.71679638 144:-0.45906285 145:-0.63380877 146:-0.2041213 147:0.4724205 148:0.9974311 149:-0.51981575 150:0.60779296 151:-0.8109107 152:-0.16827724 153:-0.62460355 154:-0.088347154 155:-0.45312886 156:0.31976994 157:-0.35002909 158:0.24088337 159:-0.77578517 160:-0.70007676 161:0.13592933 162:-0.44580943 163:0.074288136 164:-0.01837011 165:-0.30509235 166:-0.15464602 167:-0.79190603 168:-0.76757371 169:-0.31850238 170:0.34443414 171:-0.47240079 172:0.74778352 173:-0.42173793 174:-0.36198805 175:-0.57892339 176:-0.38924265 177:-0.65725538 178:-0.40023588 179:-0.84579142 180:-0.47895618 181:-0.3320727 182:-0.62446032 183:-0.40023588 184:-0.78104618 185:-0.26732673 186:-0.26507314 
0 5.221242271779871 4.458120958269091 1.700903102151212 0 2.872614349392783 0 1:-0.74605037 2:-0.57089288 3:0 4:0.33817906 5:-0.88960915 6:-0.74895538 7:-0.40436998 8:-0.16182686 9:-0.45954048 10:0.48066359 11:-0.16918528 12:-0.64505518 13:-0.17147431 14:0.54148259 15:-0.59432303 16:-0.39774678 17:-0.47263948 18:-0.19526474 19:-0.47263948 20:-0.90818214 21:-0.64460929 22:-0.94111958 23:-0.37170077 24:-0.27475194 25:0.43955279 26:-0.083826153 27:-0.91918971 28:-0.30165144 29:0.57696515 30:-0.86635969 31:-0.62538979 32:-0.65468537 33:-0.31581028 34:-0.65468537 35:-0.93445793 36:-0.42467962 37:-0.46256205 38:-0.19227093 39:-0.07136764 40:0.56025203 41:-0.39095087 42:-0.67539308 43:-0.15145724 44:0.53381715 45:-0.58451274 46:-0.41466664 47:-0.5157405 48:-0.20763002 49:-0.5157405 50:-0.94101161 51:-0.65818051 52:-0.9382651 53:-0.38990612 54:-0.26944449 55:0.49237217 56:-0.31538897 57:-0.92568933 58:-0.29808654 59:0.56287826 60:-0.854051 61:-0.63820078 62:-0.67463783 63:-0.32589927 64:-0.67463783 65:-0.95000144 66:-0.44975758 67:-0.68050276 68:-0.22352019 69:-0.13356241 70:0.68633507 71:-0.45030447 72:-0.72124609 73:-0.11576319 74:0.37558144 75:-0.60457517 76:-0.46356927 77:-0.57035115 78:-0.22823987 79:-0.57035115 80:-0.96279084 81:-0.65549612 82:-0.93523943 83:-0.40754777 84:-0.27357668 85:0.56448112 86:-0.54978543 87:-0.93553904 88:-0.29716254 89:0.51855928 90:-0.85776037 91:-0.67128712 92:-0.70481908 93:-0.34253777 94:-0.70481908 95:-0.89872761 96:-0.43449885 97:-0.87716895 98:-0.2823499 99:-0.13218495 100:0.66858788 101:-0.57966475 102:-0.75896389 103:-0.104127 104:0.10819686 105:-0.6204904 106:-0.60483238 107:-0.54386412 108:-0.2816689 109:-0.54386412 110:-0.96897973 111:-0.66491713 112:-0.94044738 113:-0.39736215 114:-0.23267493 115:0.57013687 116:-0.6946763 117:-0.94139847 118:-0.30340148 119:0.41638237 120:-0.85875008 121:-0.70924 122:-0.72136937 123:-0.35673022 124:-0.72136937 125:-0.53548429 126:-0.21825233 127:-0.57342535 128:-0.4397351 129:-0.08170493 130:0.29995221 131:-0.37903531 132:-0.21700969 133:-0.11743754 134:0.10355126 135:-0.80755615 136:-0.56189121 137:0.31958601 138:0.40177488 139:-0.22629612 140:-0.18225027 141:-0.40972137 142:0.21780849 143:-0.83332044 144:-0.7975268 145:-0.39570459 146:0.083543885 147:0.20670284 148:0.98203569 149:-0.3250361 150:0.56080765 151:-0.62651099 152:-0.43818727 153:-0.34298015 154:-0.22868734 155:-0.42603971 156:0.39792382 157:0.69829988 158:-0.33421733 159:-0.74447807 160:-0.60913397 161:-0.0021430409 162:-0.19785366 163:-0.34009643 164:-0.55877748 165:0.26309198 166:0.13471628 167:-0.85390231 168:-0.88049188 169:0.099781656 170:0.12293006 171:-0.18885284 172:0.75273127 173:-0.19191992 174:-0.31357239 175:-0.30583918 176:-0.1801253 177:-0.7173342 178:-0.68274786 179:-0.54051609 180:-0.19121302 181:-0.21547355 182:-0.74943892 183:-0.68274786 184:-0.35038745 185:-0.62376238 186:-0.55547628 
11.05147494380283 0 0 0 0 0 0 1:-0.65979013 2:-0.10480031 3:0.59371765 4:0.5359877 5:-0.89967522 6:-0.49516788 7:0.32006072 8:-0.71642217 9:-0.14897628 10:0.50970257 11:-0.47053677 12:-0.89836658 13:-0.0036964251 14:0.1316737 15:-0.81444985 16:-0.79255173 17:-0.83451545 18:-0.062239764 19:-0.83451545 20:-0.73549253 21:-0.80954023 22:-0.65631809 23:-0.8392002 24:-0.53441859 25:-0.013797184 26:0.22452772 27:-0.99605547 28:-0.64161667 29:0.049452952 30:-0.9855223 31:-0.93416683 32:-0.9400938 33:-0.65433616 34:-0.9400938 35:-0.91231195 36:-0.20377029 37:0.17800694 38:-0.74278066 39:0.16242654 40:0.43388484 41:-0.55197165 42:-0.9135612 43:-0.030419761 44:0.013439985 45:-0.84129994 46:-0.82205729 47:-0.87272651 48:-0.11263663 49:-0.87272651 50:-0.79654857 51:-0.85473027 52:-0.63742185 53:-0.85132773 54:-0.56917448 55:0.012759051 56:0.015451065 57:-0.99649685 58:-0.65054431 59:0.0096045891 60:-0.98490784 61:-0.93948262 62:-0.94705562 63:-0.67287789 64:-0.94705562 65:-0.88103106 66:-0.64797781 67:-0.35732147 68:-0.74660468 69:-0.3085867 70:0.37016847 71:-0.34758272 72:-0.92711636 73:-0.072047476 74:-0.21090304 75:-0.87711955 76:-0.84017584 77:-0.88564256 78:-0.13075164 79:-0.88564256 80:-0.8182027 81:-0.91058825 82:-0.64446024 83:-0.85332167 84:-0.67078102 85:0.018598372 86:-0.10857281 87:-0.99693637 88:-0.66830133 89:-0.055411469 90:-0.98620234 91:-0.94458189 92:-0.95130803 93:-0.68435837 94:-0.95130803 95:-0.70925937 96:-0.82011202 97:-0.75591893 98:-0.71802903 99:-0.60849769 100:0.32492873 101:-0.2160706 102:-0.92936633 103:-0.10913317 104:-0.33982791 105:-0.87651178 106:-0.84250091 107:-0.77027004 108:-0.10870475 109:-0.77027004 110:-0.8243541 111:-0.94017831 112:-0.65630734 113:-0.83418051 114:-0.72401205 115:0.011173774 116:-0.18556498 117:-0.99696221 118:-0.68374286 119:-0.11206826 120:-0.98594019 121:-0.93862521 122:-0.94672503 123:-0.67175983 124:-0.94672503 125:-0.56731291 126:-0.29165249 127:-0.25622185 128:0.1807947 129:0.27190078 130:-0.39191317 131:-0.31235613 132:-0.43189571 133:-0.21823146 134:-0.42565398 135:-0.9528518 136:-0.86549182 137:-0.30419895 138:-0.41848977 139:-0.46880571 140:-0.84842843 141:-0.15506746 142:0.10671475 143:-0.4486692 144:-0.64524727 145:-0.13088374 146:-0.81295858 147:-0.010707037 148:0.99507978 149:0.077725786 150:-0.031776739 151:-0.38384727 152:0.18827058 153:-0.872044 154:-0.74272661 155:-0.43915505 156:0.40624164 157:0.030753796 158:-0.55645934 159:-0.93830371 160:-0.91802 161:0.067341094 162:-0.18070615 163:-0.41485557 164:-0.33196226 165:-0.10891169 166:-0.31110443 167:-0.61913942 168:-0.62930334 169:0.15266434 170:-0.57321932 171:0.010486859 172:0.99005467 173:-0.34545074 174:-0.67647167 175:-0.63141558 176:-0.70222458 177:-0.46974881 178:-0.21070405 179:-0.90653997 180:0.0097952737 181:-0.72456489 182:-0.060605592 183:-0.21070405 184:-0.77347119 185:-0.20132013 186:0.11237959 
0 0 0 0 0 0 6.942299786742216 1:-0.53282077 2:-0.46340301 3:0.034700658 4:0.27155194 5:-0.90932518 6:-0.73708511 7:-0.20403144 8:-0.46402707 9:-0.41670659 10:0.4895895 11:-0.2631244 12:-0.76243154 13:0.011515724 14:0.4855011 15:-0.72279011 16:-0.56957711 17:-0.62480729 18:-0.0062385789 19:-0.62480729 20:-0.89216815 21:-0.70964566 22:-0.90427453 23:-0.62583634 24:-0.35443547 25:0.33976683 26:-0.017304315 27:-0.96241357 28:-0.26696888 29:0.46531464 30:-0.93411594 31:-0.76452065 32:-0.78015941 33:-0.27400378 34:-0.78015941 35:-0.93346762 36:-0.505729 37:-0.30353157 38:-0.48633285 39:-0.096797346 40:0.50120486 41:-0.44690859 42:-0.78938764 43:0.021531665 44:0.42246748 45:-0.72475725 46:-0.5901679 47:-0.65685095 48:-0.014930241 49:-0.65685095 50:-0.92184292 51:-0.75142726 52:-0.90157489 53:-0.63995429 54:-0.38165628 55:0.37034562 56:-0.23178534 57:-0.96663434 58:-0.26961338 59:0.44042722 60:-0.92701741 61:-0.77542062 62:-0.79318348 63:-0.27812851 64:-0.79318348 65:-0.93111204 66:-0.62769242 67:-0.60583749 68:-0.49695131 69:-0.29612092 70:0.57224697 71:-0.35534624 72:-0.82131613 73:0.036032993 74:0.23798074 75:-0.74839738 76:-0.61041483 77:-0.67968753 78:-0.017168612 79:-0.67968753 80:-0.9398964 81:-0.78372327 82:-0.90195372 83:-0.64376282 84:-0.44093654 85:0.42056447 86:-0.40706209 87:-0.97141318 88:-0.28185232 89:0.38829922 90:-0.92840644 91:-0.79055224 92:-0.80511544 93:-0.27536257 94:-0.80511544 95:-0.83418904 96:-0.63517214 97:-0.8621217 98:-0.52798228 99:-0.39518617 100:0.55096627 101:-0.3027394 102:-0.86289478 103:0.025245627 104:-0.058785215 105:-0.77871534 106:-0.7063863 107:-0.61737108 108:-0.054164706 109:-0.61737108 110:-0.94345516 111:-0.79991582 112:-0.91789293 113:-0.63025476 114:-0.44783333 115:0.41974463 116:-0.4890444 117:-0.97626959 118:-0.30081419 119:0.27549371 120:-0.93293504 121:-0.80546867 122:-0.80534343 123:-0.25106715 124:-0.80534343 125:-0.54560512 126:-0.26975469 127:-0.62532073 128:-0.31390728 129:0.21821938 130:0.050102957 131:-0.23249008 132:-0.10060364 133:-0.19774532 134:-0.14177491 135:-0.95203425 136:-0.81591608 137:-0.35728753 138:-0.28940791 139:-0.12163223 140:-0.093437408 141:-0.46240372 142:0.035378706 143:-0.72635425 144:-0.81617812 145:-0.26523319 146:-0.10834703 147:0.017047872 148:0.97931089 149:-0.067977718 150:0.24519007 151:-0.42421136 152:-0.30889703 153:-0.58789511 154:-0.45700076 155:-0.26717936 156:0.50065596 157:0.42579951 158:-0.19011583 159:-0.65927755 160:-0.41472019 161:-0.17350267 162:-0.2741984 163:-0.29455868 164:-0.3109149 165:0.19394119 166:0.1291372 167:-0.82558104 168:-0.80472787 169:0.24737238 170:-0.27483189 171:-0.0011533842 172:0.92816562 173:-0.19994683 174:-0.40788961 175:-0.26873252 176:-0.36212474 177:-0.50698597 178:-0.55080688 179:-0.63252438 180:-0.003087746 181:-0.40323282 182:-0.51506116 183:-0.55080688 184:-0.44756438 185:-0.45214521 186:-0.41919372 
15.00976222283602 0 0 0 0 0 3.481083275629117 1:-0.64301531 2:-0.085683802 3:0.18869479 4:0.13173424 5:-0.93061713 6:-0.41354085 7:0.0061661436 8:-0.65239219 9:-0.054795322 10:0.68122664 11:-0.58200516 12:-0.84037166 13:0.16682604 14:0.32011792 15:-0.7469031 16:-0.70651355 17:-0.74517132 18:0.1058741 19:-0.74517132 20:-0.81503281 21:-0.73493674 22:-0.76917724 23:-0.81615282 24:-0.40360924 25:0.1302435 26:0.052014128 27:-0.99309624 28:-0.47444228 29:0.16339117 30:-0.97779039 31:-0.90748371 32:-0.91194007 33:-0.48808329 34:-0.91194007 35:-0.94152794 36:0.0067741277 37:-0.16411541 38:-0.67490716 39:0.33825764 40:0.61961967 41:-0.64445582 42:-0.86123143 43:0.14948357 44:0.17536133 45:-0.7557515 46:-0.75070683 47:-0.78458302 48:0.055771488 49:-0.78458302 50:-0.85719661 51:-0.7971742 52:-0.77443886 53:-0.82595467 54:-0.46475976 55:0.14900569 56:-0.12674437 57:-0.99384138 58:-0.48441225 59:0.11342664 60:-0.97554882 61:-0.91648658 62:-0.91961161 63:-0.50399437 64:-0.91961161 65:-0.91833466 66:-0.50029904 67:-0.55952495 68:-0.68531268 69:-0.1700013 70:0.53932472 71:-0.43942806 72:-0.88539729 73:0.11199459 74:-0.071286921 75:-0.80199698 76:-0.7824639 77:-0.80682374 78:0.029049851 79:-0.80682374 80:-0.8714108 81:-0.871999 82:-0.78954519 83:-0.82906504 84:-0.59252087 85:0.14532168 86:-0.23039146 87:-0.99475145 88:-0.50834431 89:0.041655722 90:-0.97784595 91:-0.92500493 92:-0.92555662 93:-0.51019433 94:-0.92555662 95:-0.79320549 96:-0.71288094 97:-0.81926487 98:-0.6949645 99:-0.47300132 100:0.47658682 101:-0.34020475 102:-0.89279689 103:0.093286919 104:-0.23511739 105:-0.82193962 106:-0.79954147 107:-0.71430015 108:0.042880364 109:-0.71430015 110:-0.87311195 111:-0.91164656 112:-0.79339983 113:-0.82044017 114:-0.65086165 115:0.12976571 116:-0.30739152 117:-0.99479729 118:-0.52396269 119:-0.024065848 120:-0.97854212 121:-0.92062288 122:-0.92272016 123:-0.47628235 124:-0.92272016 125:-0.35318216 126:-0.15040252 127:-0.43825273 128:0.037748344 129:0.38806432 130:-0.44016583 131:0.23151241 132:0.87400561 133:-0.19113308 134:-0.011635623 135:-0.83044147 136:-0.4406791 137:0.35133658 138:0.019771548 139:-0.071558142 140:-0.44615514 141:-0.11504958 142:0.2246235 143:-0.51812255 144:-0.74800726 145:-0.22588559 146:-0.58976832 147:-0.16090953 148:0.99420949 149:0.16450539 150:-0.053214385 151:-0.10689433 152:0.043652116 153:-0.70262878 154:-0.70266566 155:-0.38853857 156:-0.13010939 157:-0.062537885 158:-0.33028904 159:-0.90783624 160:-0.82131193 161:-0.016829109 162:-0.10006451 163:-0.088275241 164:-0.41934775 165:0.13631018 166:0.056960083 167:-0.65567861 168:-0.66237878 169:0.41107553 170:-0.48120678 171:0.17040752 172:0.95464884 173:-0.1644402 174:-0.45602712 175:-0.46864846 176:-0.62514863 177:-0.32103271 178:-0.22146776 179:-0.87024352 180:0.16640704 181:-0.55236722 182:-0.02462489 183:-0.22146776 184:-0.75573693 185:-0.27392739 186:-0.041740992 
0 0 0 0 0 1.503571696247531 31.29882427259984 1:-0.68509399 2:-0.55114283 3:0.33333333 4:0.74772812 5:-0.93969672 6:-0.65674492 7:-0.387441 8:-0.33445652 9:-0.32399803 10:0.66643499 11:-0.34036716 12:-0.64420729 13:0.094560527 14:0.67379921 15:-0.629835 16:-0.42824901 17:-0.49523736 18:0.068737575 19:-0.49523736 20:-0.90528027 21:-0.677618 22:-0.91479865 23:-0.60846824 24:-0.31432582 25:0.39006637 26:-0.050494963 27:-0.95549477 28:-0.19885339 29:0.50799764 30:-0.92506373 31:-0.73538005 32:-0.75409657 33:-0.20536059 34:-0.75409657 35:-0.96117194 36:-0.31819888 37:-0.45099298 38:-0.36628436 39:0.071515527 40:0.68590214 41:-0.52722311 42:-0.68057202 43:0.10460582 44:0.61818367 45:-0.61212271 46:-0.45770487 47:-0.54198302 48:0.049080344 49:-0.54198302 50:-0.93426559 51:-0.72085783 52:-0.91128449 53:-0.62581828 54:-0.33760607 55:0.42296828 56:-0.28224273 57:-0.95999247 58:-0.203867 59:0.48228901 60:-0.91522007 61:-0.74928317 62:-0.77066146 63:-0.21168802 64:-0.77066146 65:-0.96094014 66:-0.45408256 67:-0.68319912 68:-0.39994113 69:-0.12213792 70:0.7463742 71:-0.49167964 72:-0.73380105 73:0.12919404 74:0.40722075 75:-0.63775745 76:-0.51017426 77:-0.59059366 78:0.033985408 79:-0.59059366 80:-0.95085832 81:-0.75013077 82:-0.91076047 83:-0.64080907 84:-0.38894483 85:0.47297819 86:-0.47487428 87:-0.96641861 88:-0.21586119 89:0.41670154 90:-0.91730423 91:-0.77546068 92:-0.79018739 93:-0.20920202 94:-0.79018739 95:-0.9030081 96:-0.51973946 97:-0.88105191 98:-0.42824244 99:-0.24529056 100:0.72052273 101:-0.50928007 102:-0.76116336 103:0.13835008 104:0.14918437 105:-0.65345149 106:-0.59734272 107:-0.52176441 108:0.0028570543 109:-0.52176441 110:-0.95428033 111:-0.78099182 112:-0.92041715 113:-0.62623237 114:-0.40538567 115:0.47499145 116:-0.58795341 117:-0.96872108 118:-0.22973166 119:0.31964053 120:-0.91781497 121:-0.78489081 122:-0.7874874 123:-0.1687963 124:-0.7874874 125:-0.83304029 126:-0.31135355 127:-0.58727421 128:-0.25496689 129:0.24301373 130:-0.069117796 131:0.040803938 132:-0.30484134 133:-0.037915121 134:0.031596613 135:-0.69600514 136:-0.30203095 137:0.61965118 138:0.13486342 139:-0.30497439 140:0.11971293 141:-0.61801119 142:-0.27663747 143:-0.71043531 144:-0.68839865 145:-0.28969374 146:-0.075782904 147:-0.066269012 148:0.97544404 149:-0.068815878 150:0.31437277 151:-0.49102907 152:-0.25158281 153:-0.59187762 154:-0.41981163 155:-0.44170959 156:-0.0093403292 157:0.12106999 158:-0.15891364 159:-0.70267479 160:-0.53051029 161:-0.26781937 162:-0.058071868 163:-0.56832745 164:-0.45828323 165:0.6069564 166:-0.25538343 167:-0.77352057 168:-0.85072876 169:0.40709175 170:-0.018575766 171:0.081654504 172:0.76509318 173:-0.052270429 174:-0.21602923 175:-0.19869586 176:-0.31613734 177:-0.54153346 178:-0.57141393 179:-0.66430085 180:0.083753835 181:-0.23359968 182:-0.58312685 183:-0.57141393 184:-0.51935335 185:-0.47194719 186:-0.35497681 
0 0.5488832689447362 12.44872977860105 5.011636200258267 0 0 0 1:-0.68714667 2:-0.35928267 3:-0.066120367 4:0.064372466 5:-0.84209207 6:-0.83378834 7:-0.38281797 8:-0.12876554 9:-0.5883896 10:0.32307841 11:0.029210668 12:-0.52379894 13:-0.24510945 14:0.51377794 15:-0.41238889 16:-0.38780158 17:-0.47681476 18:-0.25485612 19:-0.47681476 20:-0.9013297 21:-0.68077578 22:-0.94914692 23:-0.31690813 24:-0.3319962 25:0.44186997 26:-0.016660152 27:-0.85982259 28:-0.24918476 29:0.61739653 30:-0.76172317 31:-0.5613226 32:-0.60178511 33:-0.25690138 34:-0.60178511 35:-0.89753929 36:-0.65681188 37:-0.4143436 38:-0.15617187 39:-0.28046175 40:0.39273276 41:-0.29618523 42:-0.53934177 43:-0.23280374 44:0.51639469 45:-0.41194353 46:-0.37655445 47:-0.5160721 48:-0.26330795 49:-0.5160721 50:-0.93537016 51:-0.70968268 52:-0.94399347 53:-0.33514876 54:-0.32180288 55:0.48393784 56:-0.30344636 57:-0.86430998 58:-0.25020632 59:0.6098056 60:-0.75332893 61:-0.56140529 62:-0.62317545 63:-0.26529567 64:-0.62317545 65:-0.92705508 66:-0.64845917 67:-0.58106068 68:-0.20229434 69:-0.29235143 70:0.57924678 71:-0.4243637 72:-0.56794602 73:-0.19948422 74:0.43729854 75:-0.44446959 76:-0.36260854 77:-0.57663204 78:-0.27353553 79:-0.57663204 80:-0.96227511 81:-0.69532555 82:-0.93020015 83:-0.36307623 84:-0.2995627 85:0.57934097 86:-0.58230075 87:-0.87247954 88:-0.25097207 89:0.59205431 90:-0.76452117 91:-0.56816264 92:-0.6611357 93:-0.2782111 94:-0.6611357 95:-0.90118011 96:-0.43726451 97:-0.79737287 98:-0.32004529 99:-0.13122133 100:0.69398074 101:-0.65721426 102:-0.61623968 103:-0.14586675 104:0.26165425 105:-0.47634202 106:-0.48091759 107:-0.58608895 108:-0.32372551 109:-0.58608895 110:-0.97554153 111:-0.61256218 112:-0.91941498 113:-0.3978642 114:-0.16641193 115:0.6425494 116:-0.74444721 117:-0.88251077 118:-0.23593458 119:0.5204997 120:-0.77121692 121:-0.59833909 122:-0.70187476 123:-0.29095013 124:-0.70187476 125:-0.30466845 126:-0.078684583 127:-0.4967543 128:-0.3218543 129:-0.38448042 130:0.64883279 131:-0.53319233 132:0.18241326 133:-0.48482073 134:-0.2542148 135:-0.75418652 136:-0.30204431 137:-0.18809422 138:-0.10282346 139:-0.0079788614 140:0.00099543438 141:-0.29863825 142:0.37392547 143:-0.886981 144:-0.87142713 145:-0.33247551 146:0.19800528 147:0.27178318 148:0.97909241 149:-0.38134985 150:0.53353473 151:-0.64245226 152:-0.31689437 153:-0.32605096 154:0.015415762 155:-0.46631661 156:0.2677369 157:0.24437458 158:0.028435774 159:-0.68599066 160:-0.40323799 161:0.20497678 162:-0.23224991 163:0.3440652 164:0.0065688934 165:0.25212429 166:0.10663083 167:-0.89293212 168:-0.93571708 169:0.029260301 170:0.47799945 171:-0.25336053 172:0.92730813 173:-0.23251825 174:-0.2133955 175:-0.24779283 176:-0.12104368 177:-0.55179732 178:-0.53643904 179:-0.53651346 180:-0.26155844 181:-0.22812163 182:-0.66238015 183:-0.53643904 184:-0.40693935 185:-0.51815182 186:-0.42775598 
0 0 0.06466048112170261 0 0 3.455563488994143 11.56721237334828 1:-0.53201809 2:-0.50301608 3:0.086305733 4:0.37518549 5:-0.94910236 6:-0.64203302 7:-0.45922261 8:-0.22150102 9:-0.29745127 10:0.70904939 11:-0.38391284 12:-0.58565207 13:0.033994071 14:0.71122946 15:-0.53835776 16:-0.36299237 17:-0.43222512 18:7.1618704e-05 19:-0.43222512 20:-0.93706423 21:-0.57268232 22:-0.93807881 23:-0.52995121 24:-0.16119198 25:0.51270684 26:-0.22521051 27:-0.92290933 28:-0.073136205 29:0.60109932 30:-0.86861789 31:-0.64833111 32:-0.67309223 33:-0.084086592 34:-0.67309223 35:-0.96801308 36:-0.30290844 37:-0.51119865 38:-0.24677992 39:0.10811381 40:0.72421451 41:-0.55990999 42:-0.6147418 43:0.045434178 44:0.65305189 45:-0.51022221 46:-0.38363222 47:-0.47635499 48:-0.021231586 49:-0.47635499 50:-0.95536556 51:-0.6451359 52:-0.93478961 53:-0.54622929 54:-0.21679077 55:0.53103401 56:-0.41934751 57:-0.92837176 58:-0.0800556 59:0.57417322 60:-0.85408722 61:-0.6613965 62:-0.69264518 63:-0.092047908 64:-0.69264518 65:-0.97124493 66:-0.49591288 67:-0.69862855 68:-0.25479771 69:-0.11933766 70:0.77978177 71:-0.54006428 72:-0.63441918 73:0.068707241 74:0.52288387 75:-0.51514312 76:-0.38653924 77:-0.50883474 78:-0.032380837 79:-0.50883474 80:-0.96817623 81:-0.70634581 82:-0.92969217 83:-0.55135845 84:-0.30574132 85:0.57389478 86:-0.58067884 87:-0.93247498 88:-0.096801236 89:0.53421624 90:-0.8547716 91:-0.6741996 92:-0.71047571 93:-0.086774924 94:-0.71047571 95:-0.94647499 96:-0.43300283 97:-0.88827045 98:-0.27889042 99:-0.1466183 100:0.81882843 101:-0.5964113 102:-0.65871059 103:0.11984306 104:0.326904 105:-0.5255521 106:-0.46839159 107:-0.43408305 108:-0.052496902 109:-0.43408305 110:-0.97423615 111:-0.69636827 112:-0.9372529 113:-0.53192465 114:-0.2824489 115:0.60779069 116:-0.66672327 117:-0.93503261 118:-0.094053158 119:0.45546999 120:-0.85453059 121:-0.68097791 122:-0.70450658 123:-0.031620398 124:-0.70450658 125:-0.72601312 126:-0.30534325 127:-0.69569434 128:-0.25960265 129:0.27715508 130:0.14348203 131:-0.097715383 132:-0.16009147 133:-0.030534988 134:0.1131922 135:-0.9054018 136:-0.84956918 137:0.072963116 138:0.03797611 139:-0.23943529 140:-0.11836603 141:-0.60780434 142:-0.12227235 143:-0.69074307 144:-0.64693053 145:-0.31454527 146:0.0037969412 147:-0.0033483585 148:0.96991849 149:-0.15684597 150:0.40548148 151:-0.59462575 152:-0.25758081 153:-0.54121101 154:-0.23801953 155:-0.46472226 156:0.11737169 157:0.11156277 158:0.36475863 159:-0.73235161 160:-0.63734055 161:-0.11669211 162:-0.026795452 163:-0.34925353 164:-0.086876309 165:0.55338906 166:0.1289691 167:-0.79267204 168:-0.86538818 169:0.32972205 170:0.10908131 171:0.016595245 172:0.63664983 173:-0.049257903 174:-0.16068041 175:-0.068460636 176:-0.20507079 177:-0.45950205 178:-0.55258921 179:-0.4868643 180:0.013430091 181:-0.16036573 182:-0.61807051 183:-0.55258921 184:-0.30705724 185:-0.41254125 186:-0.35925794 
0 8.350929960740169 21.37809132669272 9.349452323580552 0 4.835804826065032 0.7618973740360082 1:-0.6580553 2:-0.48539996 3:-0.029240783 4:0.21436603 5:-0.97064184 6:-0.60990352 7:-0.68352915 8:0.092464799 9:-0.2548715 10:0.82426189 11:-0.41304111 12:-0.25767136 13:0.14055881 14:0.89293124 15:-0.25411141 16:-0.041365332 17:-0.12601652 18:0.10767935 19:-0.12601652 20:-0.98836168 21:-0.12734283 22:-0.98209277 23:-0.070627656 24:0.34738647 25:0.84577901 26:-0.63692371 27:-0.57118404 28:0.30974815 29:0.88826981 30:-0.48900858 31:-0.11101914 32:-0.17012927 33:0.28237615 34:-0.17012927 35:-0.9913901 36:-0.044944644 37:-0.70358452 38:0.069730468 39:0.34535789 40:0.88812569 41:-0.68343343 42:-0.28891263 43:0.1632039 44:0.86744455 45:-0.16641684 46:-0.057214671 47:-0.18583924 48:0.069700198 49:-0.18583924 50:-0.99151577 51:-0.1706984 52:-0.98035258 53:-0.091654345 54:0.29352449 55:0.85709876 56:-0.73126304 57:-0.59003103 58:0.30724325 59:0.86113904 60:-0.42454583 61:-0.1385922 62:-0.21622821 63:0.26304648 64:-0.21622821 65:-0.99892461 66:-0.10198381 67:-0.80590755 68:0.048213858 69:0.23749581 70:0.97525468 71:-0.67349839 72:-0.32473248 73:0.20681358 74:0.75051296 75:-0.15144224 76:-0.094736063 77:-0.26311263 78:0.015147446 79:-0.26311263 80:-0.99562877 81:-0.19554395 82:-0.97712901 83:-0.10866388 84:0.22220713 85:0.89940555 86:-0.82857191 87:-0.61068442 88:0.29538066 89:0.82660397 90:-0.42252937 91:-0.19235512 92:-0.28120026 93:0.24316648 94:-0.28120026 95:-0.9948353 96:0.01145264 97:-0.9143484 98:-0.065124432 99:0.30328017 100:0.96422782 101:-0.84280794 102:-0.37650754 103:0.24347511 104:0.5188389 105:-0.17983654 106:-0.28972097 107:-0.30299558 108:-0.097102382 109:-0.30299558 110:-0.99655837 111:-0.14214254 112:-0.97540544 113:-0.13718221 114:0.30043824 115:0.90598614 116:-0.90853104 117:-0.62763049 118:0.28745359 119:0.73426092 120:-0.42629947 121:-0.28135867 122:-0.35252166 123:0.24171366 124:-0.35252166 125:-0.31808359 126:-0.13956135 127:-0.5948721 128:-0.45562914 129:-0.60791088 130:0.64471344 131:-0.47832177 132:0.39660113 133:-0.51951818 134:-0.18372254 135:-0.92628836 136:-0.77500598 137:-0.53676756 138:-0.56349089 139:0.14427818 140:0.16426235 141:-0.31117888 142:0.438081 143:-0.83487111 144:-0.79070374 145:-0.46168898 146:0.29945159 147:-0.09208183 148:0.89285398 149:-0.25105136 150:0.55453576 151:-0.36359084 152:-0.44551816 153:-0.22186666 154:-0.057581995 155:-0.48592866 156:0.037393052 157:0.17295786 158:0.020468972 159:-0.62466684 160:-0.59880111 161:0.30159245 162:0.00028702344 163:-0.071625741 164:-0.04182385 165:0.26380536 166:0.51425306 167:-0.88407783 168:-0.83973269 169:0.60249779 170:0.38347981 171:0.11958277 172:0.75001299 173:0.21392131 174:0.21359569 175:0.30813508 176:0.30830921 177:-0.37482088 178:-0.6653645 179:-0.16039904 180:0.0985764 181:0.16543828 182:-0.66705491 183:-0.6653645 184:-0.1200062 185:-0.59735974 186:-0.56332501 
17.89067508119066 0 0 0 0 0 0 1:-0.35722456 2:0.066292337 3:-0.47665751 4:-0.54934438 5:-0.90784131 6:-0.50089711 7:0.21246217 8:-0.73161871 9:-0.16545122 10:0.58214923 11:-0.43760399 12:-0.897403 13:0.10682552 14:0.14405671 15:-0.8200778 16:-0.79195066 17:-0.82088113 18:0.058224007 19:-0.82088113 20:-0.89619911 21:-0.45709878 22:-0.87692234 23:-0.76678511 24:-0.051221454 25:0.41249837 26:-0.27766505 27:-0.97620938 28:-0.1237277 29:0.3781191 30:-0.94864667 31:-0.83460251 32:-0.83899264 33:-0.14464085 34:-0.83899264 35:-0.92246067 36:-0.066037978 37:-0.010469318 38:-0.76638366 39:0.24111181 40:0.53254704 41:-0.54800633 42:-0.92395797 43:0.094419663 44:-0.050890731 45:-0.84069676 46:-0.84868508 47:-0.86585543 48:0.011082801 49:-0.86585543 50:-0.91848597 51:-0.57412224 52:-0.88065794 53:-0.78795223 54:-0.17130618 55:0.40793557 56:-0.38389128 57:-0.98106226 58:-0.13986093 59:0.30760418 60:-0.94418092 61:-0.85815524 62:-0.85809308 63:-0.164864 64:-0.85809308 65:-0.8897688 66:-0.56637938 67:-0.49283186 68:-0.79125464 69:-0.24051469 70:0.43066935 71:-0.38183381 72:-0.9427612 73:0.062560716 74:-0.35128826 75:-0.88483441 76:-0.88885588 77:-0.892651 78:-0.0043392177 79:-0.892651 80:-0.92475975 81:-0.74186988 82:-0.88958748 83:-0.80242724 84:-0.38261535 85:0.37884128 86:-0.46736797 87:-0.98467955 88:-0.17800385 89:0.21322807 90:-0.95034389 91:-0.87842778 92:-0.8738515 93:-0.1644605 94:-0.8738515 95:-0.72738708 96:-0.80024066 97:-0.79856211 98:-0.77728249 99:-0.60355921 100:0.37109989 101:-0.18496313 102:-0.94636482 103:0.040652462 104:-0.44506555 105:-0.90231184 106:-0.88197665 107:-0.77944142 108:0.039080807 109:-0.77944142 110:-0.92448859 111:-0.84077817 112:-0.89449097 113:-0.77768485 114:-0.51744874 115:0.35613819 116:-0.45145432 117:-0.98509842 118:-0.2045241 119:0.1748871 120:-0.95345764 121:-0.85847918 122:-0.8576631 123:-0.079396773 124:-0.8576631 125:-0.27823446 126:-0.41643511 127:-0.24271763 128:0.18543046 129:0.2468162 130:-0.34758876 131:-0.23733061 132:0.0027970913 133:-0.24381625 134:-0.48933533 135:-0.930201 136:-0.78745676 137:-0.17350663 138:-0.38891087 139:-0.11377075 140:-0.27872829 141:0.046072223 142:-0.0062233568 143:-0.58659203 144:-0.69875087 145:-0.39828652 146:-0.62942731 147:-0.093211171 148:0.99873083 149:0.1440023 150:-0.072906466 151:0.077191863 152:0.1916028 153:-0.69491059 154:-0.7185102 155:-0.32113688 156:-0.11569184 157:0.23263012 158:-0.38048524 159:-0.86849725 160:-0.79331021 161:-0.31936854 162:-0.11066603 163:-0.040120068 164:-0.28380107 165:0.081284887 166:0.086520382 167:-0.73020347 168:-0.7447625 169:0.33554191 170:-0.53865165 171:0.10876795 172:0.96164917 173:-0.25388761 174:-0.59411974 175:-0.11512264 176:-0.4488858 177:0.27400835 178:-0.0084479532 179:-0.72627799 180:0.10369149 181:-0.6722341 182:0.11695333 183:-0.0084479532 184:-0.63940271 185:-0.04950495 186:0.11666072 
0 0 0 0.5272616174656013 0 0 3.778642259971911 1:-0.83420111 2:-0.39171526 3:0.44873136 4:0.68323244 5:-0.91761903 6:-0.67808049 7:-0.49279945 8:-0.033737252 9:-0.35612954 10:0.62312782 11:-0.27596423 12:-0.40221226 13:-0.16588082 14:0.5925978 15:-0.37695295 16:-0.33292722 17:-0.38660514 18:-0.20358081 19:-0.38660514 20:-0.98854017 21:0.040664771 22:-0.98284324 23:0.050560053 24:0.46337546 25:0.88668737 26:-0.66483937 27:-0.36821489 28:0.19653406 29:0.93272522 30:-0.33526775 31:-0.072324747 32:-0.14217866 33:0.1557768 34:-0.14217866 35:-0.94824358 36:-0.1880426 37:-0.53175283 38:-0.034742597 39:0.18423433 40:0.71006788 41:-0.52884021 42:-0.40735051 43:-0.16420551 44:0.59850923 45:-0.32467864 46:-0.34059012 47:-0.43479278 48:-0.26109525 49:-0.43479278 50:-0.98990958 51:-0.0037559151 52:-0.98080715 53:0.044126718 54:0.40331506 55:0.89490079 56:-0.72808825 57:-0.37568113 58:0.18343498 59:0.91654795 60:-0.26289388 61:-0.092412823 62:-0.19287563 63:0.11004202 64:-0.19287563 65:-0.96026082 66:-0.2434877 67:-0.69217114 68:-0.036286134 69:0.066647949 70:0.81338018 71:-0.49205417 72:-0.44477013 73:-0.1693092 74:0.47595007 75:-0.33887533 76:-0.36053156 77:-0.50887495 78:-0.34291718 79:-0.50887495 80:-0.99432666 81:-0.039255937 82:-0.97657146 83:0.039177077 84:0.30486295 85:0.93181208 86:-0.79968351 87:-0.41339938 88:0.14815317 89:0.8704257 90:-0.27738733 91:-0.14302635 92:-0.27876747 93:0.038181305 94:-0.27876747 95:-0.92981133 96:-0.18626268 97:-0.89682556 98:-0.0074306929 99:0.060716102 100:0.79566233 101:-0.60962775 102:-0.48379848 103:-0.22005065 104:0.24998656 105:-0.3627532 106:-0.49103939 107:-0.48732692 108:-0.46944677 109:-0.48732692 110:-0.99582566 111:-0.023806658 112:-0.98036277 113:0.13351749 114:0.33850302 115:0.92664524 116:-0.85880177 117:-0.43456217 118:0.094079813 119:0.75566344 120:-0.28214685 121:-0.23174769 122:-0.31830336 123:-0.05484022 124:-0.31830336 125:-0.74027496 126:-0.30981248 127:-0.24636578 128:-0.11059603 129:-0.20495163 130:0.25366464 131:-0.27204318 132:0.14139026 133:-0.51539418 134:-0.3662445 135:-0.59648274 136:0.18947308 137:-0.15198663 138:-0.10826273 139:-0.45682909 140:-0.38551516 141:-0.51342515 142:0.062730553 143:-0.89933598 144:-0.88305824 145:-0.60122664 146:-0.12360167 147:0.18990449 148:0.90129068 149:-0.34745586 150:0.5643158 151:-0.21412924 152:-0.1002999 153:-0.3980457 154:-0.3242473 155:-0.43511849 156:0.1715135 157:0.26056728 158:0.036317348 159:-0.53453314 160:-0.2936775 161:-0.093607333 162:0.10701206 163:0.12240224 164:-0.098567227 165:0.40192144 166:-0.1409903 167:-0.901646 168:-0.91727327 169:0.276101 170:-0.093109333 171:-0.16640723 172:0.51377155 173:-0.12473036 174:-0.14533136 175:0.20604175 176:0.32997883 177:-0.0022306863 178:-0.4468514 179:-0.80410386 180:-0.17404584 181:-0.12265643 182:-0.46416806 183:-0.4468514 184:-0.91517995 185:-0.43894389 186:-0.18729932 
0 0 0 0 0 0 7.879419444769192 1:-0.82340744 2:-0.4226415 3:0.34310357 4:0.59659454 5:-0.93615623 6:-0.7254988 7:-0.4882688 8:-0.22621361 9:-0.41617013 10:0.6398913 11:-0.22603958 12:-0.61142614 13:0.093894442 14:0.70087063 15:-0.59131636 16:-0.33204078 17:-0.40163583 18:0.081710487 19:-0.40163583 20:-0.97884553 21:-0.28380121 22:-0.97453462 23:-0.25621453 24:0.16757916 25:0.77329543 26:-0.48813753 27:-0.73743779 28:0.26959353 29:0.833901 30:-0.69538052 31:-0.29964682 32:-0.34440453 33:0.25260442 34:-0.34440453 35:-0.96523933 36:-0.3924056 37:-0.54882762 38:-0.24269949 39:0.0031018568 40:0.69538882 41:-0.47970062 42:-0.63978587 43:0.10372998 44:0.66019608 45:-0.5492667 46:-0.35124536 47:-0.44014458 48:0.058938535 49:-0.44014458 50:-0.98425043 51:-0.36755515 52:-0.97328243 53:-0.27185192 54:0.088533417 55:0.77919392 56:-0.61378752 57:-0.75693751 58:0.26043821 59:0.80449349 60:-0.64650488 61:-0.32580321 62:-0.37670718 63:0.24087112 64:-0.37670718 65:-0.97057625 66:-0.50270971 67:-0.72488408 68:-0.2559495 69:-0.15236649 70:0.76978783 71:-0.47601312 72:-0.6681318 73:0.12789523 74:0.50791824 75:-0.5481779 76:-0.3704193 77:-0.47904334 78:0.041250421 79:-0.47904334 80:-0.98955393 81:-0.43775993 82:-0.9706274 83:-0.28017161 84:-0.016481102 85:0.81397623 86:-0.72456609 87:-0.77637702 88:0.23993102 89:0.75887867 90:-0.64149103 91:-0.36124463 92:-0.41542414 93:0.24390028 94:-0.41542414 95:-0.94688152 96:-0.45822208 97:-0.89221908 98:-0.28982034 99:-0.16839331 100:0.80302724 101:-0.54106727 102:-0.68886798 103:0.17090071 104:0.32504999 105:-0.55250661 106:-0.4600498 107:-0.41466439 108:0.0066029217 109:-0.41466439 110:-0.99193445 111:-0.43613221 112:-0.97179044 113:-0.24704615 114:0.013267223 115:0.83271128 116:-0.78233045 117:-0.78283193 118:0.23869361 119:0.68656569 120:-0.63503619 121:-0.3807118 122:-0.4080751 123:0.30753807 124:-0.4080751 125:-0.72595503 126:-0.28825717 127:-0.59323198 128:-0.15099338 129:0.043591328 130:0.52321418 131:-0.46608823 132:0.18586917 133:-0.31254621 134:0.17440682 135:-0.94896021 136:-0.60576128 137:-0.66094495 138:-0.54093204 139:-0.25801775 140:0.19568002 141:-0.55768204 142:-0.064545079 143:-0.83077386 144:-0.81846776 145:-0.13292252 146:0.20999768 147:-0.064681486 148:0.98785418 149:-0.12123146 150:0.40434021 151:-0.29277866 152:-0.14695102 153:-0.4679394 154:-0.28205946 155:-0.52289599 156:0.30061259 157:0.46496144 158:-0.045238192 159:-0.79273792 160:-0.61406435 161:0.068399397 162:-0.009076794 163:-0.39491133 164:-0.45174414 165:0.4254454 166:0.20402599 167:-0.84736762 168:-0.8557056 169:0.50808715 170:0.06577632 171:0.087354401 172:0.86680724 173:0.0095869874 174:-0.11917023 175:0.27951935 176:0.15818912 177:-0.12805549 178:-0.47969909 179:-0.48302393 180:0.078532237 181:-0.12423182 182:-0.50157637 183:-0.47969909 184:-0.50131841 185:-0.46534653 186:-0.24438102 
0 0 0 0 0 5.296817020586575 1.165257312696699 1:-0.73634038 2:-0.50301608 3:0.10981843 4:0.40450614 5:-0.92530262 6:-0.47112556 7:-0.011733911 8:-0.65797647 9:-0.094924272 10:0.62406834 11:-0.56234091 12:-0.83273219 13:0.22998452 14:0.34835001 15:-0.74881184 16:-0.68940952 17:-0.7322019 18:0.17929445 19:-0.7322019 20:-0.74281484 21:-0.8317975 22:-0.69204227 23:-0.83904155 24:-0.56957102 25:-0.01339036 26:0.26537038 27:-0.99579133 28:-0.58465123 29:0.073315076 30:-0.98516361 31:-0.92816124 32:-0.93325586 33:-0.59222509 34:-0.93325586 35:-0.93547449 36:-0.15078906 37:-0.15813585 38:-0.66986631 39:0.24766793 40:0.55606138 41:-0.63369437 42:-0.84531885 43:0.20880064 44:0.25514897 45:-0.75457564 46:-0.71412214 47:-0.76208519 48:0.13482427 49:-0.76208519 50:-0.80787251 51:-0.86776611 52:-0.69120034 53:-0.84470917 54:-0.58772823 55:0.020229744 56:0.033738957 57:-0.99607203 58:-0.59269319 59:0.041646014 60:-0.9835651 61:-0.93239917 62:-0.93800313 63:-0.60612288 64:-0.93800313 65:-0.91945224 66:-0.46698394 67:-0.5519539 68:-0.67776572 69:-0.10698299 70:0.54062918 71:-0.50862365 72:-0.86572872 73:0.16642431 74:-0.014429444 75:-0.77743448 76:-0.7560823 77:-0.791542 78:0.070018417 79:-0.791542 80:-0.84041119 81:-0.89842209 82:-0.7107699 83:-0.8472841 84:-0.63899132 85:0.053244255 86:-0.17477451 87:-0.99652704 88:-0.6124155 89:-0.035991661 90:-0.98395562 91:-0.94064571 92:-0.94375072 93:-0.62479343 94:-0.94375072 95:-0.78195797 96:-0.61895765 97:-0.8516499 98:-0.69354919 99:-0.34767804 100:0.45743359 101:-0.47131456 102:-0.87709861 103:0.087870469 104:-0.3421255 105:-0.79441803 106:-0.83656665 107:-0.72691166 108:-0.0093551337 109:-0.72691166 110:-0.83554676 111:-0.92191679 112:-0.76440125 113:-0.84214981 114:-0.67330546 115:0.027330964 116:-0.28447131 117:-0.99663825 118:-0.64081228 119:-0.15767661 120:-0.98432251 121:-0.94604985 122:-0.94564976 123:-0.63394963 124:-0.94564976 125:-0.71845596 126:-0.28836496 127:-0.68703159 128:-0.26291391 129:0.39313799 130:-0.32000598 131:-0.43919002 132:-0.54387543 133:-0.18134913 134:-0.43858463 135:-0.93064544 136:-0.72585681 137:-0.045680933 138:-0.33037349 139:-0.31421325 140:-0.37169765 141:-0.17768998 142:-0.43534418 143:-0.48296057 144:-0.68094839 145:-0.011084719 146:-0.53324978 147:-0.23378835 148:0.98062071 149:0.23416504 150:-0.12797949 151:-0.46045147 152:-0.25691436 153:-0.69914771 154:-0.58473301 155:-0.75945724 156:-0.33569457 157:0.51506177 158:-0.57923791 159:-0.92237438 160:-0.87411392 161:0.10687283 162:-0.19638734 163:-0.32218063 164:-0.55287543 165:0.37555799 166:-0.1572832 167:-0.58927024 168:-0.67786369 169:0.38090255 170:-0.3991394 171:0.2321215 172:0.97596777 173:-0.12378048 174:-0.41839069 175:-0.5790814 176:-0.68813292 177:-0.67930633 178:-0.56640113 179:-0.84320904 180:0.23925769 181:-0.56447085 182:-0.34950284 183:-0.56640113 184:-0.60605548 185:-0.49834983 186:-0.36425259 
8.343697932685751 0 0 0 0 0 8.913168941739583 1:-0.6397486 2:8.1160962e-05 3:-0.29276392 4:-0.36282514 5:-0.90865563 6:-0.46171165 7:0.099350353 8:-0.63487211 9:-0.12272573 10:0.61855544 11:-0.49202771 12:-0.84100865 13:-0.00032929731 14:0.2263059 15:-0.71649418 16:-0.72920122 17:-0.77264193 18:-0.062562435 19:-0.77264193 20:-0.88465022 21:-0.53837626 22:-0.8610332 23:-0.75958393 24:-0.15066951 25:0.35462348 26:-0.19043965 27:-0.97867754 28:-0.23878752 29:0.34287643 30:-0.94368533 31:-0.84354406 32:-0.85199593 33:-0.25842157 34:-0.85199593 35:-0.92598481 36:0.020341451 37:-0.021723357 38:-0.68008104 39:0.29693728 40:0.57635654 41:-0.56887011 42:-0.86677384 43:-0.015278846 44:0.068868763 45:-0.74397103 46:-0.77947344 47:-0.82847262 48:-0.11742741 49:-0.82847262 50:-0.91185208 51:-0.62757751 52:-0.85641738 53:-0.78235321 54:-0.24045224 55:0.36400346 56:-0.32842215 57:-0.98170359 58:-0.25434937 59:0.28509607 60:-0.94163949 61:-0.8614862 62:-0.87079405 63:-0.28165525 64:-0.87079405 65:-0.89392216 66:-0.53663272 67:-0.41277728 68:-0.72651258 69:-0.23412227 70:0.46484178 71:-0.34133302 72:-0.90005236 73:-0.060105658 74:-0.1831435 75:-0.81951291 76:-0.81875977 77:-0.87371249 78:-0.13913338 79:-0.87371249 80:-0.91760005 81:-0.78084566 82:-0.84961646 83:-0.80335154 84:-0.44804124 85:0.33561571 86:-0.38561516 87:-0.9854412 88:-0.29354149 89:0.20518541 90:-0.95198416 91:-0.87858439 92:-0.8890001 93:-0.28768969 94:-0.8890001 95:-0.71329315 96:-0.83878252 97:-0.73106362 98:-0.71561808 99:-0.66747341 100:0.36380666 101:-0.097917924 102:-0.89968821 103:-0.088768162 104:-0.23407345 105:-0.84422567 106:-0.78866326 107:-0.75790756 108:-0.066325655 109:-0.75790756 110:-0.91195772 111:-0.88257673 112:-0.83455096 113:-0.78118517 114:-0.60141213 115:0.29536619 116:-0.33364567 117:-0.98507754 118:-0.31775858 119:0.17950605 120:-0.95525645 121:-0.85327811 122:-0.87449842 123:-0.20271075 124:-0.87449842 125:-0.17693066 126:-0.017220677 127:-0.40209677 128:0.023178808 129:0.28889637 130:-0.27525165 131:0.020109086 132:-0.17299657 133:0.067502197 134:-0.054378103 135:-0.55995701 136:-0.41412799 137:0.78380938 138:0.10749676 139:-0.026206315 140:-0.25631573 141:0.1021241 142:0.12935473 143:-0.51946782 144:-0.68154795 145:-0.44429322 146:-0.62403225 147:0.0062283775 148:0.98999031 149:0.022776075 150:0.041894883 151:-0.43100821 152:0.028323892 153:-0.83389795 154:-0.68332663 155:-0.1067579 156:0.49620641 157:0.15142008 158:-0.30061487 159:-0.91512868 160:-0.89222467 161:0.045560775 162:0.012027531 163:0.34065529 164:0.51812357 165:-0.023873493 166:-0.055477038 167:-0.68592931 168:-0.75239286 169:0.15920689 170:-0.36840481 171:0.00060685791 172:0.88916396 173:-0.29448437 174:-0.54031772 175:-0.23097005 176:-0.478084 177:-0.003688609 178:-0.1272482 179:-0.77768544 180:-0.006585789 181:-0.5775956 182:-0.082606055 183:-0.1272482 184:-0.71194813 185:-0.28052805 186:-0.056724938 
0 0 0 0 0 0 27.81782543133307 1:-0.88141642 2:-0.44854867 3:0.4189797 4:0.71821808 5:-0.96379172 6:-0.56190368 7:-0.46633973 8:-0.23471684 9:-0.2015701 10:0.80550065 11:-0.45986626 12:-0.5359745 13:0.11346748 14:0.74017293 15:-0.4515497 16:-0.32794824 17:-0.4131818 18:0.070726138 19:-0.4131818 20:-0.9461018 21:-0.45588753 22:-0.94446406 23:-0.47271415 24:-0.019795007 25:0.57094369 26:-0.33577765 27:-0.90048732 28:-0.065131914 29:0.63281127 30:-0.82546682 31:-0.60138338 32:-0.63560139 33:-0.085380365 34:-0.63560139 35:-0.98403321 36:-0.022843812 37:-0.50368086 38:-0.2609061 39:0.35091662 40:0.84066725 41:-0.66986838 42:-0.56140634 43:0.11270732 44:0.68601308 45:-0.40885117 46:-0.35472325 47:-0.47297242 48:0.013662373 49:-0.47297242 50:-0.96406964 51:-0.50430664 52:-0.94017641 53:-0.49227567 54:-0.051673425 55:0.6004472 56:-0.52345477 57:-0.9061369 58:-0.076202806 59:0.60434677 60:-0.8059449 61:-0.61973414 62:-0.66373606 63:-0.11167277 64:-0.66373606 65:-0.98829183 66:-0.17367707 67:-0.68427776 68:-0.2949556 69:0.16591555 70:0.89309272 71:-0.6565477 72:-0.5974967 73:0.11433951 74:0.49389677 75:-0.4300482 76:-0.40844978 77:-0.55082212 78:-0.064612216 79:-0.55082212 80:-0.97564096 81:-0.55023743 82:-0.93377132 83:-0.51468527 84:-0.12202827 85:0.64153419 86:-0.68371699 87:-0.91373807 88:-0.1011134 89:0.55078254 90:-0.81182537 91:-0.65535737 92:-0.7035897 93:-0.14514457 94:-0.7035897 95:-0.95710122 96:-0.24267921 97:-0.88575244 98:-0.33168701 99:0.050135247 100:0.84089094 101:-0.65767856 102:-0.6198035 103:0.079782252 104:0.20988397 105:-0.45696037 106:-0.54432705 107:-0.52315951 108:-0.16607031 109:-0.52315951 110:-0.97628422 111:-0.59268821 112:-0.94106562 113:-0.50865459 114:-0.14566275 115:0.62835076 116:-0.7399737 117:-0.9157369 118:-0.13613365 119:0.4411636 120:-0.81522047 121:-0.68913682 122:-0.72164044 123:-0.15703548 124:-0.72164044 125:-0.77349028 126:-0.28434076 127:-0.49449214 128:-0.15960265 129:0.046594625 130:0.16583958 131:-0.49367253 132:-0.099250669 133:-0.46811684 134:-0.44395356 135:-0.73348051 136:-0.40701316 137:-0.017546704 138:-0.15539424 139:-0.33362936 140:-0.30488263 141:-0.44999255 142:-0.21275541 143:-0.77529311 144:-0.74853588 145:-0.48358532 146:-0.25589024 147:-0.092422009 148:0.94418284 149:-0.092343773 150:0.3214009 151:-0.29521588 152:-0.14828391 153:-0.54597272 154:-0.31938147 155:-0.35657488 156:0.22142231 157:0.19986923 158:-0.08698486 159:-0.81590135 160:-0.79862737 161:0.37459624 162:-0.110493 163:-0.2174048 164:-0.14600265 165:0.51838327 166:-0.23972554 167:-0.80861919 168:-0.81360842 169:0.59547754 170:0.20556126 171:0.11365957 172:0.94251827 173:0.024451172 174:-0.051887225 175:-0.05668158 176:-0.15135841 177:-0.2741691 178:-0.49180849 179:-0.78800654 180:0.10810209 181:-0.13203961 182:-0.40412032 183:-0.49180849 184:-0.7984106 185:-0.49174917 186:-0.24723511 
0 0 0 0 0 0 1.658378625259304 1:-0.77525376 2:-0.41262932 3:0.29103521 4:0.52414695 5:-0.87037863 6:-0.71576248 7:-0.15485534 8:-0.35673062 9:-0.4050676 10:0.44199526 11:-0.22481429 12:-0.70609455 13:-0.24435825 14:0.38336868 15:-0.5721546 16:-0.57458419 17:-0.64132755 18:-0.28128396 19:-0.64132755 20:-0.84258881 21:-0.759377 22:-0.87507545 23:-0.62791947 24:-0.44828771 25:0.22869096 26:0.11405891 27:-0.9705048 28:-0.45917675 29:0.3583653 30:-0.92600753 31:-0.80962822 32:-0.82583455 33:-0.46902435 34:-0.82583455 35:-0.91078703 36:-0.43842317 37:-0.20742419 38:-0.38738097 39:-0.037121019 40:0.4742552 41:-0.48121554 42:-0.71766387 43:-0.24159905 44:0.32569889 45:-0.57760353 46:-0.59013898 47:-0.6856694 48:-0.31140045 49:-0.6856694 50:-0.89353891 51:-0.78389229 52:-0.86469066 53:-0.64456463 54:-0.43682441 55:0.2772755 56:-0.1682576 57:-0.97182023 58:-0.4630174 59:0.33906115 60:-0.92225486 61:-0.81635052 62:-0.83969483 63:-0.48434163 64:-0.83969483 65:-0.92115521 66:-0.53959593 67:-0.47322547 68:-0.43880907 69:-0.19154955 70:0.57022315 71:-0.47151447 72:-0.75105466 73:-0.23936648 74:0.15058623 75:-0.62892351 76:-0.62203208 77:-0.74793436 78:-0.34561827 79:-0.74793436 80:-0.92499907 81:-0.80064633 82:-0.84476974 83:-0.66878014 84:-0.45825163 85:0.34425228 86:-0.42268034 87:-0.97490307 88:-0.47439419 89:0.28841426 90:-0.92834942 91:-0.83215252 92:-0.86165426 93:-0.50721433 94:-0.86165426 95:-0.82530105 96:-0.57331052 97:-0.77108613 98:-0.54931762 99:-0.32374525 100:0.54494467 101:-0.43328564 102:-0.82591611 103:-0.2683564 104:-0.1200432 105:-0.719374 106:-0.72869823 107:-0.74008238 108:-0.37415561 109:-0.74008238 110:-0.93163656 111:-0.82001601 112:-0.83812527 113:-0.70022023 114:-0.47527782 115:0.34225046 116:-0.51240828 117:-0.98080202 118:-0.49251805 119:0.18566296 120:-0.94061182 121:-0.84841965 122:-0.88168781 123:-0.5141792 124:-0.88168781 125:-0.65546289 126:-0.26349957 127:-0.51291145 128:-0.18410596 129:0.039830386 130:0.18324486 131:-0.3179803 132:-0.072012887 133:-0.30246053 134:-0.25799785 135:-0.88911513 136:-0.5344483 137:0.11285688 138:0.072827384 139:-0.45864936 140:-0.12535278 141:-0.4785817 142:0.16442082 143:-0.74821569 144:-0.70805938 145:-0.53609623 146:-0.1972176 147:0.26101664 148:0.9923545 149:-0.2882228 150:0.39243947 151:-0.73286469 152:-0.18093969 153:-0.74543431 154:-0.29813182 155:-0.31914197 156:0.33269586 157:0.12798841 158:-0.42940113 159:-0.80582363 160:-0.79474184 161:0.075361149 162:-0.21981944 163:-0.31710343 164:-0.39720663 165:0.19299857 166:0.073309676 167:-0.81145845 168:-0.83515535 169:-0.0072805123 170:0.10279135 171:-0.25033807 172:0.8615471 173:-0.36270797 174:-0.45396274 175:-0.45433583 176:-0.44346132 177:-0.58339721 178:-0.50199733 179:-0.82563904 180:-0.25412095 181:-0.43037269 182:-0.55126422 183:-0.50199733 184:-0.76277759 185:-0.46534653 186:-0.2807706 
0 1.079135303227925 19.0774210000442 0 0 3.8017756112564 25.9993590332172 1:-0.39158697 2:-0.23301589 3:-0.15163834 4:-0.11323689 5:-0.94516848 6:-0.6445415 7:-0.48365177 8:-0.19235336 9:-0.2952204 10:0.68477061 11:-0.39653316 12:-0.61344927 13:0.041477607 14:0.67496322 15:-0.55877438 16:-0.33564496 17:-0.40596604 18:0.007803623 19:-0.40596604 20:-0.89836712 21:-0.69627322 22:-0.91896731 23:-0.53919653 24:-0.33846817 25:0.3612753 26:-0.028401622 27:-0.95840659 28:-0.29632555 29:0.48240898 30:-0.91872066 31:-0.71998457 32:-0.7409373 33:-0.3058651 34:-0.7409373 35:-0.96478586 36:-0.30614033 37:-0.54513375 38:-0.21341396 39:0.10179205 40:0.69258377 41:-0.56298098 42:-0.64215244 43:0.060360829 44:0.64264651 45:-0.53284656 46:-0.35125666 47:-0.44362141 48:-0.0040138052 49:-0.44362141 50:-0.93185772 51:-0.73450537 52:-0.91755384 53:-0.54982556 54:-0.35531936 55:0.3982691 56:-0.26323878 57:-0.96140596 58:-0.2956555 59:0.46249048 60:-0.90872104 61:-0.73005204 62:-0.75303856 63:-0.31078112 64:-0.75303856 65:-0.97168825 66:-0.42045158 67:-0.71891139 68:-0.23112973 69:-0.039013116 70:0.77080733 71:-0.59879803 72:-0.66437877 73:0.095317952 74:0.48084322 75:-0.52579746 76:-0.3774734 77:-0.48917155 78:-0.026521361 79:-0.48917155 80:-0.95394951 81:-0.75578996 82:-0.91298325 83:-0.55609846 84:-0.37525822 85:0.45904832 86:-0.52921601 87:-0.96378804 88:-0.29977972 89:0.42211078 90:-0.90557228 91:-0.74707185 92:-0.76994506 93:-0.3163868 94:-0.76994506 95:-0.93788733 96:-0.28312079 97:-0.91501378 98:-0.25649632 99:0.01289351 100:0.77857403 101:-0.62929061 102:-0.68524763 103:0.12982967 104:0.19623379 105:-0.52790892 106:-0.5445937 107:-0.44152735 108:-0.10213722 109:-0.44152735 110:-0.96051518 111:-0.7260954 112:-0.93514431 113:-0.53389376 114:-0.31477907 115:0.47904316 116:-0.63268217 117:-0.96445509 118:-0.30138138 119:0.31770976 120:-0.90260552 121:-0.7798456 122:-0.77255396 123:-0.31492179 124:-0.77255396 125:-0.05861599 126:0.093541611 127:-0.68107611 128:-0.30860927 129:0.06522071 130:0.47562791 131:-0.0017011213 132:0.29369987 133:-0.042007036 134:0.18345113 135:-0.83195025 136:-0.42206479 137:-0.046608824 138:0.022379632 139:0.29106993 140:0.053408191 141:-0.032015902 142:0.26849258 143:-0.70830044 144:-0.55829175 145:-0.37627473 146:0.085254794 147:-0.0052814814 148:0.97945428 149:-0.17006564 150:0.44216418 151:-0.62893576 152:-0.30623126 153:-0.4191372 154:-0.1606394 155:-0.51015383 156:-0.17804039 157:0.33307888 158:-0.095920962 159:-0.69148134 160:-0.46833295 161:-0.018495429 162:-0.30062799 163:0.09815979 164:-0.12283931 165:-0.041744837 166:0.19709733 167:-0.78197985 168:-0.82255239 169:0.33148531 170:0.25035855 171:0.018935788 172:0.74892681 173:-0.029740525 174:-0.15403503 175:-0.29771578 176:-0.30368937 177:-0.4451918 178:-0.41866883 179:-0.56280372 180:0.00987233 181:-0.11812965 182:-0.44646176 183:-0.41866883 184:-0.26791156 185:-0.39273927 186:-0.41348555 
0 0 0 0 0 0 6.70883717148905 1:0.2223221 2:-0.16627709 3:-1 4:-1 5:-0.95308647 6:-0.59872796 7:-0.32598026 8:-0.41141295 9:-0.22625507 10:0.69769355 11:-0.47898756 12:-0.72960067 13:0.10853125 14:0.56924022 15:-0.66064009 16:-0.50712027 17:-0.55778853 18:0.069092483 19:-0.55778853 20:-0.95988226 21:-0.37114154 22:-0.94602376 23:-0.52760924 24:0.1076169 25:0.62091181 26:-0.48404158 27:-0.9118678 28:0.046174799 29:0.64053206 30:-0.85625952 31:-0.6216201 32:-0.64116609 33:0.022551864 34:-0.64116609 35:-0.97645612 36:-0.087122469 37:-0.4191479 38:-0.43637871 39:0.34041557 40:0.74426923 41:-0.73942351 42:-0.75286115 43:0.12394741 44:0.48607577 45:-0.62734373 46:-0.55337844 47:-0.60457049 48:0.027572141 49:-0.60457049 50:-0.97241036 51:-0.42913383 52:-0.94524606 53:-0.5461097 54:0.061419215 55:0.6435454 56:-0.65057295 57:-0.9191455 58:0.041701771 59:0.60024306 60:-0.83065388 61:-0.65161889 62:-0.66725933 63:0.0025429523 64:-0.66725933 65:-0.9716646 66:-0.25412424 67:-0.69239045 68:-0.4621748 69:0.10252781 70:0.76549572 71:-0.60082571 72:-0.7840487 73:0.13583663 74:0.21870144 75:-0.64962804 76:-0.62522827 77:-0.65620072 78:-0.023156815 79:-0.65620072 80:-0.97826495 81:-0.49833917 82:-0.94758715 83:-0.5644692 84:-0.062392804 85:0.66390351 86:-0.71026068 87:-0.92869669 88:0.017862382 89:0.51832583 90:-0.83556399 91:-0.69932204 92:-0.70139944 93:-0.01601344 94:-0.70139944 95:-0.90430501 96:-0.41797525 97:-0.90060009 98:-0.46999312 99:-0.12838686 100:0.67846905 101:-0.566088 102:-0.78562955 103:0.063096516 104:-0.064066493 105:-0.66724795 106:-0.71849634 107:-0.59803934 108:-0.11603742 109:-0.59803934 110:-0.97567061 111:-0.59765808 112:-0.95819177 113:-0.54053848 114:-0.15764575 115:0.62721763 116:-0.72340997 117:-0.9272606 118:-0.040299798 119:0.41253301 120:-0.83842065 121:-0.71998782 122:-0.70540997 123:-0.013326999 124:-0.70540997 125:-0.16379539 126:-0.82535839 127:-0.53184841 128:-0.18211921 129:0.046809944 130:0.31220855 131:-0.22770416 132:0.37927853 133:-0.27095204 134:-0.27253193 135:-0.86789897 136:-0.58267005 137:-0.23357627 138:-0.39653128 139:0.034825047 140:-0.097762995 141:0.0016579534 142:0.17108386 143:-0.73122975 144:-0.65744764 145:-0.45802441 146:-0.21888833 147:-0.067029599 148:0.98739226 149:-0.028405745 150:0.2387606 151:-0.12552566 152:-0.17627458 153:-0.48592902 154:-0.48423105 155:-0.33509295 156:0.51718487 157:0.41570562 158:-0.29327082 159:-0.65576206 160:-0.53752907 161:-0.12786896 162:-0.3343938 163:0.035258844 164:-0.41250387 165:0.1012949 166:0.29708503 167:-0.82943228 168:-0.83569856 169:0.51089132 170:-0.18326701 171:0.087330534 172:0.97946504 173:-0.094016113 174:-0.28135607 175:0.045480385 176:-0.15923427 177:0.20257012 178:-0.19968488 179:-0.82522238 180:0.076859996 181:-0.30182182 182:-0.1131438 183:-0.19968488 184:-0.85159107 185:-0.04290429 186:-0.27791652 
0 0 0 0 0 0 6.660602296322579 1:-0.69449 2:-0.30879187 3:0.23428236 4:0.35522348 5:-0.95297505 6:-0.5943956 7:-0.36549262 8:-0.3980032 9:-0.23529388 10:0.72870521 11:-0.44330291 12:-0.67934816 13:0.15265836 14:0.65356589 15:-0.64195646 16:-0.48296034 17:-0.52994375 18:0.11767464 19:-0.52994375 20:-0.93361061 21:-0.56425253 22:-0.92421209 23:-0.62330428 24:-0.14737646 25:0.48665528 26:-0.23378042 27:-0.94824214 28:-0.068439056 29:0.54977411 30:-0.90989534 31:-0.72033578 32:-0.73398762 33:-0.080109729 34:-0.73398762 35:-0.97014334 36:-0.16439985 37:-0.45943294 38:-0.40599761 39:0.21867254 40:0.74681496 41:-0.60714451 42:-0.70033779 43:0.14834894 44:0.58235512 45:-0.6101586 46:-0.5084064 47:-0.56497931 48:0.073524019 49:-0.56497931 50:-0.95179551 51:-0.62524024 52:-0.92426873 53:-0.63041864 54:-0.20261692 55:0.50973542 56:-0.41091585 57:-0.95159376 58:-0.082439058 59:0.51577767 60:-0.89509464 61:-0.73433799 62:-0.7478923 63:-0.096738497 64:-0.7478923 65:-0.969762 66:-0.34252392 67:-0.6840889 68:-0.42425451 69:0.0030074529 70:0.79261383 71:-0.58846199 72:-0.73652179 73:0.13927158 74:0.35200962 75:-0.6170754 76:-0.55351808 77:-0.6174747 78:0.009083162 79:-0.6174747 80:-0.96368849 81:-0.6750455 82:-0.92247395 83:-0.64232601 84:-0.27782044 85:0.54783207 86:-0.58467999 87:-0.95721187 88:-0.11338798 89:0.4439805 90:-0.89446677 91:-0.76027573 92:-0.7720626 93:-0.11524379 94:-0.7720626 95:-0.91523796 96:-0.40663377 97:-0.89959166 98:-0.44759652 99:-0.10537719 100:0.72809697 101:-0.62506098 102:-0.77355001 103:0.10332307 104:-0.013074292 105:-0.63627118 106:-0.68814907 107:-0.57014684 108:-0.084449591 109:-0.57014684 110:-0.96482456 111:-0.71038707 112:-0.9396509 113:-0.63228388 114:-0.29191879 115:0.5309383 116:-0.68059444 117:-0.96124692 118:-0.147973 119:0.30673501 120:-0.89568911 121:-0.79093898 122:-0.77857138 123:-0.10479553 124:-0.77857138 125:-0.57534703 126:-0.2355951 127:-0.65939463 128:-0.10264901 129:0.22279306 130:-0.16088978 131:-0.090414846 132:-0.20469802 133:-0.027685693 134:0.16030566 135:-0.93270326 136:-0.80821244 137:-0.34649181 138:-0.38928687 139:-0.23411308 140:-0.51641496 141:-0.23131915 142:-0.030397919 143:-0.64070024 144:-0.73531054 145:-0.27610043 146:-0.21664789 147:-0.13816276 148:0.9793181 149:0.028529981 150:0.18718734 151:-0.25855105 152:-0.095634788 153:-0.64353733 154:-0.52383041 155:-0.51089685 156:0.040787414 157:0.34647887 158:-0.42008643 159:-0.78007007 160:-0.62436541 161:-0.0096237054 162:0.0083484315 163:-0.38185834 164:-0.48588655 165:0.074696246 166:-0.015170206 167:-0.78501379 168:-0.79820582 169:0.40968137 170:-0.092583766 171:0.15272477 172:0.94628099 173:-0.043808242 174:-0.22807768 175:-0.056890133 176:-0.30046848 177:-0.15094022 178:-0.41756447 179:-0.77939275 180:0.15036514 181:-0.29834775 182:-0.28100132 183:-0.41756447 184:-0.78025416 185:-0.37953795 186:-0.19086693 
0 0 0 0 0.9319833262708795 0 10.39187388416419 1:-0.48439117 2:-0.26490919 3:-0.052556925 4:0.011267191 5:-0.91680616 6:-0.69695443 7:-0.27653474 8:-0.48258833 9:-0.39097191 10:0.58190929 11:-0.22901246 12:-0.6989725 13:0.18793179 14:0.5447174 15:-0.61668168 16:-0.52249289 17:-0.58156568 18:0.17835205 19:-0.58156568 20:-0.8998885 21:-0.67403049 22:-0.91174209 23:-0.62467938 24:-0.32628753 25:0.3851863 26:-0.016016032 27:-0.9539726 28:-0.19650421 29:0.49598587 30:-0.91041479 31:-0.74558665 32:-0.76296706 33:-0.20207934 34:-0.76296706 35:-0.94177487 36:-0.42127032 37:-0.34442212 38:-0.51081297 39:-0.03266525 40:0.5960087 41:-0.43654272 42:-0.71983965 43:0.18936558 44:0.47594227 45:-0.60874706 46:-0.54388422 47:-0.62357663 48:0.15800762 49:-0.62357663 50:-0.92918064 51:-0.72500866 52:-0.90749232 53:-0.64038292 54:-0.34631887 55:0.41425635 56:-0.26368371 57:-0.95728056 58:-0.20332906 59:0.46638018 60:-0.90145008 61:-0.75692943 62:-0.77868126 63:-0.20983154 64:-0.77868126 65:-0.94210065 66:-0.57824783 67:-0.58086601 68:-0.54906914 69:-0.22854116 70:0.66182099 71:-0.42298997 72:-0.74620471 73:0.19813944 74:0.28676544 75:-0.63650058 76:-0.56680455 77:-0.6724943 78:0.13919135 79:-0.6724943 80:-0.94798395 81:-0.76696526 82:-0.89699947 83:-0.66003846 84:-0.40381254 85:0.46195789 86:-0.46992302 87:-0.96138155 88:-0.21990188 89:0.40995095 90:-0.90447834 91:-0.77363085 92:-0.80090606 93:-0.20987812 94:-0.80090606 95:-0.88404307 96:-0.57130181 97:-0.82608444 98:-0.62459122 99:-0.32706106 100:0.66806467 101:-0.4004796 102:-0.80304659 103:0.20425198 104:0.05882117 105:-0.70128795 106:-0.65171415 107:-0.64259832 108:0.099202866 109:-0.64259832 110:-0.95467214 111:-0.77674261 112:-0.90028691 113:-0.67267214 114:-0.41196511 115:0.48038893 116:-0.53765851 117:-0.96796453 118:-0.23502847 119:0.3197597 120:-0.9156776 121:-0.78373343 122:-0.81311519 123:-0.17330822 124:-0.81311519 125:-0.46034552 126:-0.1586398 127:-0.66651027 128:-0.12450331 129:0.34609374 130:-0.094000507 131:-0.39321918 132:-0.44555923 133:-0.26244122 134:-0.31032127 135:-0.90923043 136:-0.78420709 137:0.051764207 138:-0.10287813 139:-0.059974283 140:0.087540073 141:-0.17754701 142:-0.083197271 143:-0.69714629 144:-0.72135069 145:-0.1804517 146:-0.2736894 147:-0.16785583 148:0.96478737 149:0.07829145 150:0.077893504 151:-0.37732809 152:-0.11496168 153:-0.64839953 154:-0.40999771 155:-0.55142283 156:0.2494135 157:0.36643287 158:0.17417886 159:-0.83989143 160:-0.76118049 161:0.2862125 162:0.088579758 163:-0.076318898 164:-0.32192068 165:0.29512803 166:0.15690011 167:-0.79444674 168:-0.84742749 169:0.33554924 170:0.00051084073 171:0.18442391 172:0.98176295 173:-0.050410554 174:-0.2041092 175:-0.19374941 176:-0.33371239 177:-0.26609729 178:-0.36684801 179:-0.71340146 180:0.18266343 181:-0.34993807 182:-0.26342831 183:-0.36684801 184:-0.57809608 185:-0.30033003 186:-0.21227257 
5.116652163524919 0 2.83651100853782 0 11.9049416329283 2.664223612495569 20.27743498527632 1:-0.78718781 2:-0.3873499 3:0.4978055 4:0.73444894 5:-0.94859705 6:-0.35872097 7:-0.15075656 8:-0.59885142 9:0.026575227 10:0.75975996 11:-0.6708803 12:-0.82166836 13:0.24109676 14:0.41968764 15:-0.72901519 16:-0.64913461 17:-0.68295191 18:0.17312933 19:-0.68295191 20:-0.63081563 21:-0.88322741 22:-0.5577164 23:-0.86928299 24:-0.67519416 25:-0.17059064 26:0.42167068 27:-0.99803451 28:-0.70579134 29:-0.072954961 30:-0.99081376 31:-0.95197031 32:-0.95564989 33:-0.71195551 34:-0.95564989 35:-0.94862921 36:-0.057041185 37:-0.27825851 38:-0.6254949 39:0.31558294 40:0.64449783 41:-0.65370772 42:-0.8423485 43:0.23229248 44:0.3023418 45:-0.73875795 46:-0.68774441 47:-0.72163265 48:0.14969877 49:-0.72163265 50:-0.70592601 51:-0.91362479 52:-0.55319622 53:-0.87769513 54:-0.69434971 55:-0.14879752 56:0.2180741 57:-0.99822212 58:-0.70859433 59:-0.10994527 60:-0.99036442 61:-0.95575834 62:-0.95955355 63:-0.71905615 64:-0.95955355 65:-0.92583287 66:-0.49994495 67:-0.61719157 68:-0.64018791 69:-0.14640959 70:0.58689513 71:-0.49739386 72:-0.86431572 73:0.22479457 74:0.05293767 75:-0.77417338 76:-0.72449732 77:-0.74394744 78:0.1445622 79:-0.74394744 80:-0.74561427 81:-0.94099784 82:-0.5556062 83:-0.88366058 84:-0.74620599 85:-0.12313423 86:0.033632485 87:-0.99844376 88:-0.71561596 89:-0.17188408 90:-0.99123898 91:-0.96009211 92:-0.96337795 93:-0.72077559 94:-0.96337795 95:-0.8148283 96:-0.69080436 97:-0.84887352 98:-0.65507747 99:-0.45468621 100:0.53382916 101:-0.34628346 102:-0.88220761 103:0.22528007 104:-0.11058576 105:-0.80487708 106:-0.74402507 107:-0.64790746 108:0.16790989 109:-0.64790746 110:-0.75295411 111:-0.95718597 112:-0.58391351 113:-0.88025279 114:-0.78236369 115:-0.1277578 116:-0.017939995 117:-0.99858332 118:-0.72159943 119:-0.24063764 120:-0.99203888 121:-0.95850409 122:-0.96250698 123:-0.69863982 124:-0.96250698 125:-0.77553117 126:-0.32905166 127:-0.59877731 128:-0.064238411 129:0.54002118 130:-0.52482049 131:-0.36692491 132:-0.51607878 133:-0.17631837 134:-0.37751802 135:-0.93147426 136:-0.77582536 137:0.021708832 138:-0.10941676 139:-0.18151485 140:-0.30075157 141:-0.39801145 142:-0.41349631 143:-0.36484789 144:-0.60231947 145:-0.10158718 146:-0.4527737 147:-0.2426011 148:0.99790254 149:0.2089214 150:-0.049084543 151:-0.53790825 152:-0.061646118 153:-0.84482298 154:-0.62433253 155:-0.70786861 156:-0.62510482 157:-0.056211235 158:-0.26363379 159:-0.94644021 160:-0.93860504 161:0.22347264 162:-0.31682433 163:-0.50630755 164:-0.46207331 165:0.32077375 166:-0.32793456 167:-0.51757089 168:-0.67839093 169:0.31842365 170:-0.31665433 171:0.23217348 172:0.84367094 173:-0.083929453 174:-0.37049052 175:-0.70112328 176:-0.74993979 177:-0.73839405 178:-0.42087039 179:-0.86432602 180:0.22649634 181:-0.4722676 182:-0.31905528 183:-0.42087039 184:-0.53406518 185:-0.39933993 186:-0.15233678 
0 0 0 0.4341704501685034 0 0 0 1:0.060968993 2:0.053736465 3:-0.81981019 4:-0.84989027 5:-0.94971921 6:-0.62317245 7:-0.38082718 8:-0.27433799 9:-0.25635102 10:0.69147103 11:-0.45047701 12:-0.6737781 13:-0.048438091 14:0.59360626 15:-0.59498764 16:-0.45777174 17:-0.5113698 18:-0.094013351 19:-0.5113698 20:-0.92731999 21:-0.59018007 22:-0.92374917 23:-0.56817994 24:-0.16122637 25:0.45514247 26:-0.24713056 27:-0.94775175 28:-0.19154458 29:0.52614982 30:-0.89782862 31:-0.71313926 32:-0.73091482 33:-0.20818466 34:-0.73091482 35:-0.97207024 36:-0.21152007 37:-0.45785146 38:-0.29623362 39:0.21673213 40:0.72197848 41:-0.63862852 42:-0.69469582 43:-0.030973143 44:0.54570856 45:-0.56687826 46:-0.48610681 47:-0.55330473 48:-0.12183489 49:-0.55330473 50:-0.95085366 51:-0.64163134 52:-0.92247743 53:-0.58127042 54:-0.20296141 55:0.48737181 56:-0.43343205 57:-0.9511053 58:-0.19376352 59:0.4966501 60:-0.88487491 61:-0.72906046 62:-0.74696542 63:-0.21998094 64:-0.74696542 65:-0.97277849 66:-0.35602198 67:-0.68858195 68:-0.32179505 69:0.0046219926 70:0.77339292 71:-0.55354756 72:-0.72821671 73:-0.0064800954 74:0.33445269 75:-0.58836519 76:-0.53676214 77:-0.60277235 78:-0.14938069 79:-0.60277235 80:-0.96393596 81:-0.68136884 82:-0.92130566 83:-0.59631311 84:-0.27800145 85:0.53202818 86:-0.5755583 87:-0.95622049 88:-0.20590016 89:0.4345113 90:-0.88829369 91:-0.75654656 92:-0.77015054 93:-0.22899432 94:-0.77015054 95:-0.92337354 96:-0.43380764 97:-0.8785805 98:-0.3699953 99:-0.15048548 100:0.72934117 101:-0.54413251 102:-0.77331314 103:-0.028534155 104:0.074742692 105:-0.63485438 106:-0.62547326 107:-0.56318103 108:-0.19929783 109:-0.56318103 110:-0.96545186 111:-0.72146883 112:-0.92591736 113:-0.5973752 114:-0.31620009 115:0.52160534 116:-0.63759395 117:-0.9615251 118:-0.23115554 119:0.33537774 120:-0.89617797 121:-0.76819925 122:-0.78118109 123:-0.213101 124:-0.78118109 125:0.16055406 126:-0.10830571 127:-0.46740313 128:-0.1205298 129:0.0011062077 130:0.20577131 131:-0.23131344 132:0.68484863 133:-0.51420402 134:-0.35066254 135:-0.90080667 136:-0.67806726 137:-0.38499547 138:-0.33909479 139:0.36835914 140:0.066872091 141:-0.013476868 142:0.43505591 143:-0.73836483 144:-0.5566866 145:-0.59098655 146:-0.19129726 147:0.085011064 148:0.98827947 149:-0.19071192 150:0.40817029 151:-0.62832185 152:-0.11962679 153:-0.58986439 154:-0.25846217 155:-0.087399422 156:0.96457093 157:0.44650886 158:-0.079135661 159:-0.79817346 160:-0.60912348 161:0.27846361 162:-0.33326742 163:0.16382192 164:-0.40133084 165:-0.18130572 166:0.42511006 167:-0.79314094 168:-0.80725038 169:0.20230959 170:-0.0015723729 171:-0.070485517 172:0.68704482 173:-0.15946942 174:-0.30177257 175:-0.18962551 176:-0.28668187 177:-0.047533632 178:-0.15995172 179:-0.75333758 180:-0.07096429 181:-0.26659862 182:-0.21085388 183:-0.15995172 184:-0.70660035 185:-0.062706271 186:-0.21155904 
0 0 0 0 0 0 43.09353250709884 1:-0.85151178 2:-0.44854867 3:0.50874777 4:0.82586887 5:-0.90413655 6:-0.76468971 7:-0.20594976 8:-0.38729292 9:-0.46760803 10:0.46252263 11:-0.157489 12:-0.76869565 13:-0.13279973 14:0.46944841 15:-0.69827053 16:-0.55304706 17:-0.61643654 18:-0.15283852 19:-0.61643654 20:-0.90476925 21:-0.68925969 22:-0.91841955 23:-0.59426906 24:-0.33345341 25:0.38490715 26:-0.021724853 27:-0.95116454 28:-0.18583458 29:0.51385738 30:-0.91151959 31:-0.72035504 32:-0.74196811 33:-0.19040609 34:-0.74196811 35:-0.93927392 36:-0.53837787 37:-0.29806454 38:-0.40407943 39:-0.11613889 40:0.50251014 41:-0.45534531 42:-0.78587687 43:-0.12712329 44:0.40893932 45:-0.68653769 46:-0.57194117 47:-0.64892603 48:-0.17403726 49:-0.64892603 50:-0.93776162 51:-0.72604253 52:-0.91598031 53:-0.60513748 54:-0.33108063 55:0.4248439 56:-0.30714528 57:-0.95492651 58:-0.19308325 59:0.49106723 60:-0.89862523 61:-0.7322538 62:-0.75611921 63:-0.20068917 64:-0.75611921 65:-0.94785752 66:-0.60277196 67:-0.59760678 68:-0.40951772 69:-0.23259391 70:0.60748285 71:-0.45015607 72:-0.80070971 73:-0.11398494 74:0.21893438 75:-0.69053862 76:-0.60505031 77:-0.67897611 78:-0.19797319 79:-0.67897611 80:-0.95733022 81:-0.74032176 82:-0.91496451 83:-0.60866927 84:-0.35536625 85:0.48793429 86:-0.52979574 87:-0.95829546 88:-0.20943905 89:0.43524212 90:-0.89555762 91:-0.754796 92:-0.7728843 93:-0.211001 94:-0.7728843 95:-0.88838115 96:-0.55222674 97:-0.85959042 98:-0.44949481 99:-0.28140265 100:0.62575528 101:-0.47054359 102:-0.81044178 103:-0.11674859 104:-0.043289639 105:-0.70270712 106:-0.70521975 107:-0.63074879 108:-0.2385251 109:-0.63074879 110:-0.96270868 111:-0.73448281 112:-0.92831075 113:-0.60446737 114:-0.33815999 115:0.50642532 116:-0.62042608 117:-0.95905437 118:-0.22522424 119:0.33441771 120:-0.89605117 121:-0.77469298 122:-0.78098444 123:-0.194154 124:-0.78098444 125:-0.80613003 126:-0.29546486 127:-0.57499481 128:-0.13046358 129:0.19355339 130:0.2266613 131:-0.44324333 132:-0.50551094 133:-0.20604975 134:-0.029494462 135:-0.86519446 136:-0.74216254 137:-0.19566151 138:-0.0034964143 139:-0.41376737 140:0.0010990186 141:-0.72669937 142:-0.21248831 143:-0.80479475 144:-0.71465163 145:-0.30359054 146:0.05251485 147:0.15311634 148:0.98814355 149:-0.20108877 150:0.37510551 151:-0.52841842 152:-0.12495835 153:-0.63930843 154:-0.45825732 155:-0.50174302 156:0.37243487 157:0.69741653 158:-0.27097212 159:-0.79082576 160:-0.49784296 161:-0.20509552 162:-0.1413839 163:-0.39086822 164:-0.43600855 165:0.52006819 166:-0.0086318032 167:-0.82186004 168:-0.84573224 169:0.22511744 170:-0.16349544 171:-0.14004882 172:0.94423251 173:-0.28149857 174:-0.46968341 175:-0.17844784 176:-0.3004935 177:-0.40158996 178:-0.47764548 179:-0.75392875 180:-0.14215471 181:-0.38917047 182:-0.54706834 183:-0.47764548 184:-0.74185835 185:-0.46534653 186:-0.22226186 
0 0.2909919762608205 0 0 1.464475961982578 5.689619919786335 3.277095831818622 1:-0.56645285 2:-0.29027397 3:-0.079867117 4:-0.00061800953 5:-0.8917583 6:-0.68225234 7:-0.31957166 8:-0.25785849 9:-0.35624348 10:0.51074083 11:-0.29182746 12:-0.58758853 13:-0.17582317 14:0.46626733 15:-0.44779912 16:-0.48645072 17:-0.54840512 18:-0.21528242 19:-0.54840512 20:-0.73026216 21:-0.87250911 22:-0.81998882 23:-0.707393 24:-0.65287535 25:0.020211421 26:0.38784708 27:-0.98567916 28:-0.56684723 29:0.20059114 30:-0.95530636 31:-0.86929207 32:-0.87933881 33:-0.56786057 34:-0.87933881 35:-0.91259694 36:-0.50390398 37:-0.37943052 38:-0.27873817 39:-0.10962127 40:0.4717365 41:-0.3982455 42:-0.60315894 43:-0.16764852 44:0.43618167 45:-0.45919396 46:-0.48078538 47:-0.57947343 48:-0.21926075 49:-0.57947343 50:-0.80109262 51:-0.88996786 52:-0.80912793 53:-0.71668362 54:-0.64249785 55:0.064013072 56:0.13464087 57:-0.98617781 58:-0.56845639 59:0.18827865 60:-0.95439254 61:-0.86997571 62:-0.88570313 63:-0.57135557 64:-0.88570313 65:-0.91663537 66:-0.63010895 67:-0.55849211 68:-0.33113485 69:-0.2984884 70:0.55912933 71:-0.33948419 72:-0.63299755 73:-0.14913574 74:0.34285297 75:-0.51376225 76:-0.46383569 77:-0.63509312 78:-0.21720303 79:-0.63509312 80:-0.86008823 81:-0.89775888 82:-0.77262127 83:-0.7330666 84:-0.64540759 85:0.14814599 86:-0.13806484 87:-0.98707104 88:-0.57270535 89:0.17502218 90:-0.95784643 91:-0.8713386 92:-0.8975191 93:-0.57409112 94:-0.8975191 95:-0.85054422 96:-0.56377239 97:-0.78485131 98:-0.43911874 99:-0.32047532 100:0.62768435 101:-0.3864171 102:-0.69480078 103:-0.1326288 104:0.18816331 105:-0.57822969 106:-0.53712808 107:-0.62459474 108:-0.23979013 109:-0.62459474 110:-0.89068696 111:-0.89054609 112:-0.74106798 113:-0.75487925 114:-0.61096149 115:0.1956295 116:-0.32917707 117:-0.98864403 118:-0.57483236 119:0.10500442 120:-0.96142447 121:-0.87516769 122:-0.90928643 123:-0.56845453 124:-0.90928643 125:-0.17120063 126:-0.062702214 127:-0.72848638 128:-0.31456954 129:0.19543823 130:0.1327481 131:-0.31428482 132:-0.31277366 133:-0.42102241 134:-0.20833491 135:-0.86219898 136:-0.7764455 137:0.18634242 138:0.16510869 139:-0.014594432 140:-0.21263541 141:-0.06567638 142:0.47243348 143:-0.54634355 144:-0.5526163 145:-0.38842443 146:-0.170813 147:0.19074808 148:0.97354852 149:-0.26457594 150:0.3856041 151:-0.73850284 152:-0.3128957 153:-0.76599885 154:-0.24312126 155:-0.58780729 156:-0.052139698 157:0.092664248 158:0.0063080801 159:-0.84119283 160:-0.86127338 161:0.35880863 162:-0.033531706 163:0.15279831 164:0.49851244 165:0.36980823 166:0.35968709 167:-0.7094241 168:-0.80472787 169:-0.026204662 170:0.13462111 171:-0.19487426 172:0.656775 173:-0.26832802 174:-0.29611166 175:-0.56342772 176:-0.56159702 177:-0.75090946 178:-0.56431275 179:-0.74344684 180:-0.19397449 181:-0.30972237 182:-0.65699572 183:-0.56431275 184:-0.47064549 185:-0.46534653 186:-0.41919372 
0 0 0 0 0 0 16.22346172251186 1:-0.76020361 2:-0.35928267 3:-0.079867117 4:0.048861702 5:-0.8984751 6:-0.70585418 7:-0.20795151 8:-0.36660274 9:-0.38803165 10:0.50333356 11:-0.24995323 12:-0.6731393 13:-0.152094 14:0.44524338 15:-0.5738628 16:-0.54611397 17:-0.61321606 18:-0.18525238 19:-0.61321606 20:-0.93942104 21:-0.47813311 22:-0.94316556 23:-0.46241471 24:-0.050183279 25:0.56070291 26:-0.30442646 27:-0.88250862 28:-0.11998908 29:0.62084138 30:-0.80530638 31:-0.61750663 32:-0.64661056 33:-0.14079361 34:-0.64661056 35:-0.93376562 36:-0.35314162 37:-0.26062863 38:-0.3966562 39:0.050445545 40:0.55549817 41:-0.50587692 42:-0.68865068 43:-0.15012328 44:0.39203423 45:-0.56475337 46:-0.56666849 47:-0.66167885 48:-0.22550359 49:-0.66167885 50:-0.95861077 51:-0.5285906 52:-0.93803477 53:-0.48488747 54:-0.083696385 55:0.58786757 56:-0.49299033 57:-0.88839812 58:-0.12878438 59:0.59319749 60:-0.78887364 61:-0.63409253 62:-0.67520383 63:-0.16527347 64:-0.67520383 65:-0.93525744 66:-0.50499408 67:-0.50530732 68:-0.45111444 69:-0.15970854 70:0.61754686 71:-0.43901655 72:-0.73307187 73:-0.15114149 74:0.21543041 75:-0.61799209 76:-0.59727449 77:-0.72648194 78:-0.25912257 79:-0.72648194 80:-0.97006489 81:-0.5964944 82:-0.9271232 83:-0.51976899 84:-0.18769553 85:0.62470061 86:-0.6200279 87:-0.90304045 88:-0.15186268 89:0.54287889 90:-0.80638314 91:-0.6624545 92:-0.71807822 93:-0.18860538 94:-0.71807822 95:-0.85017592 96:-0.51705147 97:-0.80218686 98:-0.55597089 99:-0.25372926 100:0.59331627 101:-0.53165616 102:-0.796661 103:-0.15371189 104:-0.077004666 105:-0.69117045 106:-0.71625714 107:-0.71461741 108:-0.2857898 109:-0.71461741 110:-0.97237772 111:-0.62125928 112:-0.92874616 113:-0.55899685 114:-0.19741161 115:0.61957295 116:-0.71259672 117:-0.92063217 118:-0.16735923 119:0.4327657 120:-0.83132066 121:-0.69994147 122:-0.7534508 123:-0.17749296 124:-0.7534508 125:-0.5822255 126:-0.29934365 127:-0.40270982 128:-0.16291391 129:-0.034444107 130:0.16610756 131:-0.26789153 132:0.21429532 133:-0.15283723 134:0.20190373 135:-0.51062289 136:-0.3239022 137:0.58566851 138:0.38062524 139:-0.31035297 140:-0.37338632 141:-0.24208193 142:0.23508856 143:-0.83029537 144:-0.75908765 145:-0.46540473 146:-0.21132302 147:0.17471774 148:0.98768068 149:-0.22334789 150:0.35318833 151:-0.58548375 152:-0.15761413 153:-0.62250442 154:-0.28130912 155:-0.13771488 156:0.26018334 157:0.047060885 158:0.14763131 159:-0.77871344 160:-0.78003339 161:0.050579847 162:0.29944361 163:-0.11424478 164:-0.1552338 165:0.31028936 166:0.13495505 167:-0.85555127 168:-0.88156115 169:0.10896958 170:-0.044966428 171:-0.1544954 172:0.94181026 173:-0.28256287 174:-0.3813497 175:-0.11449669 176:-0.1707032 177:-0.29937633 178:-0.43307362 179:-0.69212392 180:-0.16188464 181:-0.38452676 182:-0.50004556 183:-0.43307362 184:-0.67677037 185:-0.44554455 186:-0.2572244 
