svm_type c_svc
kernel_type rbf
gamma 0.0078125
nr_class 6
total_sv 145
rho 0.81292 0.383633 0.0343452 1.01475 0.0708963 -0.472835 -3.8969 -0.893684 1.86609 0.0115571 0.693886 1.2218 0.757354 0.768378 0.34194
label 5 2 4 1 6 3
probA -2.72871 -3.05427 -2.66058 -2.31818 -2.73868 -2.75969 -1.88951 -3.38694 -1.56112 -2.60473 -3.17738 -1.9233 -2.27296 -2.68737 -3.42638
probB -0.030674 0.0551993 -0.0232764 0.0442757 -0.226554 0.0601623 -0.0380154 0.105364 0.0825072 0.146932 0.0201841 -0.0540805 -0.177832 0.0849702 0.0700075
nr_sv 15 19 32 20 37 22
SV
0 0 0 6.063654045857211 0 1:-0.80021201 2:-0.81444525 3:-0.71836793 4:-0.38768148 5:-0.63858528 6:0.45830642 7:0.31940826 8:-0.77576458 9:-0.11656078 10:0.66411699 11:-0.75580634 12:-0.39573912 13:-0.40924575 14:-0.11218771 15:-0.40924575 16:-0.8251679 17:-0.32406454 18:-0.92010049 19:-0.34619934 20:-0.11396561 21:0.47415014 22:-0.006875152 23:-0.87527209 24:-0.25526277 25:0.56983801 26:-0.81736122 27:-0.4539504 28:-0.46872715 29:-0.25739632 30:-0.46872715 31:-0.84151525 32:-0.74243851 33:-0.76063448 34:-0.38727921 35:-0.46851377 36:0.49145283 37:-0.017260338 38:-0.77447344 39:-0.11186515 40:0.66846151 41:-0.7369142 42:-0.39540052 43:-0.39923532 44:-0.10351786 45:-0.39923532 46:-0.85964632 47:-0.48930976 48:-0.91635313 49:-0.35024995 50:-0.12598433 51:0.46747854 52:-0.2452439 53:-0.87812467 54:-0.25378077 55:0.56953464 56:-0.81125355 57:-0.46558219 58:-0.47805627 59:-0.25884172 60:-0.47805627 61:-0.87016161 62:-0.61343355 63:-0.83241482 64:-0.38776798 65:-0.26154051 66:0.52828283 67:-0.53818143 68:-0.77155591 69:-0.10520941 70:0.62270929 71:-0.69674632 72:-0.40075371 73:-0.37885303 74:-0.09829999 75:-0.37885303 76:-0.90072826 77:-0.57190174 78:-0.91059629 79:-0.34849244 80:-0.12312279 81:0.48589086 82:-0.50511339 83:-0.88178567 84:-0.25088939 85:0.54989188 86:-0.79555522 87:-0.48577627 88:-0.49302293 89:-0.26453304 90:-0.49302293 91:-0.88352426 92:-0.60499108 93:-0.86595733 94:-0.39107659 95:-0.18625429 96:0.58913771 97:-0.67345724 98:-0.78351154 99:-0.10631691 100:0.53490974 101:-0.66120478 102:-0.40407788 103:-0.37415526 104:-0.11765816 105:-0.37415526 106:-0.93105108 107:-0.59457954 108:-0.88896256 109:-0.34238616 110:-0.097430856 111:0.54101785 112:-0.70063657 113:-0.88865851 114:-0.24660099 115:0.49888115 116:-0.77848112 117:-0.51562019 118:-0.5286939 119:-0.2836807 120:-0.5286939 121:-0.8024446 122:-0.59178755 123:0.42809843 124:0.21826661 125:-0.26769082 126:-0.77162087 127:0.23352343 128:0.19310559 129:-0.77960411 130:-0.87959756 131:0.097056279 132:0.090744035 133:0.31007745 134:0.34391738 135:-0.50716052 136:-0.4261868 137:-0.72458294 138:-0.72014072 139:0.042250534 140:0.11276816 141:0.11386898 142:0.99590321 143:-0.1191786 144:0.38941228 145:-0.93033827 146:-0.71911329 147:-0.61736406 148:-0.11727161 149:-0.58296708 150:-0.36000909 151:-0.67799945 152:-0.094169104 153:-0.90079737 154:-0.91097309 155:0.034355393 156:-0.13809899 157:-0.63773818 158:-0.45010634 159:-0.062202811 160:-0.04629126 161:-0.71468755 162:-0.92791934 163:0.094857594 164:0.094733332 165:-0.11603806 166:0.084919662 167:-0.02256284 168:-0.17273561 169:-0.25234513 170:-0.048218702 171:-0.85294078 172:-0.84060904 173:-0.19538893 174:-0.11462252 175:-0.11754721 176:-0.92226473 177:-0.84060904 178:0.018228323 
0 0.811416302783811 0 0 0 1:-0.77813962 2:-0.73723499 3:-0.75881942 4:-0.48604657 5:-0.52142808 6:0.5454384 7:0.14890685 8:-0.72606238 9:0.34183277 10:0.68835019 11:-0.70348711 12:-0.30685777 13:-0.3306906 14:0.33848999 15:-0.3306906 16:-0.80083904 17:-0.19529503 18:-0.92291975 19:-0.458038 20:0.057578243 21:0.48418456 22:-0.20246157 23:-0.8762496 24:-0.036583682 25:0.5420467 26:-0.81610618 27:-0.43994491 28:-0.45460883 29:-0.037861285 30:-0.45460883 31:-0.77416363 32:-0.66158177 33:-0.7961399 34:-0.48343179 35:-0.41706818 36:0.53537998 37:0.023116528 38:-0.72623781 39:0.33552596 40:0.68456321 41:-0.68920542 42:-0.30429608 43:-0.31667219 44:0.35185389 45:-0.31667219 46:-0.80492643 47:-0.46742304 48:-0.92119423 49:-0.45676078 50:-0.14448752 51:0.44489966 52:-0.15872403 53:-0.87942711 54:-0.03909773 55:0.53917176 56:-0.81293424 57:-0.44769347 58:-0.45741636 59:-0.034808089 60:-0.45741636 61:-0.79602025 62:-0.52306694 63:-0.86014945 64:-0.47866797 65:-0.23821965 66:0.55804936 67:-0.33281206 68:-0.72251519 69:0.32349972 70:0.64743903 71:-0.64444101 72:-0.30358054 73:-0.28859608 74:0.36336014 75:-0.28859608 76:-0.84824737 77:-0.55002637 78:-0.91672854 79:-0.45287901 80:-0.1612666 81:0.46413664 82:-0.32367041 83:-0.88206503 84:-0.042998922 85:0.52714937 86:-0.79573679 87:-0.46303762 88:-0.46883972 89:-0.035916026 90:-0.46883972 91:-0.83153301 92:-0.50212337 93:-0.89380674 94:-0.48183967 95:-0.15542043 96:0.64317158 97:-0.47999448 98:-0.73209277 99:0.30646947 100:0.58072823 101:-0.59628794 102:-0.30761952 103:-0.27641043 104:0.37308181 105:-0.27641043 106:-0.90123465 107:-0.56036232 108:-0.90388383 109:-0.44322813 110:-0.12244427 111:0.53976624 112:-0.54897186 113:-0.88534813 114:-0.04307089 115:0.48994192 116:-0.77194138 117:-0.49219532 118:-0.49465335 119:-0.041142554 120:-0.49465335 121:-0.90678494 122:-0.56447222 123:0.50537497 124:0.27883156 125:-0.0071650442 126:-0.72323639 127:0.38551473 128:0.45916798 129:-0.7297579 130:-0.90793864 131:0.1700155 132:0.40911983 133:0.070994385 134:-0.51157127 135:0.12258462 136:-0.45669983 137:-0.65139819 138:-0.56097491 139:0.5361781 140:0.046723955 141:-0.36312694 142:0.93471402 143:0.43523507 144:-0.17088263 145:-0.64790959 146:-0.68387609 147:-0.53528121 148:-0.2897509 149:-0.7559343 150:-0.57059596 151:0.40379753 152:-0.035508289 153:-0.8483162 154:-0.70818877 155:-0.080219005 156:0.35275156 157:-0.47702521 158:-0.33125508 159:0.63632995 160:0.2566928 161:-0.55073844 162:-0.38408752 163:0.50647265 164:0.11000494 165:0.3502224 166:0.92692671 167:0.28308921 168:0.068957519 169:-0.030999613 170:-0.039622156 171:-0.58982437 172:-0.80410955 173:-0.12318053 174:0.35002482 175:-0.022047103 176:-0.77064197 177:-0.80410955 178:0.16872456 
0 0 0 0 6.928962011956051 1:-0.83041618 2:-0.78079399 3:-0.85033517 4:-0.12065352 5:-0.60751807 6:0.58510228 7:0.31257136 8:-0.58529876 9:0.041869092 10:0.79488466 11:-0.55534518 12:-0.033137605 13:-0.068093602 14:0.044360027 15:-0.068093602 16:-0.93247713 17:0.30201218 18:-0.97607534 19:0.022350274 20:0.49819457 21:0.79799036 22:-0.55020852 23:-0.5893105 24:0.14371568 25:0.8097119 26:-0.51392252 27:0.14423805 28:0.1163299 29:0.13636228 30:0.1163299 31:-0.87930897 32:-0.58468134 33:-0.87600036 34:-0.1112819 35:-0.33934458 36:0.66285687 37:-0.068123929 38:-0.57896586 39:0.047607455 40:0.78895319 41:-0.52348596 42:-0.026310657 43:-0.046097613 44:0.049256817 45:-0.046097613 46:-0.94728711 47:0.017685247 48:-0.9755231 49:0.032649855 50:0.37197416 51:0.78734181 52:-0.6380324 53:-0.59054654 54:0.14421437 55:0.81458048 56:-0.49224993 57:0.13536455 58:0.11328327 59:0.13388083 60:0.11328327 61:-0.91544629 62:-0.28089065 63:-0.91807471 64:-0.092199779 65:0.030782903 66:0.74754804 67:-0.63256351 68:-0.56235292 69:0.059513799 70:0.76500655 71:-0.4501423 72:-0.014522162 73:-0.0030223176 74:0.045769439 75:-0.0030223176 76:-0.96806288 77:-0.051949635 78:-0.97469486 79:0.057834343 80:0.38528228 81:0.81411644 82:-0.80095058 83:-0.58322753 84:0.14745938 85:0.80211605 86:-0.43019929 87:0.11615715 88:0.10539 89:0.12166489 90:0.10539 91:-0.94804808 92:-0.15303727 93:-0.93776573 94:-0.056195493 95:0.25507998 96:0.84782034 97:-0.83341497 98:-0.53938071 99:0.084941581 100:0.73607195 101:-0.34263165 102:-0.011614308 103:0.021675432 104:0.0022247632 105:0.021675432 106:-0.98211824 107:0.030448583 108:-0.96915325 109:0.11698399 110:0.50467529 111:0.88026002 112:-0.93339167 113:-0.55626962 114:0.16450746 115:0.77575903 116:-0.32676886 117:0.067585648 118:0.070590807 119:0.084833734 120:0.070590807 121:-0.82761075 122:-0.61562151 123:0.25771858 124:0.47224926 125:-0.44378493 126:-0.65769976 127:0.52924305 128:0.63097718 129:-0.76984402 130:-0.82184499 131:-0.019247477 132:-0.10484956 133:0.53311744 134:0.53150027 135:0.096752761 136:-0.032670568 137:-0.70962251 138:-0.68821081 139:0.21966478 140:0.44519033 141:-0.047859143 142:0.99564085 143:-0.15862063 144:0.57026069 145:-0.89605958 146:-0.74453029 147:-0.25998066 148:0.20665305 149:-0.40400119 150:-0.26903604 151:-0.36259209 152:0.55309429 153:-0.78319209 154:-0.75257657 155:0.17382084 156:-0.48258554 157:-0.44514751 158:-0.23195659 159:-0.063911032 160:0.64888234 161:-0.78076251 162:-0.95131103 163:0.35033964 164:0.59507421 165:0.044987682 166:0.14901829 167:0.2885877 168:0.15431131 169:0.14760292 170:0.46042855 171:-0.61780781 172:-0.81496754 173:0.41109663 174:0.037175164 175:0.23616387 176:-0.92619535 177:-0.81496754 178:0.50870701 
0 13.8560863302115 0 0 4.734133707153488 1:-0.84952154 2:-0.84795702 3:-0.80867505 4:-0.33222386 5:-0.68711806 6:0.55332693 7:0.38677699 8:-0.6770493 9:0.208492 10:0.85652022 11:-0.68147865 12:-0.17257834 13:-0.20351704 14:0.21922817 15:-0.20351704 16:-0.9359346 17:0.081061699 18:-0.97063364 19:-0.059909362 20:0.31655555 21:0.79925614 22:-0.42078432 23:-0.65153457 24:0.10900959 25:0.85589743 26:-0.62123926 27:0.032618607 28:0.0090517937 29:0.10502045 30:0.0090517937 31:-0.88331614 32:-0.79083009 33:-0.8408916 34:-0.32552365 35:-0.54765959 36:0.58962705 37:0.12323408 38:-0.67461867 39:0.20728081 40:0.84696311 41:-0.66134467 42:-0.16824355 43:-0.18254051 44:0.23135247 45:-0.18254051 46:-0.94770045 47:-0.2473538 48:-0.97015611 49:-0.051013494 50:0.15359745 51:0.76638428 52:-0.50879772 53:-0.6560808 54:0.10831326 55:0.8614876 56:-0.60742698 57:0.02279805 58:0.008080942 59:0.10582285 60:0.008080942 61:-0.90893064 62:-0.61999144 63:-0.89191178 64:-0.31374885 65:-0.28861799 66:0.64889984 67:-0.47962196 68:-0.6642933 69:0.20434763 70:0.81536922 71:-0.60307805 72:-0.15422305 73:-0.14308942 74:0.2401764 75:-0.14308942 76:-0.9657636 77:-0.34946745 78:-0.96843136 79:-0.033321871 80:0.14819282 81:0.77381556 82:-0.72165463 83:-0.65565474 84:0.1076971 85:0.84648917 86:-0.55857262 87:0.0068043829 88:-0.00078413603 89:0.099736077 90:-0.00078413603 91:-0.93600633 92:-0.51241728 93:-0.91497122 94:-0.29701942 95:-0.086630546 96:0.76695207 97:-0.74187661 98:-0.65591939 99:0.20343427 100:0.7323024 101:-0.51419387 102:-0.13491499 103:-0.11460779 104:0.23132572 105:-0.11460779 106:-0.97949747 107:-0.30485479 108:-0.9601907 109:0.016299615 110:0.23625091 111:0.84511762 112:-0.88141272 113:-0.6443911 114:0.11526779 115:0.78854883 116:-0.46997961 117:-0.020827926 118:-0.027020993 119:0.077208052 120:-0.027020993 121:-0.86335536 122:-0.55322473 123:0.40132989 124:0.38977159 125:0.2817513 126:0.61002937 127:0.18953698 128:0.54732067 129:-0.67568485 130:-0.8318514 131:0.13638696 132:0.15920036 133:0.29634747 134:-0.35603689 135:-0.024871446 136:-0.16854044 137:-0.8151927 138:-0.90762467 139:0.38673855 140:0.27693342 141:-0.21973831 142:0.97110189 143:0.15634734 144:0.21188014 145:-0.82009067 146:-0.67463355 147:-0.47826866 148:0.0039496578 149:-0.81359254 150:-0.59574201 151:0.050829238 152:0.12255233 153:-0.87414987 154:-0.84448747 155:0.18509203 156:-0.36235261 157:-0.61361295 158:-0.47805485 159:0.44724203 160:0.43091781 161:-0.72166901 162:-0.95759592 163:0.58463304 164:0.51263147 165:0.21619629 166:0.63749463 167:0.28135035 168:0.093065671 169:0.11250094 170:0.38301744 171:-0.53742548 172:-0.78007825 173:0.041785858 174:0.20981832 175:0.10784892 176:-0.82430118 177:-0.78007825 178:0.14408234 
1.030863534534784 0 0 35.25725113316463 4.679196907153303 1:-0.70682366 2:-0.80817921 3:-0.62740235 4:-0.65421729 5:-0.62497841 6:0.34255062 7:0.2955462 8:-0.79523015 9:0.30721694 10:0.51115101 11:-0.84296047 12:-0.52119603 13:-0.537484 14:0.31307222 15:-0.537484 16:-0.87677662 17:0.20067124 18:-0.93369223 19:-0.49792097 20:0.45214164 21:0.65385426 22:-0.55354279 23:-0.79061992 24:0.19700666 25:0.62669845 26:-0.79057339 27:-0.38241476 28:-0.39483042 29:0.19185331 30:-0.39483042 31:-0.71722337 32:-0.7279794 33:-0.67551714 34:-0.65435738 35:-0.4927638 36:0.35428199 37:0.077729361 38:-0.79854562 39:0.28601584 40:0.50432551 41:-0.82796415 42:-0.52777442 43:-0.53603869 44:0.30749447 45:-0.53603869 46:-0.877599 47:-0.19201709 48:-0.92895753 49:-0.50752057 50:0.1852388 51:0.60354146 52:-0.5115522 53:-0.80062965 54:0.18339815 55:0.62182877 56:-0.78586794 57:-0.4025623 58:-0.41431256 59:0.18255927 60:-0.41431256 61:-0.71884981 62:-0.55740408 63:-0.75444588 64:-0.67106544 65:-0.34148014 66:0.35685735 67:-0.17448214 68:-0.81587478 69:0.24682626 70:0.44700683 71:-0.80763816 72:-0.55533201 73:-0.54730471 74:0.2924447 75:-0.54730471 76:-0.88970262 77:-0.32847887 78:-0.91666904 79:-0.53530122 80:0.063615292 81:0.57403362 82:-0.51246198 83:-0.82430931 84:0.15864771 85:0.58794355 86:-0.77901239 87:-0.44941925 88:-0.46636465 89:0.16247644 90:-0.46636465 91:-0.68095068 92:-0.57018176 93:-0.80372287 94:-0.70923648 95:-0.31964102 96:0.3541005 97:-0.26743827 98:-0.86937061 99:0.19002044 100:0.32220983 101:-0.81737789 102:-0.60529083 103:-0.58417821 104:0.27377253 105:-0.58417821 106:-0.90341886 107:-0.40166121 108:-0.8933935 109:-0.58004189 110:-0.0032708242 111:0.56933129 112:-0.58569165 113:-0.87226451 114:0.12828881 115:0.50546819 116:-0.79459442 117:-0.52681463 118:-0.54983543 119:0.13697683 120:-0.54983543 121:-0.82155347 122:-0.75032359 123:-0.1383657 124:-0.18766504 125:0.13613089 126:-0.20402767 127:0.30615454 128:0.41365853 129:-0.42685623 130:-0.63808816 131:0.38650828 132:0.16493754 133:0.066929872 134:-0.33777543 135:-0.099014673 136:-0.37036859 137:-0.71718151 138:-0.54674416 139:0.50946875 140:-0.1132572 141:-0.34028789 142:0.93785073 143:0.57098187 144:-0.38197394 145:-0.62850069 146:-0.84590945 147:-0.37703834 148:-0.15757907 149:-0.19268671 150:0.67310726 151:0.61385556 152:-0.49288773 153:-0.75723283 154:-0.57101214 155:0.093361944 156:0.41279589 157:-0.31948098 158:-0.38223274 159:0.62511219 160:-0.055173596 161:-0.58157705 162:-0.40021395 163:0.48611687 164:-0.16356496 165:0.33443285 166:0.61808841 167:0.15964199 168:-0.12314925 169:0.21385523 170:0.035785878 171:-0.64467557 172:-0.98302129 173:0.069902084 174:0.33313022 175:-0.25362344 176:-0.86793298 177:-0.98302129 178:0.14118238 
0 14.02577940800499 0 0 0 1:-0.82353991 2:-0.62851943 3:-0.78658067 4:-0.3367541 5:-0.38858627 6:0.62821715 7:-0.0068139697 8:-0.61380711 9:0.11304151 10:0.64968099 11:-0.52846414 12:-0.23519599 13:-0.26543893 14:0.096044885 15:-0.26543893 16:-0.85457996 17:0.27930542 18:-0.93969564 19:-0.50765323 20:0.50443585 21:0.61159829 22:-0.58346529 23:-0.79493235 24:0.34096425 25:0.56549971 26:-0.6826064 27:-0.32475201 28:-0.34536093 29:0.33774877 30:-0.34536093 31:-0.83787624 32:-0.42393898 33:-0.81685852 34:-0.3337639 35:-0.17460393 36:0.63354765 37:-0.22739019 38:-0.60893156 39:0.10318446 40:0.64678736 41:-0.51381875 42:-0.23578296 43:-0.25699618 44:0.092058637 45:-0.25699618 46:-0.86716873 47:-0.12357452 48:-0.9369859 49:-0.50823106 50:0.236514 51:0.57721469 52:-0.52336346 53:-0.79596422 54:0.32829717 55:0.56943391 56:-0.67785665 57:-0.33482037 58:-0.35464371 59:0.33106109 60:-0.35464371 61:-0.83495041 62:-0.22367567 63:-0.8650171 64:-0.34591617 65:0.011035346 66:0.61321096 67:-0.43778467 68:-0.60329221 69:0.084442554 70:0.61419466 71:-0.4848602 72:-0.24758695 73:-0.25755193 74:0.075057648 75:-0.25755193 76:-0.88652261 77:-0.28396758 78:-0.92961612 79:-0.51740631 80:0.09694795 81:0.56146868 82:-0.4825201 83:-0.79715055 84:0.30607359 85:0.55632822 86:-0.66545245 87:-0.36119113 88:-0.38689285 89:0.31921482 90:-0.38689285 91:-0.82696301 92:-0.25500582 93:-0.87834988 94:-0.40757746 95:0.017358405 96:0.62598898 97:-0.42678502 98:-0.63656865 99:0.051590234 100:0.54746274 101:-0.4886886 102:-0.29878846 103:-0.33135876 104:0.021760728 105:-0.33135876 106:-0.9133271 107:-0.32634838 108:-0.90423754 109:-0.56320587 110:0.071896757 111:0.59425491 112:-0.56286052 113:-0.81065204 114:0.2774354 115:0.51623363 116:-0.66685384 117:-0.42867876 118:-0.47935605 119:0.29731843 120:-0.47935605 121:-0.87603209 122:-0.728632 123:-0.16727716 124:0.47108219 125:-0.10494669 126:-0.4223345 127:0.54699654 128:0.41045894 129:-0.5155671 130:-0.50130307 131:0.18766315 132:-0.33181144 133:-0.16439232 134:-0.79559498 135:0.31008054 136:0.071480444 137:-0.42457585 138:-0.53600655 139:0.28628413 140:0.33813114 141:-0.14186294 142:0.96452728 143:0.10470069 144:0.090063418 145:-0.8396997 146:-0.86323922 147:-0.36323761 148:0.18386291 149:-0.44542818 150:-0.096485165 151:-0.1977927 152:-0.038229671 153:-0.81470711 154:-0.41976385 155:0.34975547 156:-0.76499347 157:-0.46772809 158:-0.40139944 159:0.48123191 160:0.50054662 161:-0.49567118 162:-0.61190483 163:0.39303401 164:0.51126567 165:0.12544619 166:0.883857 167:0.19741465 168:0.10733689 169:0.35739737 170:0.082834499 171:-0.58485568 172:-0.98748376 173:0.16109743 174:0.12265071 175:0.044617634 176:-0.93499992 177:-0.98748376 178:0.018347705 
0.8065851181655971 0 18.56463149878824 7.430799149706694 0 1:-0.84403099 2:-0.31268167 3:-0.72082785 4:-0.39233059 5:-0.034108201 6:0.74533989 7:-0.37047358 8:-0.66962365 9:-0.055307041 10:0.55780563 11:-0.5648148 12:-0.3900245 13:-0.41073316 14:-0.10552816 15:-0.41073316 16:-0.59602764 17:-0.37116561 18:-0.76792998 19:-0.73972322 20:-0.1267351 21:0.081079758 22:-0.024661453 23:-0.97244653 24:-0.38831877 25:0.061119164 26:-0.92856445 27:-0.79155013 28:-0.79641652 29:-0.39304958 30:-0.79641652 31:-0.80634616 32:-0.26150723 33:-0.76046892 34:-0.39372718 35:0.011624789 36:0.61388283 37:-0.41826327 38:-0.67069962 39:-0.060307518 40:0.54984123 41:-0.5668434 42:-0.38757635 43:-0.40041529 44:-0.092079516 45:-0.40041529 46:-0.59094342 47:-0.68578232 48:-0.75754112 49:-0.74277081 50:-0.41329922 51:0.019713067 52:0.11224378 53:-0.97308858 54:-0.39175352 55:0.063466447 56:-0.92993733 57:-0.79414473 58:-0.79948898 59:-0.39011534 60:-0.79948898 61:-0.76470389 62:-0.3569308 63:-0.82495875 64:-0.40574025 65:-0.076201663 66:0.50375567 67:-0.4664333 68:-0.6746254 69:-0.071751837 70:0.51654988 71:-0.56207925 72:-0.38803735 73:-0.39014238 74:-0.083918314 75:-0.39014238 76:-0.63130639 77:-0.79204736 78:-0.73588147 79:-0.744601 80:-0.52102897 81:0.0083762448 82:0.08336234 83:-0.9740569 84:-0.3976426 85:0.057059109 86:-0.93029135 87:-0.8005383 88:-0.80788223 89:-0.38802482 90:-0.80788223 91:-0.76068514 92:-0.48788844 93:-0.84605795 94:-0.46091082 95:-0.20466304 96:0.51049167 97:-0.33190598 98:-0.71595096 99:-0.088491712 100:0.4512412 101:-0.5877065 102:-0.40909584 103:-0.43083508 104:-0.091543334 105:-0.43083508 106:-0.7072318 107:-0.82076126 108:-0.6651632 109:-0.76609112 110:-0.54275276 111:0.063475212 112:-0.037244801 113:-0.97696007 114:-0.40197978 115:0.042015002 116:-0.93417089 117:-0.81539275 118:-0.83325246 119:-0.38245964 120:-0.83325246 121:-0.85710245 122:-0.60490962 123:0.57220977 124:-0.050451833 125:0.079681027 126:-0.19339716 127:0.72488961 128:0.53657991 129:-0.79652907 130:-0.92026229 131:0.2182963 132:0.15426627 133:-0.092543562 134:-0.44412752 135:-0.094477687 136:-0.24912197 137:-0.065759493 138:-0.27988563 139:-0.091322762 140:-0.15889985 141:0.025944943 142:0.96800853 143:-0.0011368832 144:0.13599504 145:-0.73778466 146:-0.73008882 147:-0.80231729 148:-0.44924201 149:-0.23746725 150:-0.10232512 151:0.040290904 152:0.16363632 153:-0.92739803 154:-0.94199183 155:0.26039094 156:-0.043629537 157:-0.34583695 158:-0.39919356 159:0.53374886 160:0.30003041 161:-0.118665 162:-0.30383845 163:0.055932225 164:0.020672898 165:-0.058962337 166:0.70473739 167:0.011487261 168:-0.038043112 169:-0.38056618 170:-0.48772708 171:-0.87618389 172:-0.85018267 173:-0.42777716 174:-0.058718021 175:-0.084541169 176:-0.89485237 177:-0.85018267 178:-0.11201539 
8.832763587538871 17.24749042611488 5.864966895749053 8.22076872452376 4.234053695388296 1:-0.6925992 2:-0.44918732 3:-0.70674477 4:-0.47122002 5:-0.19377365 6:0.47792326 7:-0.18281167 8:-0.68326158 9:0.056573148 10:0.38363308 11:-0.5624756 12:-0.41724524 13:-0.43575568 14:0.021547086 15:-0.43575568 16:-0.49479587 17:-0.45605125 18:-0.79668104 19:-0.70411085 20:-0.24988294 21:0.025519348 22:0.12291839 23:-0.96440322 24:-0.37563261 25:0.037598139 26:-0.91098805 27:-0.76495674 28:-0.76893284 29:-0.3772968 30:-0.76893284 31:-0.67970182 32:-0.31757242 33:-0.74449318 34:-0.47287256 35:-0.059646305 36:0.40891838 37:-0.33749563 38:-0.68072356 39:0.050478772 40:0.36869346 41:-0.55595481 42:-0.41526193 43:-0.42961905 44:0.027952275 45:-0.42961905 46:-0.51460398 47:-0.6533036 48:-0.78530061 49:-0.70831115 50:-0.37829195 51:-0.0016827079 52:0.083278182 53:-0.96489034 54:-0.37830835 55:0.033413627 56:-0.91087555 57:-0.7682311 58:-0.77390709 59:-0.37762068 60:-0.77390709 61:-0.64337047 62:-0.34897729 63:-0.8150019 64:-0.48151598 65:-0.11483661 66:0.32732503 67:-0.37267499 68:-0.67897513 69:0.038230541 70:0.33281214 71:-0.54748743 72:-0.41266879 73:-0.41679286 74:0.039780013 75:-0.41679286 76:-0.5602831 77:-0.75346657 78:-0.76600798 79:-0.71069335 80:-0.47843151 81:-0.0069583731 82:0.06539823 83:-0.96557249 84:-0.38269589 85:0.025537517 86:-0.9105031 87:-0.77419756 88:-0.78311717 89:-0.37563199 90:-0.78311717 91:-0.6018434 92:-0.47276726 93:-0.83961509 94:-0.53250621 95:-0.23337041 96:0.33174225 97:-0.22405188 98:-0.71118129 99:0.015569177 100:0.30262708 101:-0.57341698 102:-0.42739394 103:-0.45445703 104:0.041362986 105:-0.45445703 106:-0.64113473 107:-0.78388825 108:-0.703079 109:-0.73504593 110:-0.4968243 111:0.045994685 112:-0.066151351 113:-0.9687479 114:-0.38623756 115:0.026130651 116:-0.91531983 117:-0.79039081 118:-0.81222521 119:-0.37260261 120:-0.81222521 121:-0.87195622 122:-0.56902477 123:0.32795985 124:0.26063739 125:-0.098147204 126:-0.65846786 127:0.14572878 128:0.17886725 129:-0.75009047 130:-0.70979492 131:0.31848467 132:-0.19204609 133:0.037710494 134:0.20847544 135:-0.016598822 136:-0.37293906 137:-0.25871061 138:-0.099848723 139:0.058969654 140:-0.040540554 141:-0.083667297 142:0.97539134 143:0.1636182 144:-0.097252775 145:-0.56245636 146:-0.69109683 147:-0.71703343 148:-0.40874527 149:-0.48037609 150:-0.34351851 151:0.028077611 152:0.0050912204 153:-0.90690112 154:-0.87185112 155:0.51844719 156:-0.51695981 157:-0.48486915 158:-0.36724077 159:0.2947963 160:0.3052481 161:-0.2389457 162:0.10276352 163:0.21479989 164:-0.0042314268 165:0.056814097 166:0.92570464 167:0.049052881 168:-0.014239753 169:-0.3688648 170:-0.45216508 171:-0.79464153 172:-0.81363414 173:-0.46125217 174:0.05919814 175:-0.13783169 176:-0.80969859 177:-0.81363414 178:-0.14658186 
0 4.030389105079964 0 0 6.483352505933122 1:-0.74722572 2:-0.82075427 3:-0.81227313 4:-0.20092263 5:-0.65255603 6:0.443139 7:0.35236237 8:-0.63278641 9:-0.039131101 10:0.68022077 11:-0.56015335 12:-0.16158383 13:-0.19182967 14:-0.033101214 15:-0.19182967 16:-0.86841877 17:-0.034083662 18:-0.95827145 19:-0.089397259 20:0.17404376 21:0.61964146 22:-0.26186886 23:-0.73338178 24:-0.094104515 25:0.66918727 26:-0.62378443 27:-0.13854998 28:-0.1649188 29:-0.099269989 30:-0.1649188 31:-0.76834931 32:-0.73361305 33:-0.84124483 34:-0.19214268 35:-0.49939364 36:0.468564 37:0.10894882 38:-0.62488944 39:-0.041309863 40:0.67625337 41:-0.54080075 42:-0.15212301 43:-0.17241717 44:-0.028216351 45:-0.17241717 46:-0.88010519 47:-0.33103862 48:-0.95728223 49:-0.075969645 50:0.020720258 51:0.58052586 52:-0.32823521 53:-0.73304718 54:-0.096918275 55:0.67851733 56:-0.61540855 57:-0.14038234 58:-0.16426277 59:-0.10195244 60:-0.16426277 61:-0.80594884 62:-0.5380264 63:-0.88773463 64:-0.18320617 65:-0.25425181 66:0.51361168 67:-0.3132701 68:-0.60858613 69:-0.042279453 70:0.67357934 71:-0.49160816 72:-0.12947888 73:-0.14226357 74:-0.031012576 75:-0.14226357 76:-0.91072317 77:-0.41078721 78:-0.95310044 79:-0.06317784 80:0.017126079 81:0.59170798 82:-0.50007781 83:-0.72831065 84:-0.099477763 85:0.67591108 86:-0.58605431 87:-0.14705434 88:-0.18003892 89:-0.11301308 90:-0.18003892 91:-0.86249903 92:-0.41752984 93:-0.90289799 94:-0.19194598 95:-0.05028055 96:0.64231081 97:-0.52472674 98:-0.60375104 99:-0.036006405 100:0.64948745 101:-0.43268681 102:-0.11555556 103:-0.15583601 104:-0.067010824 105:-0.15583601 106:-0.9474386 107:-0.353506 108:-0.93735356 109:-0.050424364 110:0.12397442 111:0.67944542 112:-0.69906146 113:-0.72164871 114:-0.091929731 115:0.65154877 116:-0.54024172 117:-0.17732501 118:-0.23801462 119:-0.14408135 120:-0.23801462 121:-0.82713212 122:-0.60839098 123:0.30755894 124:0.44206302 125:-0.37156035 126:-0.11909335 127:0.43541233 128:0.67938896 129:-0.7815497 130:-0.88355512 131:-0.02449848 132:-0.11259043 133:0.1866362 134:-0.22739454 135:-0.15283713 136:0.0076521259 137:-0.75156875 138:-0.73721346 139:0.14115793 140:0.2918341 141:0.026321484 142:0.99572308 143:-0.15630034 144:0.46326266 145:-0.9074217 146:-0.73615423 147:-0.37174516 148:0.1778163 149:-0.6673706 150:-0.59371028 151:-0.59729282 152:0.59853776 153:-0.8057944 154:-0.75436598 155:-0.059195443 156:0.21188959 157:-0.44510385 158:-0.21363578 159:-0.058828038 160:0.51895002 161:-0.68141647 162:-0.78582942 163:0.20506322 164:0.44758009 165:-0.030202582 166:0.37767137 167:0.16659861 168:0.080980967 169:-0.086985561 170:0.23520871 171:-0.70318393 172:-0.84218124 173:-0.0058573103 174:-0.032027174 175:0.10435506 176:-0.88835348 177:-0.84218124 178:0.1528975 
0 5.061506538749316 0 0 0 1:-0.79805452 2:-0.74747807 3:-0.82591422 4:-0.21233616 5:-0.5613267 6:0.56250261 7:0.23969499 8:-0.57976384 9:0.081703406 10:0.73771566 11:-0.50645826 12:-0.098243013 13:-0.14294757 14:0.080165455 15:-0.14294757 16:-0.89322851 17:0.19097846 18:-0.9625821 19:-0.13237976 20:0.39006465 21:0.70005255 22:-0.4600106 23:-0.69794022 24:0.044235253 25:0.70593312 26:-0.58526818 27:-0.081464779 28:-0.10963468 29:0.037174564 30:-0.10963468 31:-0.82368381 32:-0.61614526 33:-0.85453195 34:-0.20176467 35:-0.36465359 36:0.58377477 37:-0.04098539 38:-0.57029175 39:0.079776368 40:0.72847199 41:-0.48186265 42:-0.089277573 43:-0.12091672 44:0.084472046 45:-0.12091672 46:-0.90292818 47:-0.18706354 48:-0.96162397 49:-0.12189896 50:0.18641111 51:0.65943377 52:-0.49454245 53:-0.69699903 54:0.041140714 55:0.70661085 56:-0.57234999 57:-0.085582688 58:-0.11065754 59:0.034576744 60:-0.11065754 61:-0.85075148 62:-0.40031534 63:-0.90103695 64:-0.18444764 65:-0.1068147 66:0.62235294 67:-0.44281626 68:-0.54851527 69:0.077325646 70:0.70957929 71:-0.42264161 72:-0.068509893 73:-0.080670828 74:0.081207487 75:-0.080670828 76:-0.92762563 77:-0.29385341 78:-0.95930912 79:-0.10183937 80:0.14322302 81:0.66397217 82:-0.60243232 83:-0.68825528 84:0.03721883 85:0.69708054 86:-0.53307954 87:-0.09362966 88:-0.11911215 89:0.023827862 90:-0.11911215 91:-0.88493211 92:-0.29889086 93:-0.91735806 94:-0.18282067 95:0.044370179 96:0.73371324 97:-0.51069803 98:-0.53786054 99:0.07872488 100:0.6833002 101:-0.35625199 102:-0.050099272 103:-0.083311449 104:0.047734209 105:-0.083311449 106:-0.95389607 107:-0.24717499 108:-0.94765504 109:-0.080485322 110:0.20411657 111:0.74120503 112:-0.69076679 113:-0.67621945 114:0.040934593 115:0.67962821 116:-0.4806817 117:-0.12030154 118:-0.16840157 119:-0.0036956966 120:-0.16840157 121:-0.89768519 122:-0.60142825 123:-0.12279479 124:0.76469116 125:-0.048021695 126:-0.3120903 127:0.59232943 128:0.72903946 129:-0.68309492 130:-0.73109561 131:0.050568922 132:-0.25968236 133:0.37501376 134:0.51475412 135:-0.20657685 136:-0.054495989 137:-0.68050173 138:-0.80616122 139:0.33226836 140:0.48938793 141:-0.097452795 142:0.95176816 143:-0.048537436 144:0.34743791 145:-0.81368618 146:-0.7260452 147:-0.46897886 148:0.045415494 149:-0.59918349 150:-0.42860854 151:0.1875691 152:0.31201891 153:-0.81342503 154:-0.71727372 155:0.087557968 156:-0.055519415 157:-0.45424641 158:-0.40118799 159:0.36825515 160:0.67029483 161:-0.60281617 162:-0.87980619 163:0.45649462 164:0.61218631 165:0.08764479 166:0.49531482 167:0.26073454 168:0.1682389 169:0.050828111 170:0.28636187 171:-0.60003799 172:-0.82755409 173:0.14833888 174:0.084314841 175:0.17805893 176:-0.8704445 177:-0.82755409 178:0.31466064 
0 70.17087467897369 0 0 5.509701380571345 1:-0.8416595 2:-0.69408216 3:-0.8376284 4:-0.20053261 5:-0.48025344 6:0.67238696 7:0.12318285 8:-0.61269984 9:0.11706568 10:0.79602502 11:-0.56975539 12:-0.082632794 13:-0.1154165 14:0.10850296 15:-0.1154165 16:-0.89950521 17:0.17893847 18:-0.95849024 19:-0.24059763 20:0.41481112 21:0.70149324 22:-0.50881224 23:-0.76600792 24:0.11378809 25:0.69540417 26:-0.67686414 27:-0.15289593 28:-0.17090659 29:0.10767546 30:-0.17090659 31:-0.8608754 32:-0.54421925 33:-0.86496717 34:-0.19192075 35:-0.28239307 36:0.68228055 37:-0.13711003 38:-0.60588298 39:0.1200506 40:0.80330933 41:-0.54658364 42:-0.069336014 43:-0.091746781 44:0.11873488 45:-0.091746781 46:-0.90727957 47:-0.19973735 48:-0.95720806 49:-0.23488151 50:0.18541786 51:0.65968314 52:-0.52091238 53:-0.76685199 54:0.11239158 55:0.70071981 56:-0.66694136 57:-0.15599734 58:-0.17290644 59:0.10871232 60:-0.17290644 61:-0.88040329 62:-0.37579367 63:-0.9076596 64:-0.18225706 65:-0.045695927 66:0.69514219 67:-0.54187655 68:-0.58964166 69:0.12715601 70:0.77973071 71:-0.48533361 72:-0.049775999 73:-0.052036419 74:0.12801268 75:-0.052036419 76:-0.93151714 77:-0.34667523 78:-0.9547479 79:-0.2216962 80:0.11174809 81:0.65835982 82:-0.61708954 83:-0.76285196 84:0.11182506 85:0.69107655 86:-0.63275053 87:-0.16352244 88:-0.17980618 89:0.10745871 90:-0.17980618 91:-0.91664726 92:-0.3027412 93:-0.92889436 94:-0.16077274 95:0.11558977 96:0.78817129 97:-0.7167509 98:-0.57191543 99:0.1476484 100:0.72279781 101:-0.39058714 102:-0.037147386 103:-0.023029932 104:0.11306623 105:-0.023029932 106:-0.96023582 107:-0.32033922 108:-0.94693919 109:-0.18669717 110:0.1858876 111:0.7338229 112:-0.77348851 113:-0.74953088 114:0.12346633 115:0.65964246 116:-0.57021249 117:-0.19112986 118:-0.20051568 119:0.096157799 120:-0.20051568 121:-0.87016811 122:-0.55135015 123:0.38289693 124:0.4740389 125:-0.23939922 126:-0.78074528 127:0.44425969 128:0.47922733 129:-0.7239081 130:-0.88410264 131:0.20363211 132:0.30178957 133:0.031038311 134:-0.30057707 135:0.18075213 136:-0.29225269 137:-0.67269058 138:-0.70034793 139:0.1971016 140:0.3011563 141:-0.12809194 142:0.9611995 143:-0.01922275 144:0.39447712 145:-0.77805003 146:-0.67174525 147:-0.57247247 148:-0.029112154 149:-0.46414499 150:0.070990992 151:-0.00068789495 152:0.39893834 153:-0.83250673 154:-0.82247877 155:0.1732934 156:-0.51086607 157:-0.53277374 158:-0.37687816 159:0.70528701 160:0.60215761 161:-0.59599507 162:-0.74874337 163:0.34811813 164:0.55397919 165:0.11897983 166:0.73578048 167:0.28688116 168:0.14517412 169:0.11895854 170:0.22436827 171:-0.51855534 172:-0.78440493 173:0.099121431 174:0.10714288 175:0.18591187 176:-0.87187314 177:-0.78440493 178:0.249128 
0 40.94052628491127 0 0 0 1:-0.92153909 2:-0.73885323 3:-0.82086657 4:-0.37239144 5:-0.52767927 6:0.73265627 7:0.1621885 8:-0.68439416 9:0.39386865 10:0.89106784 11:-0.73360822 12:-0.14556461 13:-0.1724217 14:0.39150378 15:-0.1724217 16:-0.93942794 17:0.15361839 18:-0.95884488 19:-0.28576499 20:0.40288934 21:0.75871356 22:-0.5149001 23:-0.78152356 24:0.19669455 25:0.77504962 26:-0.76106481 27:-0.15180756 28:-0.16815757 29:0.19265085 30:-0.16815757 31:-0.94044011 32:-0.5890599 33:-0.85409926 34:-0.36108385 35:-0.30252417 36:0.77250152 37:-0.16855223 38:-0.68141526 39:0.39343112 40:0.88685923 41:-0.70207501 42:-0.13834803 43:-0.14628271 44:0.4015162 45:-0.14628271 46:-0.94820966 47:-0.18947187 48:-0.95848089 49:-0.27767668 50:0.22195574 51:0.72833022 52:-0.58577743 53:-0.78433236 54:0.19584709 55:0.77607213 56:-0.74515273 57:-0.15954218 58:-0.16705825 59:0.19394534 60:-0.16705825 61:-0.94745529 62:-0.38396272 63:-0.90667699 64:-0.34144246 65:-0.027703911 66:0.79662922 67:-0.66277303 68:-0.67346593 69:0.39451857 70:0.85383344 71:-0.63239369 72:-0.12748458 73:-0.093496697 74:0.41558017 75:-0.093496697 76:-0.96329207 77:-0.30961427 78:-0.95915388 79:-0.25229485 80:0.15935661 81:0.73424393 82:-0.67610542 83:-0.78541358 84:0.19659611 85:0.76415102 86:-0.70417567 87:-0.17241227 88:-0.15946642 89:0.19504764 90:-0.15946642 91:-0.96955929 92:-0.30117226 93:-0.93472121 94:-0.31267167 95:0.14346622 96:0.88141424 97:-0.79144107 98:-0.66720467 99:0.41231309 100:0.76034106 101:-0.5211737 102:-0.1212178 103:-0.0401948 104:0.42571628 105:-0.0401948 106:-0.97909792 107:-0.27567885 108:-0.95585245 109:-0.20277357 110:0.25027663 111:0.80245355 112:-0.83446387 113:-0.77897168 114:0.21398893 115:0.70947507 116:-0.62474598 117:-0.20536719 118:-0.16107328 119:0.18998449 120:-0.16107328 121:-0.94050647 122:-0.54920777 123:0.38480975 124:0.44550653 125:0.1850102 126:-0.53353446 127:0.59608462 128:0.58133433 129:-0.7231005 130:-0.90289076 131:-0.01044907 132:0.26723759 133:0.28269934 134:-0.4090381 135:0.20281027 136:-0.18368729 137:-0.64614719 138:-0.78926205 139:0.64180048 140:0.19627283 141:-0.41138077 142:0.97131842 143:0.36550454 144:0.07300835 145:-0.82487121 146:-0.67001228 147:-0.42057367 148:0.056065969 149:-0.74756193 150:-0.69255016 151:-0.24257979 152:0.37157558 153:-0.81332518 154:-0.76800457 155:0.093261473 156:-0.22262839 157:-0.60126765 158:-0.40106107 159:0.54368517 160:0.40913969 161:-0.62534369 162:-0.76952563 163:0.65141802 164:0.40201038 165:0.39900391 166:0.73661099 167:0.39805245 168:0.14379701 169:0.20269268 170:0.22912131 171:-0.4686326 172:-0.77386459 173:0.18615453 174:0.39065056 175:0.14384808 176:-0.80356607 177:-0.77386459 178:0.41009055 
14.33866695691836 0 3.794695303859831 0 0 1:-0.77545432 2:-0.64330748 3:-0.56819304 4:-0.69616301 5:-0.41667482 6:0.49941174 7:0.050556409 8:-0.87854804 9:0.27267172 10:0.51253273 11:-0.85285611 12:-0.58162536 13:-0.60076308 14:0.25933435 15:-0.60076308 16:-0.77106415 17:-0.11976032 18:-0.8538816 19:-0.72124597 20:0.10262197 21:0.38335539 22:-0.20815019 23:-0.94756721 24:0.01189189 25:0.37232781 26:-0.90452509 27:-0.66937972 28:-0.67986891 29:0.010644974 30:-0.67986891 31:-0.77613925 32:-0.59327182 33:-0.63342348 34:-0.68986319 35:-0.33986927 36:0.44015806 37:-0.075527419 38:-0.875986 39:0.25750915 40:0.4934951 41:-0.84050688 42:-0.5807471 43:-0.58935341 44:0.26498734 45:-0.58935341 46:-0.78010161 47:-0.49096803 48:-0.84959736 49:-0.72181509 50:-0.16398303 51:0.32666806 52:-0.1615999 53:-0.94925806 54:0.0029746209 55:0.365517 56:-0.90307251 57:-0.67505403 58:-0.6832029 59:0.0097707771 60:-0.6832029 61:-0.76564776 62:-0.60932963 63:-0.74638235 64:-0.68226843 65:-0.35498754 66:0.38766398 67:-0.18910048 68:-0.86704009 69:0.2331864 70:0.45620951 71:-0.81214122 72:-0.57706188 73:-0.56430359 74:0.27921979 75:-0.56430359 76:-0.80917963 77:-0.65429647 78:-0.83938725 79:-0.72026845 80:-0.30435265 81:0.30537122 82:-0.17851428 83:-0.95002723 84:-0.010859964 85:0.34984317 86:-0.89624446 87:-0.68413335 88:-0.69243256 89:0.011663653 90:-0.69243256 91:-0.75949315 92:-0.66025011 93:-0.81273315 94:-0.69337459 95:-0.38182701 96:0.42814303 97:-0.19973409 98:-0.87787673 99:0.20236829 100:0.35303828 101:-0.79603385 102:-0.59205606 103:-0.55765396 104:0.30433769 105:-0.55765396 106:-0.85355013 107:-0.7010733 108:-0.81422805 109:-0.72933004 110:-0.33575607 111:0.35484278 112:-0.29990833 113:-0.95454001 114:-0.023493296 115:0.29779502 116:-0.89239997 117:-0.70906596 118:-0.71811548 119:0.02141464 120:-0.71811548 121:-0.8437686 122:-0.60731979 123:0.64112771 124:-0.24416252 125:-0.22159149 126:-0.73004842 127:0.38282254 128:0.18453655 129:-0.86907948 130:-0.89105322 131:0.10276173 132:-0.084466058 133:-0.036807265 134:-0.62570188 135:0.035520231 136:-0.43345874 137:-0.35046139 138:-0.38891704 139:0.39724553 140:-0.23751624 141:-0.31044634 142:0.99014589 143:0.58900974 144:-0.46564766 145:-0.73846645 146:-0.73326594 147:-0.72294518 148:-0.46111056 149:-0.6398358 150:-0.56445083 151:-0.22585037 152:-0.46517443 153:-0.93524693 154:-0.92166276 155:0.032977637 156:-0.15535181 157:-0.46480778 158:-0.40111749 159:0.18343567 160:-0.2418666 161:-0.3814282 162:-0.53130651 163:0.53789965 164:-0.033682525 165:0.28668845 166:0.91791633 167:0.08518264 168:-0.20738764 169:0.024472259 170:-0.30611803 171:-0.5410251 172:-0.85355353 173:-0.13324915 174:0.28245511 175:-0.32754523 176:-0.78489168 177:-0.85355353 178:0.082182826 
0 12.7298075858648 0 0 0 1:-0.79508589 2:-0.6463808 3:-0.8203655 4:-0.16063271 5:-0.41259219 6:0.65609072 7:0.029982251 8:-0.54971446 9:-0.045905064 10:0.6935093 11:-0.46542499 12:-0.14210898 13:-0.16813167 14:-0.061388877 15:-0.16813167 16:-0.75771937 17:-0.27465265 18:-0.91435715 19:-0.43931991 20:-0.02938638 21:0.38787983 22:-0.113129 23:-0.88834998 24:-0.16797422 25:0.450208 26:-0.80079607 27:-0.48594444 28:-0.49835817 29:-0.17013118 30:-0.49835817 31:-0.79863847 32:-0.51124778 33:-0.84703999 34:-0.15794047 35:-0.24856893 36:0.63609081 37:-0.15553666 38:-0.54486672 39:-0.044490312 40:0.70546311 41:-0.45079347 42:-0.12942901 43:-0.15255645 44:-0.05315078 45:-0.15255645 46:-0.7731281 47:-0.51572523 48:-0.91085354 49:-0.43843863 50:-0.18419505 51:0.35913187 52:-0.1430743 53:-0.88908445 54:-0.17032881 55:0.45519733 56:-0.79832111 57:-0.48933993 58:-0.50244778 59:-0.16958802 60:-0.50244778 61:-0.81048957 62:-0.38205221 63:-0.88717947 64:-0.16656204 65:-0.078398172 66:0.61172918 67:-0.46216973 68:-0.53679923 69:-0.044338174 70:0.69478227 71:-0.41282402 72:-0.11498787 73:-0.13846609 74:-0.053869284 75:-0.13846609 76:-0.81168782 77:-0.6065623 78:-0.9007575 79:-0.44185068 80:-0.22784578 81:0.36226138 82:-0.27014949 83:-0.88935731 84:-0.17467699 85:0.44744094 86:-0.78809594 87:-0.49757035 88:-0.51971421 89:-0.17262887 90:-0.51971421 91:-0.83896395 92:-0.35461949 93:-0.89324346 94:-0.21366499 95:0.0096292167 96:0.68425898 97:-0.57956303 98:-0.55919885 99:-0.043749156 100:0.64835283 101:-0.38691193 102:-0.12077132 103:-0.19033908 104:-0.091422493 105:-0.19033908 106:-0.87841549 107:-0.59986664 108:-0.86653217 109:-0.46599107 110:-0.17002148 111:0.44436247 112:-0.50551409 113:-0.89313602 114:-0.17524819 115:0.42793355 116:-0.77810714 117:-0.52409881 118:-0.57244706 119:-0.18678213 120:-0.57244706 121:-0.87319445 122:-0.66168266 123:0.37150448 124:0.43730332 125:-0.19301119 126:-0.74151856 127:0.16302359 128:0.392801 129:-0.78825128 130:-0.89192913 131:-0.014903391 132:-0.037163681 133:0.33854099 134:-0.4276875 135:0.23019292 136:0.35271418 137:-0.44944006 138:-0.468472 139:0.051075249 140:0.2397694 141:0.028826981 142:0.94511851 143:-0.18205015 144:0.4568245 145:-0.9439583 146:-0.79218716 147:-0.38512325 148:0.22217811 149:-0.44755315 150:0.029163891 151:-0.14317498 152:0.73734376 153:-0.81249807 154:-0.78454464 155:0.14874023 156:-0.21729822 157:-0.43404562 158:-0.35756308 159:0.4286171 160:0.74409545 161:-0.41823012 162:-0.53186626 163:0.068672276 164:0.49651797 165:-0.048198868 166:-0.056998711 167:0.18296582 168:0.13424298 169:-0.16116119 170:-0.095119365 171:-0.80964675 172:-0.87325644 173:-0.089406497 174:-0.035550102 175:0.13367941 176:-0.93896358 177:-0.87325644 178:0.19172254 
0 22.38680604184609 0 0 0 1:-0.82726858 2:-0.82136203 3:-0.79549741 4:-0.30880953 5:-0.65484936 6:0.54140024 7:0.35908171 8:-0.6635398 9:0.089120272 10:0.82446529 11:-0.66691268 12:-0.20489002 13:-0.23594228 14:0.096240171 15:-0.23594228 16:-0.86955991 17:-0.34558141 18:-0.94138123 19:-0.13543714 20:-0.12167774 21:0.55258938 22:-0.009752793 23:-0.82663472 24:-0.28606969 25:0.65108302 26:-0.76785683 27:-0.31913652 28:-0.33202015 29:-0.2884671 30:-0.33202015 31:-0.84969802 32:-0.77567774 33:-0.82888766 34:-0.30203754 35:-0.53876446 36:0.55203841 37:0.13611258 38:-0.66031257 39:0.087834436 40:0.81897908 41:-0.64921472 42:-0.19640419 43:-0.21565414 44:0.107825 45:-0.21565414 46:-0.88531582 47:-0.53309446 48:-0.93974308 49:-0.1281522 50:-0.19941174 51:0.52515462 52:-0.13793127 53:-0.82839626 54:-0.28481456 55:0.65553064 56:-0.76224958 57:-0.32346799 58:-0.3336615 59:-0.28777355 60:-0.3336615 61:-0.87130492 62:-0.63668615 63:-0.88037067 64:-0.29541785 65:-0.34956126 66:0.59276641 67:-0.30692576 68:-0.65088808 69:0.084958464 70:0.78736367 71:-0.59930771 72:-0.17819864 73:-0.18204749 74:0.11803533 75:-0.18204749 76:-0.91599477 77:-0.58576366 78:-0.93511942 79:-0.11504662 80:-0.17845981 81:0.54573624 82:-0.37345203 83:-0.82808846 84:-0.28136954 85:0.64979916 86:-0.73974858 87:-0.32626013 88:-0.34318071 89:-0.29251985 90:-0.34318071 91:-0.90567096 92:-0.54470439 93:-0.90356781 94:-0.28659641 95:-0.16677946 96:0.71545213 97:-0.58525856 98:-0.65356379 99:0.082168342 100:0.71399862 101:-0.52774945 102:-0.15705267 103:-0.16459368 104:0.10506783 105:-0.16459368 106:-0.94898598 107:-0.54969354 108:-0.92023896 109:-0.075716774 110:-0.077745829 111:0.64418877 112:-0.65624536 113:-0.82710527 114:-0.27021365 115:0.61039994 116:-0.69929411 117:-0.34223771 118:-0.37046986 119:-0.31488711 120:-0.37046986 121:-0.87209091 122:-0.56259763 123:0.35269477 124:0.5236149 125:0.1010767 126:-0.51497957 127:0.37505204 128:0.41210646 129:-0.73374767 130:-0.79827126 131:-0.026461875 132:0.067282164 133:0.17513443 134:-0.005774064 135:0.025730284 136:-0.30145128 137:-0.72291048 138:-0.82798122 139:0.36238374 140:0.26756143 141:-0.10068782 142:0.97569606 143:0.027464074 144:0.32128937 145:-0.9115839 146:-0.68503141 147:-0.46287402 148:0.072358305 149:-0.4535844 150:-0.17358563 151:-0.0060392691 152:0.61337031 153:-0.82665739 154:-0.79118383 155:-0.11899366 156:0.3560784 157:-0.47751428 158:-0.40139944 159:0.49303371 160:0.60319463 161:-0.65412257 162:-0.83346984 163:0.26682913 164:0.3944669 165:0.095391846 166:0.63065545 167:0.20470451 168:0.048792403 169:-0.28382997 170:0.085309857 171:-0.83756106 172:-0.79398724 173:-0.26429216 174:0.092498771 175:0.077911527 176:-0.84350258 177:-0.79398724 178:0.03070587 
-0 0 0 26.79521302430285 14.40358351633013 1:-0.52509214 2:-0.68888538 3:0.034784065 4:-0.6812967 5:-0.46926751 6:-0.082904311 7:0.087875587 8:-0.92720734 9:-0.82369736 10:-0.23359543 11:-0.91155949 12:-0.87611368 13:-0.88118996 14:-0.83957482 15:-0.88118996 16:-0.41121143 17:-0.52327577 18:-0.55640652 19:-0.86956922 20:-0.34325809 21:-0.18194952 22:0.22883834 23:-0.98055839 24:-0.5039962 25:-0.20367352 26:-0.95872104 27:-0.89379827 28:-0.89847837 29:-0.50632875 30:-0.89847837 31:-0.51335829 32:-0.64469147 33:-0.0062429864 34:-0.69531691 35:-0.43883736 36:-0.13545985 37:0.062675988 38:-0.93202674 39:-0.8374943 40:-0.25583265 41:-0.91381055 42:-0.88002837 43:-0.88824225 44:-0.85171816 45:-0.88824225 46:-0.42873929 47:-0.69363 48:-0.49541417 49:-0.88159152 50:-0.48041388 51:-0.20891916 52:0.24918841 53:-0.98276304 54:-0.51558663 55:-0.20854949 56:-0.96170776 57:-0.89858955 58:-0.90737479 59:-0.51603806 60:-0.90737479 61:-0.46360186 62:-0.68101202 63:-0.13634941 64:-0.72972172 65:-0.57188911 66:-0.20073468 67:0.16885733 68:-0.94657285 69:-0.86082667 70:-0.28690361 71:-0.92400664 72:-0.88951859 73:-0.89829714 74:-0.88027148 75:-0.89829714 76:-0.46539303 77:-0.79304602 78:-0.3580663 79:-0.89964383 80:-0.59452472 81:-0.22939056 82:0.28355775 83:-0.98728481 84:-0.53544331 85:-0.22833094 86:-0.96784278 87:-0.90846106 88:-0.92451411 89:-0.5307536 90:-0.92451411 91:-0.35092812 92:-0.81283622 93:-0.29831212 94:-0.7601261 95:-0.70665393 96:-0.22987281 97:0.3092436 98:-0.96727045 99:-0.89331977 100:-0.37214084 101:-0.94072777 102:-0.90535659 103:-0.90025735 104:-0.93699153 105:-0.90025735 106:-0.53204032 107:-0.85476255 108:-0.22240477 109:-0.91743096 110:-0.65418456 111:-0.22147247 112:0.20355234 113:-0.9916972 114:-0.55874229 115:-0.26672279 116:-0.9741519 117:-0.92161991 118:-0.94203233 119:-0.54495775 120:-0.94203233 121:0.14154803 122:-0.20241018 123:-0.092001264 124:-0.088271967 125:-0.40558024 126:-0.40111279 127:-0.39575677 128:-0.39982935 129:-0.67149749 130:-0.70303457 131:0.19072863 132:-0.37546275 133:-0.28763197 134:-0.58252608 135:0.32640205 136:1 137:-0.38495996 138:-0.26196603 139:-0.86516069 140:-0.72563759 141:0.80087733 142:0.99205014 143:-0.76313259 144:0.64343353 145:-0.88290898 146:-0.30579825 147:-0.92247045 148:-0.31625239 149:0.37571533 150:0.80057062 151:-0.1707173 152:0.10824991 153:-0.9179928 154:-0.89567565 155:0.37458784 156:0.044168267 157:0.13514368 158:-0.040754456 159:-0.5389461 160:0.15154171 161:-0.35525578 162:-0.10288188 163:-0.7026778 164:-0.58949741 165:-0.81346019 166:-1 167:-0.79784915 168:-0.81014509 169:-0.48531217 170:-0.68484147 171:-0.093996906 172:-0.33210042 173:-0.81265868 174:-0.7775567 175:-0.76386003 176:-0.6510398 177:-0.33210042 178:-0.92654592 
-0 0 14.62555656302908 7.697153130347563 0 1:-0.70497601 2:-0.63000289 3:-0.35090138 4:-0.67915099 5:-0.38722956 6:0.27402314 7:-0.0088097663 8:-0.8990342 9:-0.35034047 10:0.19553108 11:-0.86753172 12:-0.74044442 13:-0.75257739 14:-0.37065923 15:-0.75257739 16:-0.59945545 17:-0.39377368 18:-0.71517581 19:-0.7855898 20:-0.17707469 21:0.052822052 22:0.044362622 23:-0.97252749 24:-0.41647987 25:0.044256901 26:-0.94179974 27:-0.82475997 28:-0.83220853 29:-0.42068061 30:-0.83220853 31:-0.69689982 32:-0.52030587 33:-0.41838687 34:-0.67451412 35:-0.29495318 36:0.23889631 37:-0.094047807 38:-0.89296215 39:-0.37012993 40:0.18520103 41:-0.85508704 42:-0.734315 43:-0.74926562 44:-0.38413456 45:-0.74926562 46:-0.61617675 47:-0.59512423 48:-0.69272886 49:-0.78906662 50:-0.3404383 51:0.028078599 52:0.075878554 53:-0.97297459 54:-0.42761621 55:0.044561153 56:-0.94087794 57:-0.82606872 58:-0.83785752 59:-0.43050347 60:-0.83785752 61:-0.67473027 62:-0.53548545 63:-0.56256564 64:-0.6723418 65:-0.35413316 66:0.18063222 67:-0.1421645 68:-0.89150718 69:-0.40717545 70:0.14573551 71:-0.84184153 72:-0.73206969 73:-0.74183999 74:-0.41467067 75:-0.74183999 76:-0.66227592 77:-0.71455567 78:-0.65254945 79:-0.79155396 80:-0.45054386 81:0.019925002 82:0.053207977 83:-0.97505924 84:-0.4476826 85:0.031602641 86:-0.94066312 87:-0.83214086 88:-0.84990887 89:-0.44852172 90:-0.84990887 91:-0.62744274 92:-0.70279297 93:-0.65771442 94:-0.68164611 95:-0.48273276 96:0.16576374 97:-0.097888179 98:-0.91277973 99:-0.46995437 100:0.039026523 101:-0.84909688 102:-0.75033489 103:-0.74615109 104:-0.48227088 105:-0.74615109 106:-0.72546266 107:-0.79491572 108:-0.58573233 109:-0.80031308 110:-0.50913348 111:0.044069401 112:-0.091443348 113:-0.98014373 114:-0.47631337 115:-0.01568011 116:-0.94467201 117:-0.84996634 118:-0.87101722 119:-0.47559369 120:-0.87101722 121:-0.17281119 122:-0.11617942 123:0.31038335 124:-0.27185866 125:0.083094411 126:-0.55659825 127:0.22360351 128:-0.16860106 129:-0.78468262 130:-0.69459334 131:0.16953398 132:-0.093952932 133:-0.38745191 134:-0.87388394 135:0.58542252 136:0.18870791 137:-0.42128574 138:-0.46690775 139:-0.30878407 140:-0.60801245 141:0.31673425 142:0.99567922 143:-0.15047059 144:0.12796926 145:-0.54444144 146:-0.2035526 147:-0.93781745 148:-0.67104669 149:0.31372261 150:0.9776527 151:0.40284613 152:-0.04385945 153:-0.93458661 154:-0.92916902 155:0.38028039 156:-0.031835264 157:0.012164562 158:-0.14605169 159:-0.1807806 160:0.27429214 161:-0.37566006 162:-0.35031021 163:-0.25096025 164:-0.53763386 165:-0.33116709 166:0.97120133 167:-0.4093556 168:-0.55165105 169:-0.39836046 170:-0.5571284 171:0.13944321 172:-0.2673092 173:-0.67312318 174:-0.32560694 175:-0.57663604 176:-0.38507803 177:-0.2673092 178:-0.59054368 
-0 3.327178416681877 0 0 0 1:-0.6991597 2:-0.86958866 3:-0.55766285 4:-0.65417436 5:-0.73614787 6:0.21841518 7:0.49139165 8:-0.90129475 9:0.058579002 10:0.50257725 11:-0.88269443 12:-0.58481268 13:-0.60610723 14:0.072674791 15:-0.60610723 16:-0.89293521 17:0.024759385 18:-0.92681608 19:-0.45462716 20:0.24244236 21:0.63026579 22:-0.33961557 23:-0.86411276 24:0.012349625 25:0.64510834 26:-0.81316605 27:-0.41313631 28:-0.43101687 29:0.0079433218 30:-0.43101687 31:-0.71947411 32:-0.87058532 33:-0.62518924 34:-0.64186184 35:-0.68856825 36:0.2234531 37:0.35842178 38:-0.89523309 39:0.048202229 40:0.4980401 41:-0.86841098 42:-0.57133004 43:-0.58776534 44:0.079906136 45:-0.58776534 46:-0.8953783 47:-0.3636828 48:-0.92473013 49:-0.44613462 50:-0.0225609 51:0.57241825 52:-0.30084528 53:-0.86596148 54:0.0049300669 55:0.64708407 56:-0.80802069 57:-0.40999742 58:-0.42961702 59:0.0057974266 60:-0.42961702 61:-0.73510327 62:-0.82728541 63:-0.74775266 64:-0.6175992 65:-0.67931917 66:0.24520055 67:0.21938813 68:-0.88576054 69:0.027938495 70:0.46416099 71:-0.8392666 72:-0.54317426 73:-0.54330046 74:0.094956325 75:-0.54330046 76:-0.90960857 77:-0.55523587 78:-0.92316854 79:-0.41883103 80:-0.1898866 81:0.54649066 82:-0.28941776 83:-0.86791565 84:-0.0086758648 85:0.63032733 86:-0.79167155 87:-0.40033377 88:-0.42060911 89:0.0038200465 90:-0.42060911 91:-0.72904415 92:-0.8515391 93:-0.83077894 94:-0.56453236 95:-0.67415425 96:0.31166179 97:0.11427494 98:-0.87708641 99:-0.0093607945 100:0.39522386 101:-0.79847049 102:-0.47177983 103:-0.46168413 104:0.12219651 105:-0.46168413 106:-0.9302771 107:-0.65331135 108:-0.91877439 109:-0.33562307 110:-0.2723652 111:0.58039983 112:-0.39616361 113:-0.86212656 114:-0.027924893 115:0.58577932 116:-0.75542239 117:-0.35908607 118:-0.38283727 119:0.0044446125 120:-0.38283727 121:-0.44283968 122:0.099129659 123:0.70969842 124:-0.56538296 125:-0.22653875 126:-0.84354683 127:0.22934012 128:-0.20657677 129:-0.84826736 130:-0.89956019 131:-0.20970851 132:-0.35459222 133:-0.25166177 134:-0.66594788 135:0.22479777 136:-0.54443506 137:-0.75142745 138:-0.74307603 139:0.20394029 140:-0.36284743 141:-0.079453163 142:0.99204671 143:0.29261578 144:-0.16039538 145:-0.14308726 146:0.029243989 147:-0.88466188 148:-0.74947249 149:-0.33455104 150:0.64329448 151:0.35453701 152:0.31194788 153:-0.9371454 154:-0.94859237 155:0.094980108 156:0.043780116 157:-0.32768788 158:-0.49361238 159:0.4170914 160:0.031165433 161:-0.65596372 162:-0.81075171 163:0.2029557 164:-0.20513255 165:0.074033777 166:0.98092018 167:-0.059720957 168:-0.307095 169:0.024388536 170:-0.022429202 171:0.92385521 172:-0.080105951 173:-0.61735129 174:0.07173744 175:-0.361333 176:-0.1888369 177:-0.080105951 178:-0.63630353 
-0 0 0 6.578240733524782 10.21151404423374 1:-0.70238987 2:-0.43191922 3:-0.14835053 4:-0.88723668 5:-0.15630705 6:0.29386704 7:-0.25546906 8:-0.97287295 9:0.11576728 10:0.071262645 11:-0.96956257 12:-0.85059899 13:-0.84752244 14:0.077772219 15:-0.84752244 16:-0.42973608 17:-0.53948235 18:-0.43295918 19:-0.92146322 20:-0.32201459 21:-0.19886135 22:0.17509245 23:-0.99495503 24:-0.51283568 25:-0.23546844 26:-0.98653814 27:-0.92899812 28:-0.92925434 29:-0.51584155 30:-0.92925434 31:-0.67795383 32:-0.40050463 33:-0.25573248 34:-0.88195882 35:-0.13326089 36:0.19598055 37:-0.27312663 38:-0.96818914 39:0.09200162 40:0.05991349 41:-0.95855884 42:-0.84811187 43:-0.84156021 44:0.077002955 45:-0.84156021 46:-0.43996328 47:-0.75763481 48:-0.4030545 49:-0.92465084 50:-0.52887701 51:-0.23830249 52:0.26816707 53:-0.99521238 54:-0.51954261 55:-0.23985592 56:-0.98635062 57:-0.93052633 58:-0.93161227 59:-0.51809343 60:-0.93161227 61:-0.64209142 62:-0.53264005 63:-0.46732253 64:-0.87720687 65:-0.28134214 66:0.10282034 67:-0.26725204 68:-0.96353485 69:0.04839353 70:0.0038301158 71:-0.94001221 72:-0.8510075 73:-0.82893873 74:0.070360407 75:-0.82893873 76:-0.49622905 77:-0.84466816 78:-0.35736451 79:-0.92390858 80:-0.62415148 81:-0.24355581 82:0.25025622 83:-0.99576292 84:-0.53131786 85:-0.26593757 86:-0.98556341 87:-0.93487889 88:-0.93678343 89:-0.52364183 90:-0.93678343 91:-0.54474679 92:-0.74973633 93:-0.62352425 94:-0.87760996 95:-0.51675661 96:0.039854138 97:-0.064435891 98:-0.96677316 99:-0.024180429 100:-0.11975922 101:-0.92875392 102:-0.85831217 103:-0.81396222 104:0.064681738 105:-0.81396222 106:-0.55516007 107:-0.89559103 108:-0.31288867 109:-0.92378373 110:-0.68293699 111:-0.23399923 112:0.14722211 113:-0.99640476 114:-0.54769267 115:-0.3118713 116:-0.98490916 117:-0.94086124 118:-0.94334583 119:-0.52669517 120:-0.94334583 121:0.13319257 122:0.16313323 123:0.51007159 124:-0.72535171 125:0.23398136 126:0.73257342 127:-0.21513413 128:-0.029390735 129:-0.43116367 130:-0.64224623 131:1 132:-0.18139058 133:-0.021626698 134:-0.36992445 135:-0.28864987 136:-0.36968834 137:-0.16587066 138:-0.31572953 139:0.13981171 140:-0.82070864 141:-0.16504085 142:0.98811088 143:0.59682731 144:-0.68258988 145:-0.27953168 146:0.098563073 147:-0.89890414 148:-0.70770958 149:0.036726746 150:0.73040913 151:0.17855132 152:0.43486358 153:-0.955844 154:-0.94082598 155:0.5433702 156:0.46674743 157:-0.027098631 158:0.092089757 159:0.26895745 160:-0.32157745 161:-0.14117974 162:-0.21569482 163:0.22736043 164:-0.78065971 165:0.13301336 166:0.94075293 167:-0.17592291 168:-0.54589275 169:-0.50026393 170:-0.76945935 171:0.27413033 172:0.018510507 173:-0.86492398 174:0.12982048 175:-0.704907 176:0.085815438 177:0.018510507 178:-0.78756468 
-9.923754916808967 1.141541515975071 0 0 14.13898858465232 1:-0.5684308 2:-0.8356268 3:-0.44773399 4:-0.77424199 5:-0.67117621 6:0.14450509 7:0.37264613 8:-0.91209722 9:0.2260762 10:0.3384261 11:-0.94575196 12:-0.68206648 13:-0.6952088 14:0.23547635 15:-0.6952088 16:-0.76602257 17:-0.19415768 18:-0.88297115 19:-0.629969 20:0.037684765 21:0.42841895 22:-0.1607897 23:-0.91460366 24:-0.047194155 25:0.44618537 26:-0.9076265 27:-0.60473425 28:-0.61331139 29:-0.048238579 30:-0.61331139 31:-0.55910922 32:-0.85195846 33:-0.52524959 34:-0.76967555 35:-0.65234075 36:0.11630182 37:0.30316478 38:-0.90959807 39:0.21941804 40:0.33787436 41:-0.9324377 42:-0.67715175 43:-0.6846243 44:0.25280079 45:-0.6846243 46:-0.76361568 47:-0.51264976 48:-0.87755498 49:-0.63392201 50:-0.19531939 51:0.37024879 52:-0.11831624 53:-0.91820189 54:-0.049831106 55:0.45093847 56:-0.90464118 57:-0.60913895 58:-0.618856 59:-0.04381062 60:-0.618856 61:-0.56097517 62:-0.81159052 63:-0.66270774 64:-0.7668383 65:-0.66658527 66:0.11591006 67:0.23823159 68:-0.9102781 69:0.20819985 70:0.32897021 71:-0.90955987 72:-0.67099263 73:-0.66322458 74:0.28877997 75:-0.66322458 76:-0.79029191 77:-0.64130586 78:-0.86729189 79:-0.63843766 80:-0.31624286 81:0.34781138 82:-0.12653181 83:-0.92635541 84:-0.053171284 85:0.44799812 86:-0.89743008 87:-0.61866154 88:-0.63140291 89:-0.033113099 90:-0.63140291 91:-0.60021653 92:-0.80692989 93:-0.7601325 94:-0.7638776 95:-0.60838252 96:0.21680372 97:0.028102373 98:-0.92516527 99:0.19619267 100:0.27710503 101:-0.888328 102:-0.65841182 103:-0.63242012 104:0.35390185 105:-0.63242012 106:-0.85247028 107:-0.68544946 108:-0.85016444 109:-0.63454736 110:-0.326227 111:0.40798044 112:-0.32550966 113:-0.93929975 114:-0.049817484 115:0.41558969 116:-0.88693295 117:-0.6297595 118:-0.64491781 119:-0.011120195 120:-0.64491781 121:-0.65656944 122:-0.073331846 123:0.61148994 124:-0.31708332 125:0.30218351 126:-0.55278923 127:0.27302252 128:0.035414855 129:-0.88043814 130:-0.8826707 131:-0.68516051 132:-0.28092698 133:0.36523962 134:-0.085865132 135:-0.25953866 136:-0.66717051 137:-0.66338193 138:-0.42019629 139:0.39929202 140:-0.54303134 141:-0.2470968 142:0.99320654 143:0.58450178 144:-0.49397775 145:-0.32127847 146:-0.15791754 147:-0.73838331 148:-0.59594323 149:-0.55008002 150:-0.30534371 151:0.065558794 152:-0.17225987 153:-0.87709461 154:-0.80251496 155:-0.22917053 156:0.2873692 157:-0.53987076 158:-0.217818 159:0.60851372 160:0.21411438 161:-0.57235982 162:-0.28828239 163:0.32224437 164:-0.42898838 165:0.23581307 166:0.81700741 167:-0.007901628 168:-0.34548456 169:-0.041450656 170:-0.22335025 171:0.28986253 172:-0.22699881 173:-0.51974251 174:0.23974809 175:-0.47109951 176:-0.35183264 177:-0.22699881 178:-0.43844411 
-0 0 78.26881089114697 0 0 1:-0.6298878 2:-0.71933989 3:-0.51894328 4:-0.49717822 5:-0.50749291 6:0.22203223 7:0.14619536 8:-0.8770852 9:-0.45224684 10:0.23253041 11:-0.82836035 12:-0.62361486 13:-0.64232259 14:-0.46238749 15:-0.64232259 16:-0.45491557 17:-0.56177423 18:-0.79407872 19:-0.61261169 20:-0.41023398 21:-0.0082394306 22:0.32141825 23:-0.96460709 24:-0.54102842 25:0.057404916 26:-0.92342358 27:-0.75199353 28:-0.76379673 29:-0.54264626 30:-0.76379673 31:-0.59987982 32:-0.71120114 33:-0.58399363 34:-0.48233199 35:-0.49976956 36:0.15517545 37:0.1191725 38:-0.86969052 39:-0.47591338 40:0.22236111 41:-0.8140296 42:-0.61704138 43:-0.63191156 44:-0.47519707 45:-0.63191156 46:-0.45439503 47:-0.70895292 48:-0.7836894 49:-0.60787449 50:-0.51223024 51:-0.042580285 52:0.30814955 53:-0.9646892 54:-0.55299842 55:0.059432045 56:-0.92136217 57:-0.75368798 58:-0.76745285 59:-0.553591 60:-0.76745285 61:-0.53644138 62:-0.72685245 63:-0.69210129 64:-0.46834992 65:-0.59224604 66:0.088206562 67:0.16977544 68:-0.86180965 69:-0.51910258 70:0.19075448 71:-0.79262554 72:-0.60935368 73:-0.61817338 74:-0.50795138 75:-0.61817338 76:-0.4670185 77:-0.78728687 78:-0.75927973 79:-0.6010832 80:-0.58574521 81:-0.060674893 82:0.30273127 83:-0.96550339 84:-0.57458692 85:0.055118621 86:-0.91848289 87:-0.75859856 88:-0.77839221 89:-0.57394228 90:-0.77839221 91:-0.40841928 92:-0.8079465 93:-0.75471721 94:-0.44692596 95:-0.65432861 96:0.070953871 97:0.24169419 98:-0.86741836 99:-0.58997576 100:0.11427816 101:-0.78285636 102:-0.60661417 103:-0.61269675 104:-0.58403843 105:-0.61269675 106:-0.51333356 107:-0.83378167 108:-0.70382951 109:-0.58826599 110:-0.60117404 111:-0.041969732 112:0.1560397 113:-0.96732446 114:-0.605587 115:0.035997752 116:-0.91695675 117:-0.7704054 118:-0.7990067 119:-0.60956949 120:-0.7990067 121:-0.29172682 122:-0.13171167 123:0.4995974 124:-0.43010323 125:-0.023588559 126:-0.53024496 127:0.50291069 128:0.022999759 129:-0.75054272 130:-0.69361952 131:0.31255368 132:0.37121873 133:-0.46285859 134:-0.78831606 135:0.5758274 136:0.5596532 137:-0.4606491 138:-0.083440571 139:-0.31589439 140:-0.33077838 141:0.41560831 142:0.99272135 143:-0.36649149 144:0.46159481 145:-0.58362808 146:-0.22030472 147:-0.94333861 148:-0.67524079 149:-0.022617905 150:0.63648803 151:0.40564215 152:0.4815616 153:-0.94709025 154:-0.94914022 155:0.10579901 156:0.62640332 157:0.20230334 158:-0.049974296 159:-0.38342547 160:-0.060743836 161:-0.36591544 162:-0.25819081 163:-0.23485864 164:-0.31552862 165:-0.43001142 166:0.91508367 167:-0.37070844 168:-0.48064019 169:-0.52218012 170:-0.42996559 171:0.035721963 172:-0.26570984 173:-0.88960732 174:-0.41742153 175:-0.40259387 176:-0.35904115 177:-0.26570984 178:-0.93706498 
-3.375103246592709 0.4659606808443547 0 51.32162523062409 38.36480328516238 1:-0.32047786 2:-0.83302808 3:-0.32031384 4:-0.68701902 5:-0.68599467 6:-0.16066023 7:0.40981789 8:-0.88827608 9:-0.36514121 10:0.011350808 11:-0.82991111 12:-0.73349442 13:-0.75557277 14:-0.35851002 15:-0.75557277 16:-0.69015881 17:-0.014371885 18:-0.86570945 19:-0.6776 20:0.20667182 21:0.31192199 22:-0.32425724 23:-0.88872756 24:-0.016326712 25:0.27826155 26:-0.80682791 27:-0.62960108 28:-0.64797174 29:-0.020544338 30:-0.64797174 31:-0.33202978 32:-0.77282839 33:-0.35876102 34:-0.69902752 35:-0.62731045 36:-0.15464332 37:0.3509448 38:-0.88840103 39:-0.36115699 40:0.024197942 41:-0.82595585 42:-0.7247398 43:-0.75882729 44:-0.34622065 45:-0.75882729 46:-0.69254325 47:-0.34169441 48:-0.84598001 49:-0.69456688 50:-0.057154291 51:0.265181 52:-0.2186764 53:-0.89449675 54:-0.020785384 55:0.28703918 56:-0.81064482 57:-0.63044263 58:-0.66603557 59:-0.019474602 60:-0.66603557 61:-0.33275901 62:-0.69765112 63:-0.45449984 64:-0.7283616 65:-0.62775899 66:-0.13788927 67:0.36535117 68:-0.89505039 69:-0.35378098 70:0.040102759 71:-0.82558193 72:-0.71199775 73:-0.76426993 74:-0.32467004 75:-0.76426993 76:-0.7175234 77:-0.51541897 78:-0.8026122 79:-0.72284377 80:-0.2347928 81:0.23866376 82:-0.11988064 83:-0.90758878 84:-0.027614609 85:0.29886325 86:-0.82046004 87:-0.63340997 88:-0.70083333 89:-0.012691554 90:-0.70083333 91:-0.38066949 92:-0.74014538 93:-0.49703889 94:-0.77493895 95:-0.59533203 96:-0.020782016 97:0.26871233 98:-0.91517507 99:-0.3365379 100:0.05661106 101:-0.8391035 102:-0.70121918 103:-0.77691892 104:-0.29279484 105:-0.77691892 106:-0.79827081 107:-0.60562884 108:-0.71510474 109:-0.76347004 110:-0.28100287 111:0.29951112 112:-0.23819968 113:-0.92500069 114:-0.026281274 115:0.30697702 116:-0.83600138 117:-0.64436998 118:-0.7506983 119:0.0079722332 120:-0.7506983 121:-0.36770199 122:-0.29801384 123:0.33066938 124:-0.24505362 125:-0.72220244 126:-0.87895962 127:0.013166994 128:-0.029937738 129:-0.88434181 130:-0.87325461 131:0.045885681 132:-0.14127287 133:-0.14597099 134:-0.7401568 135:0.98893654 136:0.34714517 137:-0.6656 138:-0.22745499 139:-0.38926929 140:-0.54920779 141:0.36013254 142:0.98060307 143:-0.2117933 144:0.14605674 145:-0.59162025 146:-0.39851253 147:-0.86964043 148:-0.5504982 149:-0.021410343 150:0.72518736 151:0.54956953 152:0.1178739 153:-0.90584287 154:-0.92191455 155:0.25027132 156:0.04907604 157:-0.21595614 158:-0.17271706 159:0.30834478 160:0.49231097 161:-0.63743856 162:-0.2745038 163:-0.38000213 164:-0.41176806 165:-0.36478065 166:0.95908656 167:-0.42723673 168:-0.50031711 169:-0.0086951255 170:-0.26357683 171:0.047323632 172:-0.4337923 173:-0.32926899 174:-0.37277058 175:-0.55147612 176:-0.76342728 177:-0.4337923 178:-0.38414477 
-0 0 103.0503878587579 0 0 1:-0.77674619 2:-0.048774403 3:-0.3077329 4:-0.77636511 5:0.21077091 6:0.51137499 7:-0.55979756 8:-0.91031837 9:-0.1287081 10:0.078487786 11:-0.85864933 12:-0.79409761 13:-0.79289437 14:-0.20164428 15:-0.79289437 16:0.094268867 17:-0.78188896 18:-0.051900803 19:-0.9422848 20:-0.66554355 21:-0.56091115 22:0.58399758 23:-0.99745378 24:-0.74845916 25:-0.56459928 26:-0.98974493 27:-0.96206338 28:-0.96483529 29:-0.74879019 30:-0.96483529 31:-0.72972843 32:-0.049451756 33:-0.40449464 34:-0.76804258 35:0.19465892 36:0.36327883 37:-0.53578121 38:-0.90449184 39:-0.14177328 40:0.081588974 41:-0.85177554 42:-0.78480851 43:-0.78084907 44:-0.19164072 45:-0.78084907 46:0.083601531 47:-0.89146742 48:-0.016317324 49:-0.94306341 50:-0.77024429 51:-0.5804132 52:0.62344002 53:-0.99748147 54:-0.75006563 55:-0.5553334 56:-0.98978268 57:-0.96167119 58:-0.96519037 59:-0.74756116 60:-0.96519037 61:-0.66032336 62:-0.42195825 63:-0.57823621 64:-0.7573443 65:-0.14281441 66:0.18816109 67:-0.41479897 68:-0.89720314 69:-0.16765237 70:0.065051104 71:-0.84008969 72:-0.77052009 73:-0.75633199 74:-0.17999321 75:-0.75633199 76:0.029054976 77:-0.93983992 78:0.05023901 79:-0.93711401 80:-0.83419508 81:-0.58415715 82:0.63519357 83:-0.99753681 84:-0.75283206 85:-0.54688018 86:-0.98968395 87:-0.96100189 88:-0.96600968 89:-0.74488099 90:-0.96600968 91:-0.55258228 92:-0.71728992 93:-0.69653404 94:-0.746458 95:-0.50095834 96:0.11346294 97:-0.066272396 98:-0.90162843 99:-0.21199521 100:0.028116276 101:-0.8353245 102:-0.74492949 103:-0.72486039 104:-0.16613024 105:-0.72486039 106:-0.049725891 107:-0.95620859 108:0.18277402 109:-0.93267331 110:-0.85603543 111:-0.55067948 112:0.58281089 113:-0.99768331 114:-0.75466078 115:-0.52201694 116:-0.9897612 117:-0.95916522 118:-0.96789012 119:-0.73640384 120:-0.96789012 121:-0.2078412 122:0.29355055 123:0.73195227 124:-0.65496043 125:-0.23468925 126:-0.7845334 127:0.32634034 128:-0.29667742 129:-0.94126305 130:-0.96188762 131:0.067306538 132:-0.28796885 133:-0.34811791 134:-0.49754817 135:0.23332025 136:-0.29765874 137:0.25944459 138:0.28151059 139:-0.22373365 140:-0.7638916 141:0.082487004 142:0.99733017 143:0.20977747 144:-0.30376577 145:0.30102323 146:0.23806773 147:-0.87659318 148:-0.95907816 149:-0.52292885 150:-0.21741067 151:-0.11960859 152:0.080538014 153:-0.98818302 154:-0.99411814 155:0.39308354 156:-0.21248021 157:-0.17056293 158:-0.12967301 159:-0.029300029 160:-0.047654585 161:0.31925565 162:0.35950172 163:0.047423105 164:-0.63260992 165:-0.13811075 166:0.94857997 167:-0.32652329 168:-0.5351963 169:-0.73759939 170:-0.86687313 171:-0.19340446 172:0.18750129 173:-0.87714949 174:-0.10642864 175:-0.61492462 176:-0.051383861 177:0.18750129 178:-0.68818276 
-0 0 0 0 39.18595288490077 1:-0.11447719 2:-0.77495411 3:0.30512177 4:-0.79677086 5:-0.59309787 6:-0.4450305 7:0.26859608 8:-0.95752747 9:-0.76706891 10:-0.48909713 11:-0.93577017 12:-0.92169108 13:-0.92880357 14:-0.77160005 15:-0.92880357 16:-0.05972329 17:-0.61334667 18:-0.50128778 19:-0.84141275 20:-0.46730269 21:-0.34945942 22:0.37371378 23:-0.98095305 24:-0.64993768 25:-0.35766484 26:-0.95514545 27:-0.89951611 28:-0.90779908 29:-0.65262478 30:-0.90779908 31:-0.078350604 32:-0.79371616 33:0.2574391 34:-0.80618338 35:-0.6337274 36:-0.50534601 37:0.3104664 38:-0.95706083 39:-0.76810996 40:-0.47832636 41:-0.9320194 42:-0.91429969 43:-0.92918927 44:-0.76401779 45:-0.92918927 46:-0.052337766 47:-0.75068366 48:-0.42355405 49:-0.8542305 50:-0.60101318 51:-0.37864292 52:0.44065042 53:-0.98266638 54:-0.65360542 55:-0.34917962 56:-0.95707816 57:-0.89975964 58:-0.91482809 59:-0.65444068 60:-0.91482809 61:0.019069731 62:-0.82681377 63:0.06413077 64:-0.82425479 65:-0.80801354 66:-0.54187186 67:0.52869751 68:-0.96110032 69:-0.77061668 70:-0.48498288 71:-0.93132624 72:-0.90506905 73:-0.9237163 74:-0.75508956 75:-0.9237163 76:-0.054560554 77:-0.82832768 78:-0.26258366 79:-0.87059606 80:-0.69401512 81:-0.3973426 82:0.49044587 83:-0.98632243 84:-0.65968892 85:-0.34715629 86:-0.96142877 87:-0.90114576 88:-0.92723644 89:-0.65647911 90:-0.92723644 91:0.31391206 92:-0.93247769 93:-0.083194409 94:-0.84122617 95:-0.92640247 96:-0.54955664 97:0.74692905 98:-0.96813317 99:-0.77601664 100:-0.49647121 101:-0.93551852 102:-0.88693515 103:-0.90638366 104:-0.74024644 105:-0.90638366 106:-0.10173647 107:-0.89159883 108:-0.010727731 109:-0.88378604 110:-0.75519106 111:-0.38951402 112:0.46182964 113:-0.9890889 114:-0.66394262 115:-0.3280583 116:-0.9653634 117:-0.89902971 118:-0.93858771 119:-0.64912909 120:-0.93858771 121:0.90211355 122:0.18857398 123:-0.053271606 124:-0.11108596 125:-0.68092064 126:-0.88680925 127:-0.43006795 128:-0.71277377 129:-0.91702674 130:-0.89534137 131:-0.2710267 132:-0.58861265 133:-0.57741919 134:-0.61781077 135:-0.23478511 136:0.29833052 137:-0.47218298 138:0.3708875 139:-0.86105879 140:-0.94958331 141:0.75835039 142:0.99700653 143:-0.66755939 144:0.49007343 145:-0.43942636 146:0.12369124 147:-0.99125899 148:-0.77811412 149:0.30413058 150:0.82642832 151:0.250606 152:-0.32186964 153:-0.93008128 154:-0.92574358 155:0.1638635 156:0.10764819 157:-0.27301294 158:-0.47552101 159:-0.3309922 160:0.05490813 161:-0.41894704 162:0.65386695 163:-0.76148457 164:-0.8052345 165:-0.7698231 166:0.77580167 167:-0.83559752 168:-0.87545833 169:-0.63676365 170:-0.70746809 171:-0.083798716 172:0.062431058 173:-0.88091256 174:-0.77095576 175:-0.8625237 176:-0.55928913 177:0.062431058 178:-0.91948617 
-0 0 0 14.23984771836871 29.80154121543173 1:-0.40138132 2:-0.69587427 3:0.21293052 4:-0.83003529 5:-0.46902884 6:-0.20908466 7:0.074521978 8:-0.94667388 9:-0.59292058 10:-0.35613122 11:-0.92740566 12:-0.91235674 13:-0.91691513 14:-0.60744692 15:-0.91691513 16:-0.30930919 17:-0.51854798 18:-0.50554751 19:-0.88006824 20:-0.32756763 21:-0.24753358 22:0.20409842 23:-0.98204399 24:-0.54724473 25:-0.28560857 26:-0.95911212 27:-0.90658619 28:-0.9109978 29:-0.55087124 30:-0.9109978 31:-0.37749873 32:-0.68117849 33:0.12511292 34:-0.83284126 35:-0.47583204 36:-0.26609133 37:0.084046027 38:-0.94434489 39:-0.59981297 40:-0.35553042 41:-0.92174466 42:-0.90639524 43:-0.91522971 44:-0.60461368 45:-0.91522971 46:-0.32138821 47:-0.70364396 48:-0.44669479 49:-0.88852868 50:-0.48927795 51:-0.27581465 52:0.24595674 53:-0.98310418 54:-0.55318726 55:-0.28697353 56:-0.96011774 57:-0.9076805 58:-0.91666239 59:-0.55476226 60:-0.91666239 61:-0.32585225 62:-0.7243362 63:-0.070314497 64:-0.84657705 65:-0.63248157 66:-0.31945912 67:0.21809673 68:-0.94687353 69:-0.61271361 70:-0.3746073 71:-0.91942996 72:-0.90093481 73:-0.91114802 74:-0.6046266 75:-0.91114802 76:-0.3615919 77:-0.79945348 78:-0.31839216 79:-0.90021847 80:-0.61258941 81:-0.29017284 82:0.30904381 83:-0.98586831 84:-0.56327083 85:-0.29323785 86:-0.96344012 87:-0.91085928 88:-0.92839871 89:-0.55928883 90:-0.92839871 91:-0.18756202 92:-0.84229414 93:-0.23391073 94:-0.86460481 95:-0.75391734 96:-0.31850284 97:0.35414655 98:-0.95710031 99:-0.63714621 100:-0.42310039 101:-0.92579998 102:-0.89625229 103:-0.90158711 104:-0.6159374 105:-0.90158711 106:-0.44049983 107:-0.86079562 108:-0.1309722 109:-0.91458204 110:-0.66893018 111:-0.26979839 112:0.21625086 113:-0.98888442 114:-0.57560749 115:-0.30218682 116:-0.96760274 117:-0.91516395 118:-0.94243598 119:-0.56192717 120:-0.94243598 121:0.34476959 122:0.15161794 123:0.20865599 124:-0.21856949 125:-0.39331378 126:-0.74607194 127:-0.26772324 128:-0.24329653 129:-0.87681864 130:-0.89555395 131:-0.068685804 132:-0.37980387 133:-0.4873942 134:-0.32871201 135:-0.88508866 136:-0.27263161 137:-0.44175948 138:-0.10391873 139:-0.64122652 140:-0.89757718 141:0.5768354 142:0.99687977 143:-0.41436919 144:0.23477203 145:-0.91579684 146:-0.82174405 147:-0.68980155 148:-0.13571706 149:0.071600731 150:0.74191803 151:0.15090742 152:-0.12820294 153:-0.88725586 154:-0.69746561 155:0.35533875 156:-0.30007173 157:-0.074186813 158:-0.18848647 159:0.16108656 160:0.0122866 161:-0.2776635 162:0.18605325 163:-0.58082519 164:-0.82786362 165:-0.59268426 166:0.59704961 167:-0.71597729 168:-0.81595192 169:-0.53475929 170:-0.71837723 171:0.15275882 172:-0.023813639 173:-0.84911262 174:-0.57562463 175:-0.8559222 176:-0.40176092 177:-0.023813639 178:-0.8723654 
-0 0 0 0 71.89042172375028 1:0.11010861 2:-0.95540201 3:-0.54687701 4:-0.42727685 5:-0.91370649 6:-0.4390716 7:0.83616217 8:-0.70121614 9:-0.53131185 10:-0.013521261 11:-0.61936988 12:-0.57949127 13:-0.60800203 14:-0.50519887 15:-0.60800203 16:-0.69269288 17:-0.10065711 18:-0.94114692 19:-0.14246805 20:0.02806674 21:0.38385972 22:-0.077900296 23:-0.54466327 24:-0.2639186 25:0.42038077 26:-0.4269459 27:-0.29399408 28:-0.32440916 29:-0.2694594 30:-0.32440916 31:0.064789043 32:-0.92333476 33:-0.58084683 34:-0.43928886 35:-0.86407007 36:-0.39178086 37:0.74658594 38:-0.70019887 39:-0.52558452 40:0.011592684 41:-0.61599802 42:-0.56515287 43:-0.6080338 44:-0.49481989 45:-0.6080338 46:-0.69962329 47:-0.30170594 48:-0.93321775 49:-0.16075221 50:-0.097781943 51:0.34421813 52:-0.099310283 53:-0.55344024 54:-0.26453367 55:0.43349938 56:-0.43246003 57:-0.28992424 58:-0.34628526 59:-0.27122148 60:-0.34628526 61:0.0078727682 62:-0.76603174 63:-0.64959148 64:-0.47671086 65:-0.78072564 66:-0.30754106 67:0.68114555 68:-0.71117683 69:-0.51231363 70:0.044099648 71:-0.6182909 72:-0.54081889 73:-0.61283956 74:-0.4784561 75:-0.61283956 76:-0.73583149 77:-0.39109213 78:-0.91311319 79:-0.21008351 80:-0.16371462 81:0.32827433 82:-0.14027597 83:-0.58084994 84:-0.26241096 85:0.45085884 86:-0.44811909 87:-0.28325781 88:-0.39841923 89:-0.27339419 90:-0.39841923 91:-0.081793367 92:-0.71174053 93:-0.65655795 94:-0.54475767 95:-0.62835194 96:-0.11568343 97:0.4447808 98:-0.75082503 99:-0.48399377 100:0.11021153 101:-0.64064919 102:-0.49496733 103:-0.63809207 104:-0.46257556 105:-0.63809207 106:-0.81624819 107:-0.41729295 108:-0.86020679 109:-0.28709446 110:-0.13905953 111:0.41633624 112:-0.30494622 113:-0.63253236 114:-0.24541312 115:0.48051293 116:-0.47948151 117:-0.26536194 118:-0.48682927 119:-0.27454959 120:-0.48682927 121:-0.10368608 122:0.014505691 123:0.29571376 124:0.097992573 125:-0.47572993 126:0.11703549 127:-0.069053097 128:-0.10220686 129:-0.75261514 130:-0.84516093 131:0.18464708 132:0.054255337 133:-0.40170209 134:0.56993136 135:-0.43991115 136:0.084645093 137:-0.92565689 138:-0.41216636 139:-0.5609927 140:-0.42649715 141:0.53847458 142:0.95408231 143:-0.55476632 144:0.51641972 145:-0.49305372 146:-0.057693696 147:-0.7565032 148:-0.14730475 149:-0.30760962 150:0.62361455 151:0.50438329 152:0.49723868 153:-0.7313824 154:-0.62891629 155:0.35097335 156:-0.22053412 157:-0.56315511 158:-0.50461131 159:0.20590537 160:-0.013447592 161:-0.81892602 162:-0.39331444 163:-0.60788355 164:-0.23275772 165:-0.5300053 166:0.97772581 167:-0.38263336 168:-0.22980109 169:-0.25868753 170:0.090641808 171:-0.051612974 172:-0.16487834 173:-0.56049625 174:-0.53682747 175:-0.35087892 176:-0.71616152 177:-0.16487834 178:-0.62233353 
-9.938157601650872 3.162365689255914 123.8772713134235 5.294776228383283 0 1:-0.86420702 2:-0.19234157 3:-0.57889608 4:-0.67231422 5:0.084055157 6:0.73874671 7:-0.47554467 8:-0.87554703 9:0.19315662 10:0.43613208 11:-0.8037889 12:-0.60173515 13:-0.60807477 14:0.13393516 15:-0.60807477 16:-0.52843364 17:-0.49007566 18:-0.60871485 19:-0.8798441 20:-0.25736078 21:-0.077468708 22:0.10247058 23:-0.99233119 24:-0.38954987 25:-0.10206093 26:-0.97512369 27:-0.88734406 28:-0.88750737 29:-0.3913465 30:-0.88750737 31:-0.84176656 32:-0.10519608 33:-0.65490115 34:-0.65512691 35:0.15905922 36:0.61895501 37:-0.54301674 38:-0.86664687 39:0.17215 40:0.4230296 41:-0.78823973 42:-0.59284003 43:-0.58631322 44:0.13415518 45:-0.58631322 46:-0.54121314 47:-0.73806347 48:-0.60645477 49:-0.87704243 50:-0.4785978 51:-0.12037897 52:0.17746004 53:-0.99228259 54:-0.39658626 55:-0.10555208 56:-0.97428694 57:-0.88752293 58:-0.88653057 59:-0.39236737 60:-0.88653057 61:-0.80151458 62:-0.33169773 63:-0.77553232 64:-0.62750948 65:-0.010807083 66:0.47585248 67:-0.56758239 68:-0.84931505 69:0.12918155 70:0.37204249 71:-0.75545191 72:-0.57974141 73:-0.54474053 74:0.12609593 75:-0.54474053 76:-0.5898557 77:-0.8435785 78:-0.61072189 79:-0.86324118 80:-0.60059575 81:-0.13324878 82:0.17385219 83:-0.99198489 84:-0.41034355 85:-0.12245319 86:-0.97173717 87:-0.88823654 88:-0.88440635 89:-0.39468728 90:-0.88440635 91:-0.73146191 92:-0.62722518 93:-0.86145542 94:-0.56708465 95:-0.32250817 96:0.38892211 97:-0.33429982 98:-0.82651963 99:0.0562854 100:0.26862473 101:-0.71024273 102:-0.54398296 103:-0.46749251 104:0.11297402 105:-0.46749251 106:-0.64118362 107:-0.89318825 108:-0.6288947 109:-0.83405028 110:-0.6654911 111:-0.11665009 112:0.087618116 113:-0.99095457 114:-0.42958141 115:-0.15326403 116:-0.96703251 117:-0.88570709 118:-0.87591695 119:-0.39189168 120:-0.87591695 121:-0.70356479 122:0.052532917 123:0.91005497 124:-0.6386136 125:0.44139679 126:-0.67392107 127:0.62414816 128:0.087536423 129:-0.89236714 130:-0.96113963 131:0.22742845 132:-0.026655833 133:0.26722316 134:-0.17321186 135:0.060664869 136:-0.25616794 137:0.044092187 138:-0.26449897 139:0.19599069 140:-0.37643804 141:-0.24405776 142:0.98926326 143:0.5171151 144:-0.42778054 145:-0.029944765 146:-0.020723518 147:-0.8664769 148:-0.86651742 149:-0.50264479 150:-0.60170978 151:-0.4473151 152:-0.34512089 153:-0.98240056 154:-0.98163411 155:0.30579659 156:-0.30737995 157:0.074284511 158:-0.038760097 159:0.027657355 160:-0.53249995 161:0.014895985 162:-0.31080963 163:0.4062643 164:-0.33557676 165:0.20033488 166:0.97913831 167:0.018165873 168:-0.24159373 169:-0.37759091 170:-0.66677946 171:0.37561566 172:-0.032117025 173:-0.79081091 174:0.2245181 175:-0.36175329 176:0.012125404 177:-0.032117025 178:-0.6762137 
-0 0 38.29082712876074 21.09818885739696 1.19797392237259 1:-0.38720136 2:-0.60574693 3:-0.070225071 4:-0.79990598 5:-0.37333652 6:-0.03624903 7:0.0047662276 8:-0.93994002 9:-0.37532698 10:-0.096564953 11:-0.90606366 12:-0.84267718 13:-0.85383368 14:-0.39706107 15:-0.85383368 16:0.19785084 17:-0.88470093 18:-0.29465102 19:-0.84325587 20:-0.85303159 21:-0.51025729 22:0.83863731 23:-0.99380899 24:-0.8496222 25:-0.46115219 26:-0.98089454 27:-0.94012025 28:-0.94226505 29:-0.84752042 30:-0.94226505 31:-0.34869228 32:-0.59357791 33:-0.135013 34:-0.80507062 35:-0.38096033 36:-0.12729294 37:0.038475346 38:-0.93707572 39:-0.39027334 40:-0.11030322 41:-0.90051381 42:-0.84014969 43:-0.85531984 44:-0.39741293 45:-0.85531984 46:0.18724706 47:-0.8941144 48:-0.20924196 49:-0.85329823 50:-0.81863297 51:-0.52539926 52:0.74350943 53:-0.99414249 54:-0.85171211 55:-0.4625619 56:-0.98132227 57:-0.94126067 58:-0.94675502 59:-0.85089226 60:-0.94675502 61:-0.26702835 62:-0.72228987 63:-0.32119525 64:-0.8145954 65:-0.59508959 66:-0.2321183 67:0.21649211 68:-0.9367784 69:-0.42206991 70:-0.16539499 71:-0.89771162 72:-0.84308839 73:-0.85133702 74:-0.40248954 75:-0.85133702 76:0.14784421 77:-0.92308838 78:-0.066644899 79:-0.86277236 80:-0.84114169 81:-0.53672213 82:0.73011097 83:-0.99487503 84:-0.85654158 85:-0.47178576 86:-0.98269382 87:-0.94444858 88:-0.95395957 89:-0.85642305 90:-0.95395957 91:-0.0435334 92:-0.87645635 93:-0.44509648 94:-0.83736843 95:-0.78376945 96:-0.31160591 97:0.45537522 98:-0.95051241 99:-0.48618487 100:-0.29654718 101:-0.91414213 102:-0.8614222 103:-0.85220396 104:-0.42610411 105:-0.85220396 106:0.089902356 107:-0.94630519 108:0.17665298 109:-0.87917046 110:-0.85414546 111:-0.54110997 112:0.65363355 113:-0.99613351 114:-0.86573268 115:-0.50576772 116:-0.98596161 117:-0.95206124 118:-0.96504388 119:-0.86649872 120:-0.96504388 121:0.040983166 122:-0.0066503013 123:0.41933155 124:-0.54860072 125:-0.22942137 126:-0.42563728 127:-0.025211986 128:-0.31640205 129:-0.70740595 130:-0.67085942 131:0.4668442 132:-0.10879546 133:-0.40476113 134:-0.11077262 135:-0.38476125 136:0.077226299 137:-0.25756906 138:0.07904357 139:-0.36857409 140:-0.7972349 141:0.34336294 142:0.99369787 143:-0.12535987 144:0.0073293634 145:-0.69332769 146:-0.08542133 147:-0.92240536 148:-0.64089302 149:-0.01143337 150:0.72825742 151:0.34377821 152:-0.014284737 153:-0.94631617 154:-0.94188795 155:0.019381452 156:0.66014816 157:0.43245554 158:0.75222558 159:-0.30430644 160:-0.73254233 161:-0.27292266 162:0.10415761 163:-0.25766729 164:-0.6725013 165:-0.36646027 166:0.92762186 167:-0.51102669 168:-0.67058435 169:-0.84340984 170:-0.78173468 171:-0.56756508 172:-0.1938093 173:-0.95852446 174:-0.35598346 175:-0.709498 176:-0.31934347 177:-0.1938093 178:-0.90286568 
-0 0 0 4.820431986151016 0 1:-0.38933083 2:-0.80098334 3:0.10471158 4:-0.78924018 5:-0.63734137 6:-0.22082021 7:0.34237841 8:-0.96396272 9:-0.60226088 10:-0.15257405 11:-0.94748726 12:-0.87727386 13:-0.8886222 14:-0.60145514 15:-0.8886222 16:-0.21974026 17:-0.71939056 18:-0.51349945 19:-0.76063267 20:-0.63357528 21:-0.26643233 22:0.58438337 23:-0.98573029 24:-0.79690856 25:-0.23307533 26:-0.96518764 27:-0.89862995 28:-0.90368605 29:-0.79848601 30:-0.90368605 31:-0.38686749 32:-0.77058214 33:0.026100226 34:-0.79309873 35:-0.61267717 36:-0.24154578 37:0.29843619 38:-0.96168985 39:-0.61045562 40:-0.16407175 41:-0.94003309 42:-0.87327053 43:-0.88850735 44:-0.60357257 45:-0.88850735 46:-0.2478932 47:-0.77179145 48:-0.4576868 49:-0.77121154 50:-0.63771087 51:-0.27819599 52:0.49606274 53:-0.98682255 54:-0.79954161 55:-0.23186473 56:-0.96588886 57:-0.90011524 58:-0.90989365 59:-0.80414732 60:-0.90989365 61:-0.33817584 62:-0.78045519 63:-0.18751771 64:-0.80350586 65:-0.72721013 66:-0.26832562 67:0.4489208 68:-0.96207731 69:-0.62890023 70:-0.20156054 71:-0.93414652 72:-0.87170409 73:-0.88334583 74:-0.61093232 75:-0.88334583 76:-0.29022535 77:-0.83238328 78:-0.34609946 79:-0.78714787 80:-0.68704435 81:-0.28482018 82:0.4768267 83:-0.98915281 84:-0.80520337 85:-0.23762215 86:-0.96840176 87:-0.9042391 88:-0.92183326 89:-0.81443829 90:-0.92183326 91:-0.17209321 92:-0.89617982 93:-0.35529745 94:-0.81947356 95:-0.83464025 96:-0.29631567 97:0.57981048 98:-0.9722227 99:-0.67241475 100:-0.30684483 101:-0.94224514 102:-0.88120354 103:-0.87565761 104:-0.63821469 105:-0.87565761 106:-0.34077244 107:-0.89158924 108:-0.17096349 109:-0.8062308 110:-0.73736032 111:-0.28580894 112:0.40616626 113:-0.99225446 114:-0.81616945 115:-0.27690415 116:-0.97375794 117:-0.91450259 118:-0.93774758 119:-0.83024218 120:-0.93774758 121:0.23239706 122:-0.045480919 123:0.16091478 124:-0.27346923 125:-0.37910443 126:-0.46651502 127:-0.41257338 128:-0.38298142 129:-0.91655212 130:-0.93240644 131:-0.4043637 132:-0.29217154 133:-0.38922433 134:-0.3024534 135:-0.4519991 136:0.43410432 137:-0.62223605 138:-0.36230598 139:-0.51958209 140:-0.74381276 141:0.58777941 142:0.9986919 143:-0.45345608 144:0.33601911 145:-0.7722305 146:-0.13105639 147:-0.93613565 148:-0.59359554 149:0.10991649 150:0.7204279 151:0.12564498 152:-0.36739884 153:-0.93611244 154:-0.92898863 155:0.032090224 156:0.27640271 157:0.067772246 158:0.53433059 159:-0.59096995 160:-0.2345031 161:-0.55241107 162:-0.41600636 163:-0.51831737 164:-0.65647149 165:-0.59281389 166:0.36504966 167:-0.68284078 168:-0.81480763 169:-0.78995057 170:-0.68083475 171:-0.49493191 172:-0.23361259 173:-0.94993463 174:-0.59448096 175:-0.78318981 176:-0.49084349 177:-0.23361259 178:-0.94417131 
-0 0 0 0 16.78366454102523 1:-0.029334341 2:-0.93521431 3:-0.30621206 4:-0.54971627 5:-0.8645498 6:-0.42706165 7:0.73095842 8:-0.85911038 9:-0.70797221 10:-0.080835117 11:-0.80901484 12:-0.73448947 13:-0.75869098 14:-0.68751761 15:-0.75869098 16:-0.68865317 17:-0.15811361 18:-0.89162745 19:-0.48863758 20:0.018806351 21:0.30793562 22:-0.10945768 23:-0.80336644 24:-0.2480674 25:0.32878552 26:-0.71797312 27:-0.54915095 28:-0.57342899 29:-0.2530544 30:-0.57342899 31:-0.054558042 32:-0.91245265 33:-0.33658135 34:-0.56980545 35:-0.83164133 36:-0.40475094 37:0.67941948 38:-0.8597375 39:-0.69924366 40:-0.063781516 41:-0.80595158 42:-0.72548649 43:-0.76361613 44:-0.67612561 45:-0.76361613 46:-0.69359307 47:-0.3716172 48:-0.8736345 49:-0.51402116 50:-0.13945258 51:0.26664275 52:-0.088038565 53:-0.81252046 54:-0.25001594 55:0.3377451 56:-0.72392443 57:-0.55040915 58:-0.59709171 59:-0.25435464 60:-0.59709171 61:-0.087970524 62:-0.80303476 63:-0.42608574 64:-0.61336644 65:-0.82266337 66:-0.34080219 67:0.71948375 68:-0.87206882 69:-0.68349579 70:-0.036015874 71:-0.81057097 72:-0.71188331 73:-0.77065069 74:-0.65898216 75:-0.77065069 76:-0.72091689 77:-0.49828246 78:-0.83329757 79:-0.56032951 80:-0.26821609 81:0.24338786 82:-0.054931088 83:-0.83794584 84:-0.25235762 85:0.35055429 86:-0.74229419 87:-0.55396263 88:-0.64190769 89:-0.25318213 90:-0.64190769 91:-0.1442707 92:-0.80540159 93:-0.43954571 94:-0.67997341 95:-0.74038534 96:-0.18767819 97:0.51296626 98:-0.90609104 99:-0.65858803 100:-0.0055026643 101:-0.83453989 102:-0.69474148 103:-0.78706173 104:-0.64524572 105:-0.78706173 106:-0.7956651 107:-0.58363691 108:-0.73748704 109:-0.62801558 110:-0.3027738 111:0.30699994 112:-0.21227675 113:-0.87926987 114:-0.24702035 115:0.36098626 116:-0.77533883 117:-0.56160925 118:-0.70911234 119:-0.24597809 120:-0.70911234 121:0.21245818 122:0.059227851 123:0.16216178 124:-0.10857919 125:-0.85048777 126:-1 127:-0.40151551 128:-0.52841213 129:-0.95971923 130:-0.96860635 131:-0.49487928 132:-0.36620232 133:-0.49540403 134:-0.42734801 135:-0.14348401 136:0.4571247 137:-0.84075075 138:-0.47969407 139:-0.73462533 140:-0.58916611 141:0.71710612 142:0.9869361 143:-0.71650046 144:0.66240208 145:-0.77226404 146:-0.01350278 147:-0.8879946 148:-0.30087968 149:0.31695005 150:0.65909785 151:0.35875053 152:0.39794587 153:-0.8727664 154:-0.89364105 155:0.21233265 156:0.050341369 157:-0.41419313 158:-0.34309437 159:0.41674016 160:0.40100458 161:-0.74057491 162:-0.28949385 163:-0.76114663 164:-0.43854222 165:-0.71090243 166:0.93321093 167:-0.60602358 168:-0.53755736 169:-0.24075015 170:-0.166795 171:0.16038515 172:-0.072158435 173:-0.62749805 174:-0.71615278 175:-0.56594055 176:-0.76860201 177:-0.072158435 178:-0.73258846 
-0 0 11.79618456487276 0 0 1:-0.41014852 2:-0.74899764 3:-0.15030282 4:-0.82784164 5:-0.54213263 6:-0.069030397 7:0.18509933 8:-0.94100651 9:-0.16840606 10:-0.076798754 11:-0.90330504 12:-0.82665967 13:-0.83322241 14:-0.1734166 15:-0.83322241 16:-0.47505712 17:-0.4109777 18:-0.70439228 19:-0.82642461 20:-0.18850491 21:0.0069579635 22:0.050619624 23:-0.97180819 24:-0.32475287 25:-0.015211981 26:-0.93583344 27:-0.83551271 28:-0.84070411 29:-0.32670446 30:-0.84070411 31:-0.39253272 32:-0.7817946 33:-0.23627672 34:-0.82714866 35:-0.56541035 36:-0.13367953 37:0.18817247 38:-0.93722651 39:-0.17312897 40:-0.074251382 41:-0.89678134 42:-0.81929815 43:-0.82786171 44:-0.15824761 45:-0.82786171 46:-0.47594945 47:-0.67597314 48:-0.67976598 49:-0.83296366 50:-0.42374302 51:-0.044803115 52:0.15127868 53:-0.97303797 54:-0.32854962 55:-0.013005651 56:-0.93692644 57:-0.83643863 58:-0.84589029 59:-0.32394635 60:-0.84589029 61:-0.33926133 62:-0.84101807 63:-0.40639428 64:-0.83217756 65:-0.73340003 66:-0.19409495 67:0.33955111 68:-0.93551217 69:-0.18049726 70:-0.07869381 71:-0.89061457 72:-0.80697388 73:-0.81555392 74:-0.12450163 75:-0.81555392 76:-0.49408892 77:-0.80123488 78:-0.62563942 79:-0.84115147 80:-0.58333028 81:-0.082153251 82:0.24173671 83:-0.97605522 84:-0.33396545 85:-0.013935885 86:-0.93994675 87:-0.83791167 88:-0.85694602 89:-0.31348428 90:-0.85694602 91:-0.26301719 92:-0.91066647 93:-0.51646648 94:-0.84140918 95:-0.82290357 96:-0.17250074 97:0.42961448 98:-0.9442578 99:-0.1890097 100:-0.081351187 101:-0.89401024 102:-0.7816091 103:-0.79527475 104:-0.057331928 105:-0.79527475 106:-0.57574064 107:-0.86178077 108:-0.51861394 109:-0.8514757 110:-0.6502052 111:-0.059565362 112:0.15836241 113:-0.98010129 114:-0.33542522 115:-0.0052389422 116:-0.94438669 117:-0.83482489 118:-0.87036978 119:-0.28468512 120:-0.87036978 121:-0.16724318 122:0.24507922 123:0.56621807 124:-0.54955287 125:-0.064706843 126:-0.31904483 127:-0.179063 128:-0.22063466 129:-0.8217826 130:-0.8252314 131:0.45699292 132:0.14999952 133:-0.27334248 134:-0.41474439 135:-0.37481071 136:-0.69976635 137:-0.48314635 138:-0.20668488 139:-0.14995643 140:-0.75484789 141:0.14963388 142:0.99511658 143:0.14073141 144:-0.26520224 145:-0.43211193 146:-0.54451585 147:-0.78528079 148:-0.70393302 149:-0.31105677 150:-0.29310595 151:-0.24150935 152:0.065661575 153:-0.91329094 154:-0.83773676 155:-0.16043526 156:0.53516554 157:-0.38387146 158:-0.39205936 159:0.077276932 160:-0.36966665 161:-0.43080042 162:0.0012790965 163:-0.16220996 164:-0.70602269 165:-0.16447765 166:0.78627458 167:-0.36885711 168:-0.57959218 169:-0.3179058 170:-0.56711227 171:0.44457826 172:0.083736502 173:-0.71254727 174:-0.15712672 175:-0.69558976 176:-0.26786792 177:0.083736502 178:-0.64653964 
-0 5.244079658451134 0 0 62.00741667809299 1:-0.27119275 2:-0.85842034 3:-0.56753144 4:-0.48174342 5:-0.72595207 6:-0.14540754 7:0.48546715 8:-0.75458527 9:-0.37499806 10:0.10706834 11:-0.65818123 12:-0.56893681 13:-0.59365282 14:-0.3647853 15:-0.59365282 16:-0.60299921 17:-0.35893667 18:-0.88995692 19:-0.42449373 20:-0.1818891 21:0.20417488 22:0.085640746 23:-0.85517624 24:-0.37517568 25:0.24190266 26:-0.74822088 27:-0.56622721 28:-0.58404244 29:-0.37837118 30:-0.58404244 31:-0.26289305 32:-0.84925835 33:-0.60517371 34:-0.49322963 35:-0.69710307 36:-0.16244424 37:0.4305981 38:-0.75314616 39:-0.36899948 40:0.11533733 41:-0.65545508 42:-0.55761605 43:-0.59216671 44:-0.34823341 45:-0.59216671 46:-0.60565797 47:-0.57475603 48:-0.87918989 49:-0.43713337 50:-0.32751466 51:0.1555355 52:0.083114735 53:-0.85816214 54:-0.37399887 55:0.24827757 56:-0.75128231 57:-0.56574812 58:-0.59535037 59:-0.375296 60:-0.59535037 61:-0.27949629 62:-0.75009097 63:-0.68183262 64:-0.52061877 65:-0.65867722 66:-0.12836651 67:0.34811599 68:-0.75640117 69:-0.35802224 70:0.12080948 71:-0.65211429 72:-0.53606056 73:-0.59034364 74:-0.32563227 75:-0.59034364 76:-0.6498601 77:-0.64557458 78:-0.85318581 79:-0.46372489 80:-0.37944028 81:0.1532035 82:0.022767589 83:-0.86481847 84:-0.37082418 85:0.25519123 86:-0.7558375 87:-0.56376896 88:-0.62206556 89:-0.37160041 90:-0.62206556 91:-0.32385888 92:-0.7221415 93:-0.71259554 94:-0.5633832 95:-0.5754078 96:0.019605506 97:0.19783909 98:-0.78254924 99:-0.3371435 100:0.15055565 101:-0.66348338 102:-0.49132602 103:-0.59833337 104:-0.298535 105:-0.59833337 106:-0.74877382 107:-0.66266567 108:-0.79150452 109:-0.4989247 110:-0.35727532 111:0.24264173 112:-0.17935254 113:-0.87772702 114:-0.35700068 115:0.27926073 116:-0.76433925 117:-0.55309049 118:-0.66457251 119:-0.36438598 120:-0.66457251 121:-0.41589224 122:0.091095738 123:0.43550935 124:0.078308314 125:-0.25699385 126:-0.574799 127:0.19918016 128:0.24685571 129:-0.97084155 130:-0.97486378 131:-0.39052421 132:-0.077731546 133:-0.25849504 134:0.11734644 135:-0.42566988 136:-0.18199314 137:-0.74402376 138:-0.26785274 139:-0.41650495 140:-0.39096794 141:0.37609281 142:0.98965078 143:-0.34194333 144:0.33665994 145:-0.61053161 146:0.020290274 147:-0.82486471 148:-0.34001902 149:-0.43595004 150:-0.089213584 151:0.34277585 152:0.30993415 153:-0.85477469 154:-0.80596932 155:0.21300226 156:-0.24789092 157:-0.3811377 158:-0.38223274 159:0.69227333 160:0.2025873 161:-0.64686313 162:-0.11223012 163:-0.38086244 164:-0.14814393 165:-0.37850569 166:0.89065442 167:-0.29663464 168:-0.23946799 169:-0.37052557 170:-0.18902445 171:-0.090743516 172:-0.074904902 173:-0.54106668 174:-0.36877213 175:-0.34281932 176:-0.59559131 177:-0.074904902 178:-0.45075303 
-1.771863432105062 9.159737688294843 0 0 12.02333801754101 1:-0.3769522 2:-0.84916829 3:-0.6851976 4:-0.37631171 5:-0.71779498 6:-0.080921343 7:0.47598314 8:-0.49903743 9:-0.26015749 10:0.13556609 11:-0.41520708 12:-0.43560153 13:-0.45913213 14:-0.249911 15:-0.45913213 16:-0.73676868 17:0.082890685 18:-0.9498821 19:-0.32546125 20:0.25249794 21:0.42966383 22:-0.31677087 23:-0.46481788 24:0.10145296 25:0.40703091 26:-0.33761577 27:-0.24200527 28:-0.26114695 29:0.098751861 30:-0.26114695 31:-0.40554172 32:-0.74738838 33:-0.71031951 34:-0.38720216 35:-0.59393684 36:-0.045543435 37:0.32273685 38:-0.49419664 39:-0.26130692 40:0.13446755 41:-0.40918635 42:-0.4243115 43:-0.4615814 44:-0.24644667 45:-0.4615814 46:-0.74440511 47:-0.18627784 48:-0.94352035 49:-0.33898042 50:0.082028479 51:0.39428996 52:-0.30764606 53:-0.46697604 54:0.09397022 55:0.40468945 56:-0.33790531 57:-0.24268805 58:-0.28432478 59:0.093947438 60:-0.28432478 61:-0.408851 62:-0.62727059 63:-0.76093478 64:-0.42108358 65:-0.5336179 66:-0.037566984 67:0.23580401 68:-0.50252592 69:-0.26459265 70:0.12426617 71:-0.41186494 72:-0.40450577 73:-0.4704885 74:-0.23910198 75:-0.4704885 76:-0.76475212 77:-0.3538341 78:-0.92763669 79:-0.37422543 80:-0.068936393 81:0.35548858 82:-0.26741435 83:-0.48252137 84:0.080813108 85:0.39653479 86:-0.34839336 87:-0.24477325 88:-0.33787198 89:0.089978419 90:-0.33787198 91:-0.33496447 92:-0.65504642 93:-0.75246143 94:-0.50130447 95:-0.54731248 96:0.0022355154 97:0.25104168 98:-0.56535629 99:-0.27190348 100:0.14137985 101:-0.45852132 102:-0.36139624 103:-0.51943925 104:-0.22681809 105:-0.51943925 106:-0.79519437 107:-0.44353888 108:-0.87836144 109:-0.44882663 110:-0.16715168 111:0.36610456 112:-0.28357009 113:-0.53809229 114:0.066995381 115:0.40884526 116:-0.39612881 117:-0.23788342 118:-0.4423903 119:0.095818147 120:-0.4423903 121:-0.19389678 122:-0.10011158 123:0.051694113 124:0.077765439 125:0.11026549 126:-0.39864627 127:0.30197003 128:0.58065949 129:-0.55161781 130:-0.58957418 131:0.2295372 132:-0.27002917 133:-0.068570955 134:-0.21133719 135:0.24648513 136:0.1461483 137:-0.833575 138:-0.51256044 139:-0.4288356 140:-0.51175633 141:0.25951931 142:0.80053112 143:-0.25829201 144:0.19635673 145:-0.42510165 146:-0.15936169 147:-0.60977439 148:0.096622714 149:-0.17703047 150:0.81840744 151:0.35540347 152:0.4718314 153:-0.60615163 154:-0.45939916 155:0.5942722 156:-0.3790612 157:-0.54548967 158:-0.45248891 159:-0.0141725 160:0.49771662 161:-0.74887368 162:-0.30680242 163:-0.45352114 164:-0.49046858 165:-0.25486555 166:0.97335841 167:-0.1394053 168:0.01876491 169:0.11160211 170:0.14576765 171:0.68189976 172:-0.18394088 173:-0.48899662 174:-0.259512 175:-0.18047156 176:-0.55540221 177:-0.18394088 178:-0.59267416 
-0 0 0 0 1.902071425780943 1:-0.46794397 2:-0.89111276 3:-0.39221108 4:-0.70489063 5:-0.77775517 6:-0.040116385 7:0.56240481 8:-0.86219367 9:-0.18233178 10:0.25713797 11:-0.83172813 12:-0.70056095 13:-0.72030927 14:-0.16606739 15:-0.72030927 16:-0.81810232 17:0.032879602 18:-0.9076068 19:-0.57251849 20:0.22427107 21:0.52806241 22:-0.30781272 23:-0.79712346 24:0.072995838 25:0.53485193 26:-0.73170276 27:-0.4961191 28:-0.51864212 29:0.070317176 30:-0.51864212 31:-0.47862525 32:-0.87297357 33:-0.43700137 34:-0.71283107 35:-0.7409033 36:-0.052257745 37:0.48318078 38:-0.86314845 39:-0.18419014 40:0.25979497 41:-0.82646527 42:-0.69304066 43:-0.72171954 44:-0.15444826 45:-0.72171954 46:-0.81961158 47:-0.30632192 48:-0.89595087 49:-0.58849848 50:-0.023491299 51:0.46195979 52:-0.25298714 53:-0.80697576 54:0.067070456 55:0.53702041 56:-0.73537849 57:-0.49964276 58:-0.53843542 59:0.070456393 60:-0.53843542 61:-0.50170701 62:-0.80106622 63:-0.54800367 64:-0.7312742 65:-0.74831749 66:-0.042755675 67:0.45978313 68:-0.87422493 69:-0.18617289 70:0.24410623 71:-0.82434737 72:-0.68253182 73:-0.72006914 74:-0.12890152 75:-0.72006914 76:-0.83552387 77:-0.48668153 78:-0.87191413 79:-0.61596954 80:-0.19600529 81:0.4170799 82:-0.20811185 83:-0.83208753 84:0.05831534 85:0.52226266 86:-0.74655674 87:-0.50825188 88:-0.57608751 89:0.076939649 90:-0.57608751 91:-0.52484943 92:-0.83769738 93:-0.61580304 94:-0.75594106 95:-0.71441271 96:0.041373269 97:0.19731393 98:-0.90053048 99:-0.18741611 100:0.18665038 101:-0.83264198 102:-0.66430627 103:-0.71584931 104:-0.082719166 105:-0.71584931 106:-0.87551853 107:-0.60999905 108:-0.82416484 109:-0.64549773 110:-0.27591941 111:0.4455 112:-0.36602791 113:-0.86612564 114:0.053383481 115:0.47965382 116:-0.76342586 117:-0.51550199 118:-0.62248116 119:0.10013882 120:-0.62248116 121:-0.051558764 122:0.10395001 123:0.38022508 124:-0.36890838 125:-0.021876809 126:0.67343257 127:-0.3699196 128:-0.15848567 129:-0.80182864 130:-0.66398316 131:0.19211594 132:0.072499581 133:0.037655004 134:-0.19698597 135:-0.23142459 136:-0.18372664 137:-0.81469681 138:-0.78737076 139:-0.16363425 140:-0.61912157 141:0.17476435 142:0.96444141 143:0.022765065 144:-0.058334445 145:-0.56145548 146:0.037042386 147:-0.8228051 148:-0.38250816 149:-0.052128128 150:0.45306284 151:0.17943054 152:0.29694145 153:-0.86896185 154:-0.76104943 155:0.441181 156:-0.11642453 157:-0.42479564 158:-0.42963093 159:0.34962795 160:0.28455662 161:-0.70142095 162:-0.63834734 163:-0.18552119 164:-0.43700923 165:-0.1748776 166:0.8480031 167:-0.28534953 168:-0.41775712 169:0.082994752 170:-0.10232879 171:0.86447791 172:-0.011517333 173:-0.52491671 174:-0.17578578 175:-0.5099579 176:-0.42697887 177:-0.011517333 178:-0.59938947 
-0 -0 0 0 60.64731312689761 1:-0.37146821 2:-0.7436955 3:-0.83252143 4:0.038003489 5:-0.579406 6:0.22354 7:0.30634059 8:-0.52705686 9:-0.26792142 10:0.37236819 11:-0.39376438 12:-0.0630772 13:-0.11619958 14:-0.27027587 15:-0.11619958 16:-0.71823941 17:0.22381758 18:-0.96430733 19:-0.1138589 20:0.39622021 21:0.51691857 22:-0.44291342 23:-0.66069006 24:0.057179296 25:0.48391233 26:-0.49732323 27:-0.051349295 28:-0.082897128 29:0.050259913 30:-0.082897128 31:-0.40840926 32:-0.48184826 33:-0.85472749 34:0.039502887 35:-0.32212854 36:0.28951734 37:0.064199775 38:-0.51833715 39:-0.25482657 40:0.40308955 41:-0.37736294 42:-0.044025012 43:-0.10171589 44:-0.26325333 45:-0.10171589 46:-0.73112536 47:-0.011184971 48:-0.96180714 49:-0.11246309 50:0.27026726 51:0.50521331 52:-0.46861322 53:-0.65987027 54:0.058017635 55:0.50574914 56:-0.48981473 57:-0.047431549 58:-0.092177215 59:0.048565241 60:-0.092177215 61:-0.45509017 62:-0.13444373 63:-0.89274525 64:0.032565228 65:-0.018456471 66:0.34431805 67:-0.10941895 68:-0.50542582 69:-0.23063 70:0.45868597 71:-0.34123658 72:-0.011594059 73:-0.083405186 74:-0.26283748 75:-0.083405186 76:-0.77160993 77:-0.075198873 78:-0.95638824 79:-0.11571361 80:0.22117441 81:0.51195323 82:-0.43002553 83:-0.6567919 84:0.061271988 85:0.54268364 86:-0.46815353 87:-0.043488774 88:-0.11911861 89:0.042932635 90:-0.11911861 91:-0.55200953 92:-0.11575226 93:-0.90927121 94:0.016500265 95:0.088576499 96:0.46130676 97:-0.14811074 98:-0.51569436 99:-0.18950433 100:0.53394517 101:-0.30755089 102:0.02415313 103:-0.098125328 104:-0.28734945 105:-0.098125328 106:-0.85064994 107:-0.09224379 108:-0.94260524 109:-0.12145396 110:0.23762247 111:0.58236004 112:-0.47393208 113:-0.65954308 114:0.076905018 115:0.58768222 116:-0.44184837 117:-0.057048806 118:-0.18083662 119:0.032114565 120:-0.18083662 121:-0.67786585 122:-0.37567507 123:-0.15688308 124:0.83746665 125:-0.30411072 126:-0.49906901 127:0.45953665 128:0.45142552 129:-0.61741977 130:-0.77992771 131:-0.078086996 132:0.46146186 133:-0.075758682 134:-0.50361981 135:0.23890672 136:0.13992026 137:-0.69164326 138:-0.050908084 139:-0.30310365 140:0.31782207 141:0.27430495 142:0.98985802 143:-0.5299529 144:0.81764426 145:-0.74956633 146:-0.48313958 147:-0.27524311 148:0.1429386 149:-0.56409959 150:-0.41785311 151:0.13529254 152:0.36272501 153:-0.53802775 154:-0.17419471 155:-0.0021270274 156:-0.81245645 157:-0.35038538 158:-0.094920569 159:0.6290636 160:0.43199791 161:-0.72825109 162:-0.29160899 163:-0.11781709 164:0.67099554 165:-0.27650831 166:0.9519692 167:0.13899167 168:0.13997073 169:0.057159492 170:0.30363448 171:-0.28196466 172:-0.56319963 173:-0.12984561 174:-0.28078015 175:0.19166395 176:-0.90087468 177:-0.56319963 178:-0.13560936 
-0 -0 0 0 51.69295069179151 1:-0.4860893 2:-0.68513617 3:-0.7973498 4:-0.078055004 5:-0.51220408 6:0.3132111 7:0.22657555 8:-0.62482731 9:-0.27121642 10:0.40492357 11:-0.51555419 12:-0.17061372 13:-0.22045606 14:-0.2796783 15:-0.22045606 16:-0.75473039 17:0.30637089 18:-0.9509504 19:-0.15889818 20:0.44076779 21:0.51322812 22:-0.46024471 23:-0.76041822 24:-0.10942001 25:0.46589399 26:-0.62774684 27:-0.2065193 28:-0.2389505 29:-0.12096361 30:-0.2389505 31:-0.5247282 32:-0.30141465 33:-0.81777352 34:-0.086923767 35:-0.19044546 36:0.39485862 37:-0.03283273 38:-0.62298591 39:-0.2633451 40:0.41447445 41:-0.49921114 42:-0.16358643 43:-0.22271891 44:-0.28336083 45:-0.22271891 46:-0.77429388 47:0.12956982 48:-0.94622829 49:-0.1673801 50:0.35585991 51:0.51919085 52:-0.5209132 53:-0.763699 54:-0.10952462 55:0.4778342 56:-0.62125067 57:-0.21216426 58:-0.25943834 59:-0.12929651 60:-0.25943834 61:-0.58611584 62:0.059813539 63:-0.86487296 64:-0.10489509 65:0.13125349 66:0.44867625 67:-0.32153011 68:-0.63004171 69:-0.24672209 70:0.42513801 71:-0.47698663 72:-0.1661642 73:-0.22495029 74:-0.29781805 75:-0.22495029 76:-0.82081745 77:0.0068893712 78:-0.93895084 79:-0.18282281 80:0.2783005 81:0.53396388 82:-0.5262349 83:-0.7732008 84:-0.10724364 85:0.48942696 86:-0.6123104 87:-0.23502263 88:-0.29876254 89:-0.14472138 90:-0.29876254 91:-0.70816036 92:-0.061005798 93:-0.89612875 94:-0.13323704 95:0.17371435 96:0.55719531 97:-0.40169819 98:-0.66274176 99:-0.20642064 100:0.48015571 101:-0.47065683 102:-0.19746726 103:-0.25074511 104:-0.32920908 105:-0.25074511 106:-0.89480202 107:-0.10931026 108:-0.9268918 109:-0.20056379 110:0.25631824 111:0.60513987 112:-0.6121943 113:-0.79057542 114:-0.087508793 115:0.51722348 116:-0.60845864 117:-0.29660867 118:-0.36388212 119:-0.16352945 120:-0.36388212 121:-0.60394811 122:-0.38611917 123:0.16254997 124:0.61108928 125:-0.37816091 126:-0.3468071 127:0.28080809 128:0.025404244 129:-0.77249416 130:-0.79825998 131:-0.29600893 132:-0.5408916 133:-0.31608099 134:-0.025438848 135:-0.066046545 136:0.068010888 137:-0.80187163 138:-0.032699548 139:-0.47075405 140:0.062297288 141:0.27488886 142:0.98194806 143:-0.46052653 144:0.75287593 145:-0.61233058 146:-0.4941151 147:-0.41601724 148:-0.026747945 149:-0.41769561 150:-0.53687385 151:-0.50435733 152:-0.020824838 153:-0.5753626 154:0.33188332 155:-0.16125369 156:-0.61327002 157:-0.28931166 158:-0.026874911 159:0.3244216 160:0.13005845 161:-0.69096656 162:-0.38074492 163:0.013785964 164:0.65647974 165:-0.27302151 166:0.87630209 167:0.057573382 168:0.014440426 169:-0.10370527 170:0.17015623 171:-0.39486937 172:-0.60494189 173:-0.29297911 174:-0.27441272 175:0.077753419 176:-0.8445085 177:-0.60494189 178:-0.25875786 
